-2.443202584981918335e-02,8.081171661615371704e-02,-8.044069260358810425e-02,-5.985793471336364746e-02,1.091370731592178345e-02,5.768071860074996948e-02,3.934810310602188110e-02,2.097584307193756104e-03,2.992775104939937592e-02,-7.398385554552078247e-02,-6.448119133710861206e-02,-4.021163657307624817e-02,-7.103278487920761108e-02,-6.275704503059387207e-02,-8.436098694801330566e-02,3.948564082384109497e-02,2.388611622154712677e-02,6.765084713697433472e-02,-2.126652002334594727e-02,3.339529037475585938e-03,6.805060058832168579e-02,7.971086353063583374e-02,-5.574525892734527588e-02,-2.752808853983879089e-02,7.481446117162704468e-02,-3.053652867674827576e-02,-4.495967179536819458e-02,-4.599022865295410156e-02,2.364302426576614380e-02,-2.624381333589553833e-02,-7.489626854658126831e-02,3.506346791982650757e-02,4.600290209054946899e-02,-3.545002266764640808e-02,-4.585609957575798035e-02,-7.345346733927726746e-03,1.970968022942543030e-02,9.600155055522918701e-02,2.998339198529720306e-02,-5.304916296154260635e-03,-5.062450841069221497e-02,8.436523377895355225e-02,1.215874776244163513e-01,3.116712346673011780e-02,1.323614269495010376e-01,1.254749596118927002e-01,4.717038944363594055e-02,-3.986182622611522675e-03,-1.500262618064880371e-01,-9.430247545242309570e-02,5.736576765775680542e-02,-6.254524737596511841e-02,-2.153232693672180176e-02,4.779642075300216675e-02,4.876624792814254761e-02,6.089047342538833618e-02,8.833713829517364502e-03,-7.483842968940734863e-02,4.447767883539199829e-02,2.803318202495574951e-03,4.731187969446182251e-02,-5.439558625221252441e-02,1.105462089180946350e-01,4.927943274378776550e-02,2.022420521825551987e-04,-2.644855156540870667e-02,-9.946941584348678589e-02,-9.780336171388626099e-02,4.281461611390113831e-02,1.973670721054077148e-02,4.364435747265815735e-02,-1.440429314970970154e-02,4.293187335133552551e-02,5.055667832493782043e-02,9.719363600015640259e-02,1.060213074088096619e-01,-6.051341071724891663e-02,-1.783097237348556519e-01,-1.382279098033905029e-01,-1.102603524923324585e-01,-7.553055137395858765e-02,-6.486717611551284790e-02,6.356608122587203979e-02,6.412877887487411499e-02,-7.656817883253097534e-02,-4.418030381202697754e-03,-5.927055329084396362e-02,-1.125343842431902885e-03,-2.054636180400848389e-02,-5.915907025337219238e-02,-3.774946182966232300e-02,-6.602323055267333984e-02,-7.531246542930603027e-02,-4.153082892298698425e-02,-1.118394657969474792e-01,-1.650729477405548096e-01,-7.140912860631942749e-02,-8.497317135334014893e-02,-1.099770665168762207e-01,6.425298005342483521e-02,1.253036111593246460e-01,1.801466047763824463e-01,2.488873600959777832e-01,1.445206552743911743e-01,4.433266073465347290e-02,-9.978958964347839355e-02,-1.738180816173553467e-01,-7.068669050931930542e-02,-1.169515028595924377e-01,-1.818173825740814209e-01,8.041124790906906128e-02,-7.030671089887619019e-02,5.136601626873016357e-03,6.626471132040023804e-02,4.276804253458976746e-02,8.648788183927536011e-02,4.701555520296096802e-02,6.733732670545578003e-02,-4.182669520378112793e-02,9.939405322074890137e-02,-5.359926819801330566e-02,-7.012844085693359375e-02,-6.481266021728515625e-02,-1.579166799783706665e-01,-1.154469847679138184e-01,-5.525863543152809143e-02,-8.454225957393646240e-02,-4.113903641700744629e-02,-8.962385356426239014e-02,8.654731512069702148e-02,2.065510153770446777e-01,1.278421729803085327e-01,1.125023066997528076e-01,3.612884879112243652e-02,1.181991491466760635e-02,-6.077297404408454895e-02,-1.057742834091186523e-01,2.836697921156883240e-02,-8.290056139230728149e-02,5.459800362586975098e-03,5.318939685821533203e-03,-7.131955027580261230e-02,-9.739699773490428925e-03,1.557786483317613602e-02,9.215204417705535889e-02,9.681346267461776733e-02,6.980942934751510620e-02,-3.197151422500610352e-02,5.342499539256095886e-02,3.749604895710945129e-02,1.026287395507097244e-02,4.962906613945960999e-02,-4.799557104706764221e-02,7.988841831684112549e-02,3.193578496575355530e-02,-1.239240765571594238e-01,-6.016030162572860718e-02,-1.220878362655639648e-01,7.211496704258024693e-04,1.668986491858959198e-02,1.334262192249298096e-01,1.665802001953125000e-01,3.247590735554695129e-02,1.089663710445165634e-02,2.117187529802322388e-02,4.771245270967483521e-02,4.980090260505676270e-02,-1.437093168497085571e-01,2.645574510097503662e-02,-8.651320822536945343e-03,6.208117306232452393e-02,2.854857966303825378e-02,1.450710445642471313e-01,5.372864380478858948e-02,9.296909719705581665e-02,1.345149241387844086e-02,8.040712215006351471e-03,2.745168842375278473e-02,4.360442608594894409e-02,9.043840318918228149e-02,9.296559542417526245e-02,2.073346450924873352e-02,-8.729254826903343201e-03,-8.439174294471740723e-02,-1.117166280746459961e-01,-5.666266754269599915e-02,-8.105430752038955688e-02,-7.274667266756296158e-03,-2.028518356382846832e-02,4.139865562319755554e-02,9.708648920059204102e-02,-2.522994019091129303e-02,7.305151969194412231e-02,8.025496453046798706e-02,9.472681581974029541e-02,5.561536550521850586e-02,-5.020744726061820984e-02,1.216934099793434143e-01,1.477031856775283813e-01,6.847459822893142700e-02,8.213710039854049683e-02,9.921989589929580688e-02,-2.810204960405826569e-02,-6.053608655929565430e-02,4.836537316441535950e-02,6.109211593866348267e-02,-4.478608444333076477e-02,1.057901084423065186e-01,2.977223508059978485e-02,5.066403374075889587e-02,-4.468693584203720093e-02,-1.405806243419647217e-01,-1.286953240633010864e-01,-6.642814725637435913e-03,3.122903779149055481e-02,5.849711224436759949e-02,1.068129688501358032e-01,1.067877337336540222e-01,4.713646695017814636e-02,-5.639997124671936035e-02,-8.700804412364959717e-02,-3.198112919926643372e-02,-1.055848151445388794e-01,-3.174135461449623108e-02,-1.887192390859127045e-02,2.461468279361724854e-01,1.957846879959106445e-01,9.378629177808761597e-02,8.362483978271484375e-02,-5.041770264506340027e-02,4.547357931733131409e-02,-6.230246275663375854e-02,-3.095345199108123779e-02,5.723963305354118347e-02,-6.858456134796142578e-02,1.668110862374305725e-02,8.655371144413948059e-03,7.184217870235443115e-02,-1.288608880713582039e-03,-2.223179489374160767e-02,-1.297672986984252930e-01,1.762827299535274506e-02,7.072647660970687866e-02,-3.329829871654510498e-02,8.327168971300125122e-02,-7.142327260226011276e-03,5.544743686914443970e-02,5.608708038926124573e-02,-2.913380227982997894e-02,-8.169165253639221191e-02,-1.793584041297435760e-02,-8.423828333616256714e-02,-2.538682334125041962e-02,1.999001652002334595e-01,2.132367193698883057e-01,1.167937591671943665e-01,-9.050932526588439941e-02,-2.062808722257614136e-03,-3.092861361801624298e-02,-4.040088132023811340e-02,1.827827841043472290e-02,-4.879359155893325806e-02,-9.629216790199279785e-02,7.037881761789321899e-02,1.743232160806655884e-01,4.667743295431137085e-02,6.759848445653915405e-02,-7.594824582338333130e-02,1.220982708036899567e-02,-6.229938939213752747e-02,5.383938923478126526e-02,-1.905604824423789978e-02,6.003924086689949036e-02,1.155357584357261658e-01,6.689852476119995117e-02,4.064329713582992554e-02,4.991905391216278076e-02,1.394845079630613327e-02,6.453604996204376221e-02,5.835665389895439148e-02,2.157795429229736328e-02,1.382853388786315918e-01,1.995339840650558472e-01,7.938218116760253906e-02,1.280031446367502213e-02,1.059917500242590904e-03,-2.871276065707206726e-02,9.555703401565551758e-02,-2.424499951303005219e-02,-1.080391705036163330e-01,-2.611776627600193024e-02,9.740734100341796875e-02,1.868950277566909790e-01,7.194848358631134033e-02,5.738453939557075500e-02,-2.638881281018257141e-02,2.088920399546623230e-02,4.031419381499290466e-02,7.904863357543945312e-02,-4.316097497940063477e-02,2.371639013290405273e-02,1.156831532716751099e-02,-9.364320337772369385e-02,-1.140921711921691895e-01,-1.432397961616516113e-01,-1.200441047549247742e-01,-6.158956792205572128e-03,9.080908261239528656e-03,2.515506744384765625e-02,1.750544309616088867e-01,7.014235854148864746e-02,4.422119259834289551e-02,-2.349828183650970459e-02,6.379883736371994019e-03,6.421501934528350830e-02,1.023413613438606262e-02,6.137760728597640991e-02,1.086293719708919525e-02,5.191032774746417999e-03,1.757209450006484985e-01,1.105611622333526611e-01,2.632211521267890930e-02,-7.019798457622528076e-02,-1.277359873056411743e-01,8.737645298242568970e-02,1.182076707482337952e-01,1.000922452658414841e-02,2.578892745077610016e-02,4.582562483847141266e-03,-7.498616725206375122e-02,3.924936056137084961e-02,-9.165912866592407227e-02,-2.417567968368530273e-01,-2.028132230043411255e-01,-3.526724502444267273e-02,-4.715434834361076355e-02,8.809719979763031006e-02,3.022889792919158936e-01,2.086460590362548828e-01,3.608351200819015503e-02,5.566836521029472351e-02,4.427901282906532288e-02,9.112540632486343384e-02,8.658403903245925903e-02,3.448692336678504944e-02,-1.248631030321121216e-01,6.102572754025459290e-02,2.072489634156227112e-02,5.555017292499542236e-02,-5.751542001962661743e-02,-6.911582499742507935e-02,-2.553865686058998108e-02,1.066168621182441711e-01,2.084816806018352509e-02,1.205213069915771484e-01,5.868657957762479782e-03,7.870565354824066162e-02,8.314400166273117065e-02,1.382516231387853622e-02,-9.874743968248367310e-02,-1.272701919078826904e-01,-6.003299355506896973e-02,5.247502028942108154e-02,1.114169657230377197e-01,1.096262335777282715e-01,2.577566504478454590e-01,2.559274137020111084e-01,-2.444549463689327240e-02,1.116624660789966583e-02,-6.672870367765426636e-02,1.315935980528593063e-02,2.433294802904129028e-02,-6.591098755598068237e-02,-9.260922670364379883e-02,-1.901538297533988953e-02,3.178424388170242310e-02,-1.704442687332630157e-02,-1.337526482529938221e-03,-1.206305623054504395e-01,8.384436368942260742e-02,1.031795293092727661e-01,4.484171047806739807e-02,1.534956544637680054e-01,6.118074804544448853e-02,8.992201089859008789e-02,4.676214419305324554e-03,-2.782556787133216858e-02,1.717360876500606537e-02,-5.947784520685672760e-03,-6.693585216999053955e-02,4.647018015384674072e-02,7.490807026624679565e-02,1.109559163451194763e-01,1.356278806924819946e-01,3.288738429546356201e-02,3.778973594307899475e-02,-6.835569627583026886e-03,-3.790173307061195374e-02,1.683255657553672791e-02,3.756552189588546753e-02,-4.264795407652854919e-02,9.498592466115951538e-02,1.365969479084014893e-01,6.889471784234046936e-03,-4.175216332077980042e-02,-8.698983490467071533e-02,-8.313074707984924316e-02,5.130385607481002808e-02,1.535057723522186279e-01,2.032121270895004272e-02,2.454797364771366119e-02,-2.041723951697349548e-02,5.530639737844467163e-02,2.076507173478603363e-02,-7.718805223703384399e-02,-1.252998560667037964e-01,-5.107925459742546082e-02,-3.439759463071823120e-02,6.461047381162643433e-02,3.890353813767433167e-02,-8.227810263633728027e-03,5.970856547355651855e-02,-3.501791134476661682e-02,-1.452498137950897217e-01,-8.507593721151351929e-02,-4.824418202042579651e-02,1.168576162308454514e-02,2.711459994316101074e-02,1.145784407854080200e-01,4.685284569859504700e-02,1.333248466253280640e-01,-5.519976466894149780e-02,-1.198733747005462646e-01,-5.355790257453918457e-02,8.502283133566379547e-03,1.012977510690689087e-01,1.197893917560577393e-01,1.780856698751449585e-01,5.147856473922729492e-02,8.094646036624908447e-02,2.620135992765426636e-02,1.343591720797121525e-04,-6.223777309060096741e-02,-1.123123019933700562e-01,-2.392577677965164185e-01,-1.452266573905944824e-01,-1.526452004909515381e-01,4.557764157652854919e-02,-6.972095370292663574e-02,2.657948434352874756e-02,2.345485053956508636e-02,-1.455741971731185913e-01,-4.066338762640953064e-02,-4.062222316861152649e-02,-3.537165373563766479e-02,1.345501095056533813e-01,8.954205363988876343e-02,1.084104478359222412e-01,1.669046580791473389e-01,-1.809835992753505707e-02,-1.217101886868476868e-01,-6.601506471633911133e-02,-2.847504802048206329e-02,4.062934592366218567e-02,1.806184947490692139e-01,7.234200835227966309e-02,5.706260353326797485e-02,3.201210871338844299e-02,7.916680723428726196e-02,4.096972197294235229e-02,-3.552438691258430481e-02,-5.133059993386268616e-02,-1.115079373121261597e-01,-3.838150203227996826e-02,3.768071904778480530e-02,3.386830911040306091e-02,-1.880269497632980347e-02,3.367655351758003235e-02,-3.011129051446914673e-02,2.846516855061054230e-02,-1.652883589267730713e-01,-6.532662361860275269e-02,-7.832843065261840820e-02,2.998705767095088959e-02,6.602990627288818359e-02,1.778877079486846924e-01,1.378234922885894775e-01,7.046814262866973877e-02,-9.417850524187088013e-02,-4.545107856392860413e-02,-1.357797347009181976e-02,8.601561188697814941e-02,-1.010499149560928345e-02,2.764305844902992249e-02,-4.462358541786670685e-03,1.702863126993179321e-01,8.249369263648986816e-02,2.552183903753757477e-02,6.015334278345108032e-02,-3.291056305170059204e-02,1.109997630119323730e-01,1.876606047153472900e-02,8.305358141660690308e-02,1.175660267472267151e-02,1.126283314079046249e-03,2.397468313574790955e-02,9.291022270917892456e-02,-1.853205822408199310e-02,-3.861664608120918274e-02,-8.708012849092483521e-02,-1.289586275815963745e-01,-1.310475021600723267e-01,-7.086339592933654785e-02,9.220087900757789612e-03,-5.186179652810096741e-03,-8.999373763799667358e-02,-1.562150269746780396e-01,-4.779169708490371704e-02,5.842857807874679565e-02,-7.549023628234863281e-02,-2.225433848798274994e-02,-1.082272455096244812e-01,5.716961994767189026e-02,4.890221357345581055e-02,-1.622780039906501770e-02,5.635919421911239624e-02,-6.503070145845413208e-02,-8.643805235624313354e-02,4.262143000960350037e-02,9.869657456874847412e-02,1.013109646737575531e-02,4.125135391950607300e-02,-7.390236854553222656e-02,-5.815867334604263306e-02,-1.772338002920150757e-01,-3.725439682602882385e-02,-8.408223278820514679e-03,-1.038638576865196228e-01,-1.000486537814140320e-01,-1.382311433553695679e-01,-1.976821385324001312e-02,-1.137255132198333740e-01,-1.269931793212890625e-01,-6.895236670970916748e-02,-5.276042595505714417e-02,7.767939008772373199e-03,-4.809855297207832336e-02,-4.467220604419708252e-02,-2.002653926610946655e-01,-9.815011918544769287e-02,-8.234141021966934204e-02,-4.170217365026473999e-02,5.405541509389877319e-03,-1.252279281616210938e-01,-1.229206919670104980e-01,1.823605969548225403e-02,8.557615429162979126e-02,7.028324995189905167e-03,5.979030206799507141e-02,3.449223237112164497e-03,5.671150237321853638e-02,-9.209385514259338379e-02,-2.041018605232238770e-01,-2.660781443119049072e-01,-2.216182500123977661e-01,-5.351062864065170288e-02,-6.104042753577232361e-02,-1.203978061676025391e-01,-8.306904882192611694e-02,-1.233155429363250732e-01,-1.696686446666717529e-01,-1.394318044185638428e-01,-1.293010115623474121e-01,-1.558613926172256470e-01,-6.395836174488067627e-02,-1.360980570316314697e-01,-5.016539618372917175e-02,-1.123465076088905334e-01,-1.790304780006408691e-01,-6.228439882397651672e-02,-1.348253041505813599e-01,-1.222081929445266724e-01,-7.502463459968566895e-02,1.217511221766471863e-01,2.263549156486988068e-02,-1.697964593768119812e-02,-1.550478581339120865e-02,-2.177351415157318115e-01,-5.345143750309944153e-02,-1.250471174716949463e-01,-3.341732025146484375e-01,-3.478675186634063721e-01,-2.779608666896820068e-01,-1.720299571752548218e-01,-5.349066480994224548e-02,-3.440264984965324402e-02,-9.430378675460815430e-02,-1.415961086750030518e-01,-6.914648413658142090e-02,-1.129523217678070068e-01,-4.475720971822738647e-02,-8.737573027610778809e-02,-1.356005072593688965e-01,-1.172044947743415833e-01,-1.322716623544692993e-01,-6.525312364101409912e-02,-7.713413238525390625e-02,-1.489764899015426636e-01,-8.087302744388580322e-02,-5.169222131371498108e-02,6.261175870895385742e-02,8.542741835117340088e-02,8.054517954587936401e-02,1.067559793591499329e-02,-2.994678355753421783e-02,-6.435369700193405151e-02,3.501489758491516113e-03,3.362166509032249451e-02,-1.659945845603942871e-01,-9.906718134880065918e-02,-1.285966187715530396e-01,-1.296925246715545654e-01,-7.701099663972854614e-02,3.157522901892662048e-02,-4.622360318899154663e-02,-3.377296030521392822e-02,-4.018883779644966125e-02,1.381223183125257492e-02,-4.956552758812904358e-02,-1.940314285457134247e-02,7.291472516953945160e-03,4.327080771327018738e-02,-2.717649377882480621e-02,6.485503911972045898e-02,3.022543713450431824e-02,-1.337095201015472412e-01,-9.245771169662475586e-02,-4.751246050000190735e-02,-1.132078375667333603e-02,4.824390634894371033e-02,4.839582368731498718e-02,-8.662478625774383545e-02,-6.295490544289350510e-03,5.472738295793533325e-02,-6.807000190019607544e-02,6.859590858221054077e-02,8.696898072957992554e-02,-4.501964151859283447e-02,1.512482110410928726e-02,-8.357603847980499268e-02,4.486732184886932373e-02,9.819359332323074341e-02,7.280045747756958008e-02,3.181008994579315186e-02,7.320244610309600830e-02,-1.389222452417016029e-03,-2.235221210867166519e-03,3.019431792199611664e-02,8.812957257032394409e-02,3.450644761323928833e-02,1.676247268915176392e-01,2.568840980529785156e-02,-1.052254717797040939e-02,-1.111659780144691467e-01,-1.104164645075798035e-01,9.705264121294021606e-02,1.735739558935165405e-01,9.982072561979293823e-02,-1.178431324660778046e-02,-1.086610704660415649e-01,-4.086519777774810791e-02,7.272157818078994751e-02,3.099679946899414062e-03,-1.758486032485961914e-03,8.612794429063796997e-02,6.568460911512374878e-02,7.420714199542999268e-02,5.047301575541496277e-02,1.664527133107185364e-02,6.216394156217575073e-02,7.897903770208358765e-02,-5.308321677148342133e-03,5.762916058301925659e-02,-1.191134285181760788e-02,9.505234658718109131e-02,1.525039076805114746e-01,1.211323514580726624e-01,4.877675324678421021e-02,1.867087557911872864e-02,1.349721699953079224e-01,3.223922103643417358e-02,1.022180914878845215e-01,1.267552077770233154e-01,1.978228539228439331e-01,2.147147208452224731e-01,4.665730148553848267e-02,4.510181769728660583e-02,-2.584601752460002899e-02,-5.074373632669448853e-02,-1.818639785051345825e-02,-3.279468044638633728e-02,4.162427783012390137e-02,-2.470900863409042358e-02,1.067885234951972961e-01,8.071525394916534424e-02,1.267413198947906494e-01,2.384001202881336212e-02,8.383900672197341919e-02,1.286007314920425415e-01,1.258564461022615433e-02,-2.339583449065685272e-02,-3.049926646053791046e-02,5.850559473037719727e-02,-1.051446329802274704e-02,7.049638032913208008e-02,-6.525712460279464722e-02,5.072145909070968628e-02,1.957496106624603271e-01,2.034327834844589233e-01,1.236049085855484009e-01,6.924211978912353516e-02,2.031235247850418091e-01,1.641747951507568359e-01,1.192341595888137817e-01,-3.931482508778572083e-02,-8.103840053081512451e-02,2.934499830007553101e-02,-7.934943586587905884e-02,8.090437203645706177e-02,-3.802219033241271973e-02,-4.993788897991180420e-03,-5.108654499053955078e-03,-1.721968757919967175e-03,7.578138262033462524e-02,3.024204075336456299e-02,1.698911786079406738e-01,4.011473804712295532e-02,-1.040412113070487976e-02,-1.269299536943435669e-01,-1.315359175205230713e-01,1.527269370853900909e-02,2.622478827834129333e-02,9.655286371707916260e-02,-1.533436775207519531e-02,4.152251780033111572e-02,1.368349492549896240e-01,3.573181331157684326e-01,1.898677796125411987e-01,1.613487601280212402e-01,2.004831433296203613e-01,1.865101754665374756e-01,8.030550181865692139e-02,3.618228435516357422e-02,2.386110275983810425e-02,5.890568345785140991e-02,3.679848462343215942e-02,6.169190257787704468e-02,6.685789674520492554e-02,-3.422360867261886597e-02,7.424034178256988525e-03,-1.538526266813278198e-02,7.358709722757339478e-02,8.888010680675506592e-02,2.123051732778549194e-01,-2.424931153655052185e-02,-1.435446888208389282e-01,-6.200445070862770081e-02,-1.446979343891143799e-01,7.740467786788940430e-02,-5.875233560800552368e-03,2.334022708237171173e-02,5.394125357270240784e-02,1.082822158932685852e-01,1.620532721281051636e-01,3.053514659404754639e-01,1.475726813077926636e-01,1.850534975528717041e-01,9.018803387880325317e-02,1.015922799706459045e-01,-1.550422701984643936e-02,6.928951293230056763e-02,-2.824358642101287842e-03,5.018189549446105957e-03,2.644725143909454346e-02
6.988278776407241821e-02,-3.229892626404762268e-02,-5.995994806289672852e-02,-4.821078851819038391e-02,2.004070580005645752e-02,5.266325920820236206e-02,-6.478061527013778687e-02,1.731672883033752441e-02,-6.445346772670745850e-02,-4.725409671664237976e-02,3.072946332395076752e-02,5.209100991487503052e-02,-2.899856306612491608e-02,-3.718861611559987068e-03,9.764003753662109375e-02,-9.879799559712409973e-03,3.569757565855979919e-02,-1.068041659891605377e-02,-4.199748858809471130e-02,4.666835069656372070e-03,7.577449828386306763e-02,-6.940972059965133667e-02,5.855762213468551636e-02,2.230916917324066162e-02,1.239764690399169922e-02,6.390745192766189575e-02,4.509604722261428833e-02,-4.414129257202148438e-02,-2.484037354588508606e-02,-2.143426239490509033e-02,6.709643453359603882e-02,4.302147030830383301e-02,-4.212171956896781921e-02,-7.175758481025695801e-02,-2.217174693942070007e-02,-6.145169958472251892e-02,-1.037084832787513733e-01,-8.694436401128768921e-02,-4.963396862149238586e-02,-4.664678126573562622e-02,2.070665918290615082e-02,7.488819211721420288e-02,1.692324578762054443e-01,1.287897825241088867e-01,1.637070178985595703e-01,6.225489825010299683e-02,-1.641422063112258911e-01,-7.821403443813323975e-02,-1.171298325061798096e-01,7.047115266323089600e-02,-2.543051494285464287e-03,6.399395316839218140e-02,-3.077582269906997681e-02,1.274076849222183228e-02,-4.650994390249252319e-02,6.746927648782730103e-02,-5.946078523993492126e-02,-7.293795794248580933e-02,3.258074074983596802e-02,3.227247297763824463e-02,2.965442836284637451e-02,-5.020332057029008865e-03,-5.821396037936210632e-02,-7.235960662364959717e-02,-1.716694533824920654e-01,-3.451041132211685181e-02,-8.011110872030258179e-02,-2.648524567484855652e-02,-2.762161567807197571e-02,1.143253520131111145e-01,1.332815587520599365e-01,1.628904640674591064e-01,2.240436524152755737e-01,-9.335885941982269287e-02,-2.027759850025177002e-01,-7.578274607658386230e-02,1.300023496150970459e-01,1.326162368059158325e-01,7.817057520151138306e-02,7.086735963821411133e-02,2.173447422683238983e-02,7.229936867952346802e-02,4.891972988843917847e-02,2.305742353200912476e-02,7.071774452924728394e-02,1.626163721084594727e-02,-2.492882683873176575e-02,1.603518053889274597e-02,-9.501811861991882324e-02,-1.983980089426040649e-02,-5.112208425998687744e-02,-1.030855625867843628e-01,-1.457500457763671875e-01,3.678167611360549927e-02,-5.091579630970954895e-02,-2.470688335597515106e-02,9.380722790956497192e-02,1.231642141938209534e-01,5.741890519857406616e-02,7.494417577981948853e-02,1.787442713975906372e-01,-7.445020973682403564e-02,-1.514201611280441284e-01,-1.101124137639999390e-01,1.247102767229080200e-01,6.659832596778869629e-02,3.665506094694137573e-02,1.065462678670883179e-01,-6.754424422979354858e-02,-5.881666764616966248e-02,1.523838937282562256e-02,-7.172349095344543457e-02,3.978673368692398071e-02,6.809989362955093384e-02,6.255746819078922272e-03,-1.350169479846954346e-01,5.302290432155132294e-03,-4.683209955692291260e-02,1.908953487873077393e-02,6.908185034990310669e-02,8.502840250730514526e-02,4.868169873952865601e-02,9.685491025447845459e-02,5.809709057211875916e-02,-8.508899807929992676e-02,1.706052385270595551e-02,-7.889289408922195435e-02,1.154651492834091187e-02,5.782631412148475647e-02,7.441495358943939209e-02,-9.019734710454940796e-02,-1.719576679170131683e-02,2.912895567715167999e-02,1.825346145778894424e-03,4.121715947985649109e-02,8.472450077533721924e-02,4.961183760315179825e-03,-4.287633672356605530e-02,4.764802008867263794e-02,-7.244094461202621460e-02,-3.912886604666709900e-02,-5.162411555647850037e-02,-4.221257567405700684e-02,-5.346392095088958740e-02,3.094117715954780579e-02,7.489797472953796387e-02,6.349258124828338623e-02,1.351913660764694214e-01,1.469399929046630859e-01,2.177410721778869629e-01,2.049048840999603271e-01,-4.188010096549987793e-02,-6.513960659503936768e-02,-6.931722164154052734e-02,-4.484836757183074951e-02,1.338450163602828979e-01,1.556942313909530640e-01,1.086240634322166443e-01,9.443605691194534302e-02,5.188082531094551086e-02,2.809767425060272217e-02,-4.490035027265548706e-02,-3.014280227944254875e-04,-6.018842011690139771e-02,-1.198788210749626160e-01,-1.285732351243495941e-02,-1.797380670905113220e-02,2.050500214099884033e-01,-5.826219916343688965e-03,4.213560745120048523e-02,-3.654620051383972168e-02,-1.421380043029785156e-01,2.958890609443187714e-02,3.032055497169494629e-02,9.735079109668731689e-02,1.948965042829513550e-01,1.854992508888244629e-01,9.762884676456451416e-02,1.682200841605663300e-02,7.518788427114486694e-02,-1.978916674852371216e-02,4.562876001000404358e-02,9.286125749349594116e-02,1.040213108062744141e-01,9.696290642023086548e-02,9.521043300628662109e-02,1.001434549689292908e-01,3.101188316941261292e-02,3.284047916531562805e-02,-1.204188764095306396e-01,3.450613096356391907e-02,-4.610840231180191040e-02,4.566657915711402893e-02,-3.947246447205543518e-02,-3.296273574233055115e-02,-4.608307033777236938e-03,-2.906276285648345947e-02,-1.922420412302017212e-01,-1.459158360958099365e-01,2.571702189743518829e-02,9.553281217813491821e-02,6.508758757263422012e-03,3.849231451749801636e-02,4.863630980253219604e-02,9.953501075506210327e-02,-5.327741615474224091e-03,2.954425849020481110e-02,-1.601377315819263458e-02,-1.853880239650607109e-03,-2.293407544493675232e-02,-2.218542061746120453e-02,-4.167005419731140137e-02,1.766535080969333649e-02,8.398918807506561279e-02,-4.449070245027542114e-02,-1.472327485680580139e-02,-1.838664337992668152e-02,3.476242348551750183e-02,6.182974576950073242e-02,1.388922482728958130e-01,2.022001296281814575e-01,1.637521684169769287e-01,1.314865499734878540e-01,-1.170015707612037659e-02,-7.298576086759567261e-02,-1.596005409955978394e-01,-1.901942491531372070e-01,-7.109503448009490967e-02,7.019042968750000000e-02,9.450508654117584229e-02,7.353900931775569916e-03,4.244901239871978760e-02,-3.825669735670089722e-02,-6.474677473306655884e-02,-1.955615915358066559e-02,3.427078202366828918e-02,-1.414618045091629028e-01,-9.916303306818008423e-02,-1.906515955924987793e-01,-3.740148991346359253e-02,1.187365688383579254e-02,-5.102606862783432007e-02,-3.356210514903068542e-02,4.242798313498497009e-02,-1.021088659763336182e-02,6.513985246419906616e-02,1.075217723846435547e-01,1.585327535867691040e-01,6.706704199314117432e-02,7.123274356126785278e-02,3.337523341178894043e-02,-6.075762212276458740e-02,-9.149633347988128662e-02,-2.007565945386886597e-01,-2.134589403867721558e-01,1.773366332054138184e-02,1.704059243202209473e-01,2.302338927984237671e-01,5.634964909404516220e-04,-3.665952757000923157e-02,1.684109307825565338e-02,-3.344139456748962402e-02,-8.798075467348098755e-02,-1.721571199595928192e-02,-1.032107397913932800e-01,-1.964173763990402222e-01,-1.628389358520507812e-01,-6.080649793148040771e-02,-3.498089313507080078e-02,1.816563867032527924e-02,-3.318255767226219177e-02,-2.565061673521995544e-02,2.036871761083602905e-02,7.656642794609069824e-02,1.706960350275039673e-01,1.289281994104385376e-01,5.847793817520141602e-02,5.006346106529235840e-02,2.022941783070564270e-02,-5.871218442916870117e-02,-3.441836312413215637e-02,-1.664087772369384766e-01,-5.885480716824531555e-02,1.354358941316604614e-01,1.500191837549209595e-01,9.083984792232513428e-02,2.327586710453033447e-02,-5.866188555955886841e-02,2.817808650434017181e-02,-6.601981073617935181e-02,-3.773940727114677429e-02,-1.987361721694469452e-02,-5.278522148728370667e-02,-1.623374521732330322e-01,-4.215001594275236130e-03,-3.281019255518913269e-02,-5.409082770347595215e-02,3.983226045966148376e-02,-8.478873223066329956e-02,-3.027578815817832947e-02,-1.700863800942897797e-02,8.133240789175033569e-02,8.791467547416687012e-02,1.484673023223876953e-01,1.277190595865249634e-01,2.227194607257843018e-02,-1.581459306180477142e-02,-3.475755453109741211e-02,-1.103359758853912354e-01,-5.458896234631538391e-02,-3.981043025851249695e-02,1.155745685100555420e-01,1.777477413415908813e-01,1.004296466708183289e-01,3.176362719386816025e-03,-1.444253921508789062e-01,-4.471333324909210205e-02,-1.047445386648178101e-01,-6.716641038656234741e-02,-5.749573186039924622e-02,-3.971882909536361694e-02,-3.563674911856651306e-02,1.141930371522903442e-02,1.000223979353904724e-01,-6.600408349186182022e-03,-9.833585470914840698e-02,3.756748884916305542e-02,4.578246176242828369e-02,8.655805885791778564e-02,5.478572100400924683e-03,-3.342853486537933350e-02,1.530815064907073975e-01,9.127821028232574463e-02,5.968817323446273804e-02,7.610089331865310669e-02,3.965063486248254776e-03,-1.131168156862258911e-01,-2.606009840965270996e-01,-9.676468372344970703e-02,1.071283128112554550e-02,-1.702692732214927673e-02,9.086094051599502563e-02,-5.082610994577407837e-02,-1.098366305232048035e-01,1.413348969072103500e-02,-2.707144618034362793e-02,6.231608241796493530e-02,1.792005449533462524e-02,1.912867277860641479e-01,2.279816269874572754e-01,9.587627649307250977e-02,6.664423644542694092e-02,-1.052401121705770493e-02,-3.386412933468818665e-02,-8.371835201978683472e-02,-2.652043476700782776e-02,3.081559948623180389e-02,3.352935425937175751e-03,-8.665840327739715576e-02,4.522447660565376282e-02,2.089639306068420410e-01,7.519917190074920654e-02,1.032356619834899902e-01,2.841520123183727264e-02,-5.797342956066131592e-02,-2.454169094562530518e-01,-8.148100972175598145e-02,-2.885976806282997131e-03,6.575617194175720215e-02,-7.618408417329192162e-04,-3.284835256636142731e-03,-8.686039596796035767e-02,-1.095449328422546387e-01,-3.236120799556374550e-03,-5.029514804482460022e-02,-6.116147153079509735e-03,4.582151398062705994e-02,1.778056621551513672e-01,1.739723421633243561e-02,-4.305529966950416565e-02,-1.423078626394271851e-01,-1.039790175855159760e-02,7.941483519971370697e-03,-5.287077650427818298e-02,-3.218624368309974670e-02,-1.692531853914260864e-01,-1.012760866433382034e-02,-3.338930755853652954e-02,4.454084113240242004e-02,1.744513064622879028e-01,-1.845104992389678955e-02,-4.203337430953979492e-02,-1.355970203876495361e-01,-8.159671723842620850e-02,5.361276865005493164e-02,1.235157251358032227e-01,4.022141918540000916e-02,7.828650623559951782e-02,-1.584347151219844818e-02,-1.127410680055618286e-01,-1.372157186269760132e-01,-1.066459789872169495e-01,-1.016910225152969360e-01,2.621204219758510590e-02,1.105240806937217712e-01,1.150560304522514343e-01,4.759015887975692749e-02,-1.082425564527511597e-01,-1.376559585332870483e-01,-9.443758428096771240e-02,-4.001298174262046814e-02,-9.924770891666412354e-02,-7.249724119901657104e-03,-1.370347440242767334e-01,-2.615446783602237701e-02,-7.563079241663217545e-03,1.175515949726104736e-01,1.202982943505048752e-02,-5.865527316927909851e-02,-4.846571385860443115e-02,2.640038728713989258e-04,1.879168488085269928e-02,1.383987814188003540e-01,1.699792593717575073e-01,9.346119314432144165e-02,-2.821713313460350037e-02,-1.239298004657030106e-02,1.629613898694515228e-02,-2.471062541007995605e-02,-6.134993210434913635e-02,-5.978647246956825256e-02,4.732538014650344849e-03,7.668313384056091309e-02,1.104315370321273804e-01,2.341895177960395813e-02,-7.477370649576187134e-02,-9.772180765867233276e-02,-9.345995634794235229e-02,-6.458089500665664673e-02,6.503586657345294952e-03,-9.626235812902450562e-02,-1.050437465310096741e-01,-1.248126551508903503e-01,3.605492785573005676e-02,9.035681933164596558e-02,3.885052353143692017e-02,-1.389985829591751099e-01,-9.361199289560317993e-02,-4.700325429439544678e-03,3.706667944788932800e-02,1.746002584695816040e-01,2.039526998996734619e-01,9.665907919406890869e-02,1.253775060176849365e-01,9.211461991071701050e-02,-1.380181964486837387e-02,-4.536896944046020508e-02,-1.540413871407508850e-02,-7.266898639500141144e-03,1.719723455607891083e-02,-4.878407344222068787e-02,-7.035234570503234863e-02,7.021914422512054443e-02,-5.614222213625907898e-02,-1.669952087104320526e-02,-1.653260737657546997e-01,6.831052713096141815e-03,4.243366047739982605e-02,-2.140638418495655060e-02,-3.448820486664772034e-02,-8.298025280237197876e-02,-1.716280914843082428e-02,2.578558959066867828e-02,-1.429912000894546509e-01,-9.200332313776016235e-02,-7.537928968667984009e-02,-4.310726001858711243e-02,-4.946051910519599915e-02,1.483180075883865356e-01,2.035915553569793701e-01,1.437151879072189331e-01,1.284626424312591553e-01,1.221748515963554382e-01,-6.653114408254623413e-02,-7.265485823154449463e-02,-9.371599555015563965e-02,-5.558729916810989380e-02,-1.518524736166000366e-01,-1.025091782212257385e-01,3.891608864068984985e-02,1.875514164566993713e-02,-3.637578338384628296e-02,8.507342077791690826e-03,-2.465090155601501465e-02,-3.430899232625961304e-02,8.011946082115173340e-02,-1.002608053386211395e-02,4.380755499005317688e-02,6.173569336533546448e-02,1.597115211188793182e-02,-3.089383430778980255e-02,-2.348980903625488281e-01,-1.362463533878326416e-01,2.049409970641136169e-02,-8.444090932607650757e-02,4.799032583832740784e-03,1.183026060461997986e-01,1.573789268732070923e-01,2.637880444526672363e-01,9.087038785219192505e-02,1.723582297563552856e-01,1.077583730220794678e-01,4.552801698446273804e-02,-6.674242764711380005e-02,-3.908952698111534119e-02,-4.571959748864173889e-02,3.788373200222849846e-03,-6.081733107566833496e-02,1.453562173992395401e-02,1.386111043393611908e-02,7.799626886844635010e-02,4.354634135961532593e-02,1.767518930137157440e-02,4.926604032516479492e-02,-2.117691934108734131e-02,1.311083137989044189e-01,8.926006406545639038e-02,1.023571193218231201e-01,-2.500958368182182312e-02,-1.551105678081512451e-01,-1.322925388813018799e-01,-7.274264935404062271e-04,-1.539292186498641968e-01,-9.049132466316223145e-02,3.085958026349544525e-02,2.011926323175430298e-01,1.518010497093200684e-01,3.805716708302497864e-02,7.489625364542007446e-02,8.448428660631179810e-02,-1.848711632192134857e-02,6.729001551866531372e-02,-1.447431277483701706e-02,2.161418832838535309e-02,-8.759282529354095459e-02,4.189018160104751587e-02,-7.589409500360488892e-02,-1.816450059413909912e-02,6.973724067211151123e-02,1.357515454292297363e-01,1.068210005760192871e-01,9.864253550767898560e-02,9.601916372776031494e-02,1.479340791702270508e-01,1.800526380538940430e-01,1.534584611654281616e-01,3.636889532208442688e-02,-7.526598870754241943e-02,-2.135915905237197876e-01,-6.951394677162170410e-02,-2.485994622111320496e-02,-3.375708684325218201e-02,3.095692582428455353e-02,2.428857982158660889e-01,1.526663452386856079e-01,1.343455016613006592e-01,2.121647447347640991e-02,1.393164992332458496e-01,4.506042972207069397e-02,7.198541611433029175e-02,1.410728879272937775e-02,-3.330739960074424744e-02,2.941650152206420898e-02,6.320895254611968994e-02,2.116002887487411499e-02,6.847618520259857178e-02,1.703698337078094482e-01,1.694158613681793213e-01,1.297910809516906738e-01,1.476811021566390991e-01,2.708337269723415375e-02,1.503643244504928589e-01,7.496836781501770020e-02,-3.204734250903129578e-02,-2.513971179723739624e-03,-1.015978008508682251e-01,-3.361284360289573669e-02,-2.655491419136524200e-02,-6.888639926910400391e-02,-1.089856997132301331e-01,1.527309045195579529e-02,2.408214956521987915e-01,3.020788133144378662e-01,7.455907016992568970e-02,1.146735921502113342e-01,-2.070569992065429688e-02,6.347221136093139648e-02,1.189322099089622498e-01,4.614305496215820312e-02,1.438465714454650879e-01,8.241119235754013062e-02,1.159008592367172241e-01,6.974604725837707520e-02,4.728763550519943237e-02,8.363889902830123901e-02,1.744613796472549438e-01,2.243219166994094849e-01,1.512311846017837524e-01,9.704503417015075684e-02,1.129849255084991455e-01,7.140768319368362427e-02,-4.777949675917625427e-02,-1.353996247053146362e-01,-7.744469493627548218e-02,-4.948873445391654968e-02,6.734152883291244507e-02,1.652571558952331543e-02,-5.181699618697166443e-02,7.210389524698257446e-02,4.195539280772209167e-02,1.346457600593566895e-01,1.133947893977165222e-01,4.704983532428741455e-02,1.644512824714183807e-02,4.997487366199493408e-02,1.374499201774597168e-01,1.221399381756782532e-01,9.135142713785171509e-02,4.287647828459739685e-02,6.040173768997192383e-02,4.350011050701141357e-02,2.088519744575023651e-02,8.135574311017990112e-02,6.783789396286010742e-02,1.419618725776672363e-01,1.904832720756530762e-01,6.425192952156066895e-02,4.071042314171791077e-02,2.502943016588687897e-02,1.982405781745910645e-02,-1.128492131829261780e-01,-1.940636038780212402e-01,-1.382388621568679810e-01,-7.230444997549057007e-02,-7.930502295494079590e-03,-3.804427757859230042e-02,-1.274927407503128052e-01,2.745612151920795441e-02,-3.527125716209411621e-02,1.706932485103607178e-02,-6.032250076532363892e-02,-9.922760725021362305e-02,-1.230132132768630981e-01,-1.230994588695466518e-03,1.190693676471710205e-01,9.342724457383155823e-03,-4.035494849085807800e-02,-2.846494689583778381e-02,4.913918301463127136e-02,-2.758959308266639709e-02,1.602840051054954529e-02,1.266889274120330811e-01,9.288562089204788208e-02,9.197650104761123657e-02,2.406242303550243378e-02,2.020161412656307220e-02,1.211889386177062988e-01,-4.024155065417289734e-02,-4.795898497104644775e-02,-9.865674376487731934e-02,-6.715073436498641968e-02,5.672646313905715942e-02,6.649766117334365845e-02,-6.689316779375076294e-02,-1.429576193913817406e-03,4.050262272357940674e-02,-8.298122882843017578e-02,-3.008709847927093506e-02,-1.028129309415817261e-01,-1.720865517854690552e-01,-8.889892697334289551e-02,-9.134402126073837280e-02,1.067566797137260437e-01,7.434322685003280640e-02,-5.010549724102020264e-02,-9.331654012203216553e-02,-1.693495362997055054e-01,-5.372663959860801697e-02,-2.079342305660247803e-02,-4.318325221538543701e-02,-1.505020558834075928e-01,-7.171299308538436890e-02,-6.054256111383438110e-02,1.867555826902389526e-02,-5.900920927524566650e-02,6.628998368978500366e-02,8.352519571781158447e-02,-2.937281690537929535e-02,8.829087018966674805e-04,-1.346156746149063110e-02,-1.711366325616836548e-02,4.112395644187927246e-02,6.858348101377487183e-02,-4.023152589797973633e-02,1.466248463839292526e-02,-9.478850290179252625e-03,-5.185275152325630188e-02,-1.317618191242218018e-01,-1.692872792482376099e-01,1.480179280042648315e-02,-2.725271694362163544e-02,-6.087088584899902344e-02,-1.221635714173316956e-01,-8.155749738216400146e-02,-1.568391919136047363e-01,-1.046159043908119202e-01,3.723237896338105202e-03,-9.224011749029159546e-02,-2.003943920135498047e-01,-1.515359431505203247e-01,-2.349913716316223145e-01,-5.666239187121391296e-02,-9.057393670082092285e-02,3.271197900176048279e-02,1.409056875854730606e-02,3.994105011224746704e-02,1.839840412139892578e-02,-3.635406866669654846e-02,-9.781464934349060059e-03,-1.414861530065536499e-02,4.041396826505661011e-02,3.982355445623397827e-02,7.682931423187255859e-02,8.236667513847351074e-02,2.686882577836513519e-02,4.573550075292587280e-03,-8.680267259478569031e-03,-8.117363601922988892e-02,-6.008888781070709229e-02,-3.510831668972969055e-02,-9.687708318233489990e-02,-1.784353703260421753e-01,-1.721261739730834961e-01,-1.179007738828659058e-01,-1.628765016794204712e-01,-1.740815788507461548e-01,-2.477613836526870728e-01,-2.691013216972351074e-01,-2.591149210929870605e-01,-4.452656209468841553e-02,2.598996460437774658e-02,-9.121587872505187988e-02,-5.652617663145065308e-02,1.373993605375289917e-02,-5.107001215219497681e-02,-3.632030636072158813e-02,6.989888101816177368e-02,3.925578296184539795e-02,3.702878952026367188e-03,4.052257537841796875e-02,2.581533789634704590e-02,-2.988698519766330719e-02,-6.248079240322113037e-02,4.168907925486564636e-02,1.264490485191345215e-01,9.215112030506134033e-02,-1.810554973781108856e-02,-5.829269811511039734e-02,-1.801598668098449707e-01,-1.680785864591598511e-01,-2.045327872037887573e-01,-1.296584010124206543e-01,-1.849159300327301025e-01,-2.081106454133987427e-01,-2.576034963130950928e-01,-2.947235703468322754e-01,-8.552724123001098633e-02,-1.796066015958786011e-01,-1.453943848609924316e-01,-6.226785480976104736e-02,7.787458598613739014e-03,6.530202180147171021e-02,-7.111597806215286255e-02,4.176579415798187256e-02
-4.958226159214973450e-02,4.454904049634933472e-02,-3.719155490398406982e-02,5.638147145509719849e-02,-1.739530265331268311e-02,-4.940645396709442139e-02,3.826382011175155640e-02,2.022838592529296875e-02,3.906019404530525208e-02,-1.551958546042442322e-02,8.009838312864303589e-02,-7.305972278118133545e-02,-1.201666984707117081e-02,-8.990486711263656616e-02,-1.498266607522964478e-01,1.752382516860961914e-02,-1.141583174467086792e-01,5.394005402922630310e-02,-6.312277913093566895e-02,-1.678232103586196899e-02,-3.897437080740928650e-02,5.963064730167388916e-03,-5.655176192522048950e-02,-2.427849918603897095e-02,-6.397189199924468994e-02,-5.545214936137199402e-02,1.244754344224929810e-02,4.555585235357284546e-02,-1.356026530265808105e-02,5.429752171039581299e-03,-1.482047140598297119e-03,-3.548212349414825439e-02,7.160209864377975464e-02,1.111225038766860962e-02,3.335180133581161499e-02,1.146893296390771866e-02,2.016781509155407548e-04,-3.823253139853477478e-02,-3.712780773639678955e-02,-9.560288488864898682e-02,-1.272892802953720093e-01,-2.770940959453582764e-01,-3.188724815845489502e-01,-1.203660368919372559e-01,-1.139890477061271667e-01,-1.981610246002674103e-02,-1.313437670469284058e-01,-1.046874970197677612e-01,-6.463402416557073593e-03,1.050047948956489563e-01,-1.605882681906223297e-02,-5.470065400004386902e-02,-3.201907873153686523e-02,7.271898537874221802e-02,7.396645843982696533e-03,-4.328166693449020386e-02,4.041292518377304077e-02,-4.915343225002288818e-02,3.246511518955230713e-02,-5.496465042233467102e-02,-5.974631756544113159e-02,-4.103489592671394348e-02,-7.799225300550460815e-02,-9.246873110532760620e-02,-3.329631313681602478e-02,-1.178861968219280243e-02,6.698664277791976929e-02,3.952744230628013611e-02,-9.339592419564723969e-03,-1.362672895193099976e-01,-2.238965630531311035e-01,-2.063195109367370605e-01,-1.521092504262924194e-01,-7.410375028848648071e-02,-5.120861530303955078e-02,-3.351141512393951416e-02,8.512198925018310547e-03,-1.208082363009452820e-01,-8.856916800141334534e-03,-1.428906619548797607e-01,2.763788402080535889e-02,5.809806287288665771e-03,-6.917767971754074097e-02,4.964586347341537476e-02,-3.763047605752944946e-02,-1.590323448181152344e-02,-2.800762280821800232e-02,-5.623698979616165161e-02,-1.188185811042785645e-01,-8.388127386569976807e-02,-9.296140819787979126e-02,-7.523228228092193604e-02,1.932282466441392899e-03,-1.260805688798427582e-02,1.833918839693069458e-01,8.220483362674713135e-02,1.092782616615295410e-01,-1.256968230009078979e-01,-1.770626902580261230e-01,-6.982550024986267090e-02,-1.655645370483398438e-01,-1.707786619663238525e-01,-1.832304745912551880e-01,-6.169611215591430664e-02,-1.402059048414230347e-01,-4.197887703776359558e-02,-1.426911801099777222e-01,-6.691661477088928223e-02,2.201393060386180878e-02,2.247328171506524086e-03,1.848486065864562988e-02,-4.025980830192565918e-03,6.876977533102035522e-02,-5.156319588422775269e-02,-5.428630486130714417e-02,5.693851411342620850e-02,-1.724687814712524414e-01,-1.355962008237838745e-01,-1.657284796237945557e-01,-3.643303364515304565e-02,6.447969377040863037e-02,1.905637979507446289e-01,1.847401559352874756e-01,3.515806496143341064e-01,2.221737354993820190e-01,-1.985115930438041687e-02,-7.067330181598663330e-02,-1.968434453010559082e-02,3.886762633919715881e-02,-1.139875054359436035e-01,-1.157427728176116943e-01,-5.063671246170997620e-02,-7.497989386320114136e-02,-5.092520732432603836e-03,-1.185107231140136719e-01,-7.755414396524429321e-02,-6.917352974414825439e-02,-1.139711141586303711e-01,1.194695290178060532e-02,-4.526206478476524353e-02,-5.981227755546569824e-02,-2.465145848691463470e-02,1.114177331328392029e-01,-7.891009747982025146e-02,-1.266935914754867554e-01,-1.656940728425979614e-01,-1.398067325353622437e-01,7.378038018941879272e-02,2.348568104207515717e-02,1.601221561431884766e-01,1.982636153697967529e-01,1.881262362003326416e-01,1.927550286054611206e-01,9.485078603029251099e-02,1.376888900995254517e-01,4.630046337842941284e-02,8.219979703426361084e-02,1.118035987019538879e-01,-2.478617988526821136e-02,-4.569431301206350327e-03,-6.033651158213615417e-02,7.096152752637863159e-02,1.748801395297050476e-02,-9.741736203432083130e-02,-1.165520399808883667e-01,-1.633738428354263306e-01,-1.252193450927734375e-01,6.981386989355087280e-02,1.100245118141174316e-02,3.584863618016242981e-02,4.113914072513580322e-02,-7.340608537197113037e-02,-2.632488906383514404e-01,-1.599437296390533447e-01,-1.038357391953468323e-01,-5.805649608373641968e-02,1.008349284529685974e-01,4.466111212968826294e-02,1.923639476299285889e-01,1.296605318784713745e-01,2.880779094994068146e-02,2.590170502662658691e-02,1.205087751150131226e-01,1.376893371343612671e-01,7.276712357997894287e-02,3.746893256902694702e-02,7.146451622247695923e-02,6.404168158769607544e-02,-8.719604462385177612e-03,-1.104009058326482773e-02,-5.470847710967063904e-02,-7.118700444698333740e-02,-1.437753885984420776e-01,-2.103672623634338379e-01,-1.344732791185379028e-01,7.735762000083923340e-02,6.988616287708282471e-02,-4.067757725715637207e-02,-2.723521590232849121e-01,-1.593057364225387573e-01,-1.756723225116729736e-01,-1.374634355306625366e-01,-1.006071269512176514e-01,4.845348000526428223e-02,7.874058932065963745e-02,-4.426172748208045959e-02,5.354582332074642181e-03,-3.739016130566596985e-02,6.386647932231426239e-03,-3.284583985805511475e-02,-1.989677548408508301e-03,-1.185265649110078812e-02,6.191527098417282104e-02,3.382093086838722229e-02,3.900888562202453613e-02,-2.770600281655788422e-02,5.298559367656707764e-02,1.053132936358451843e-01,3.427738696336746216e-02,-1.157044619321823120e-01,-1.958656311035156250e-01,-1.901974380016326904e-01,-1.546220034360885620e-01,-9.232167899608612061e-02,2.603544667363166809e-02,-1.705965697765350342e-01,-2.445318102836608887e-01,-1.791766583919525146e-01,-2.163242101669311523e-01,-7.952772080898284912e-02,-9.051319211721420288e-02,-3.019188717007637024e-02,-5.731868371367454529e-02,-5.479871854186058044e-02,-7.901471853256225586e-02,-1.687124371528625488e-02,-3.216754272580146790e-02,-5.391613394021987915e-02,1.220562029629945755e-03,-6.267663836479187012e-02,-5.058693885803222656e-02,-1.058446839451789856e-01,-2.141253836452960968e-02,-2.893799357116222382e-02,4.027089104056358337e-02,-6.338199228048324585e-02,-4.733854159712791443e-02,-1.223746761679649353e-01,-1.226203516125679016e-01,6.187666580080986023e-02,-7.420464605093002319e-02,3.142120689153671265e-02,-6.231014057993888855e-02,-2.087827026844024658e-01,-1.183039247989654541e-01,-2.020532488822937012e-01,-9.185925871133804321e-02,-6.270943582057952881e-02,-4.273040965199470520e-02,-4.505929723381996155e-02,5.859266594052314758e-02,-1.158275641500949860e-02,-2.082549035549163818e-03,-8.806239813566207886e-02,5.146456509828567505e-02,-9.830860793590545654e-02,-1.031663045287132263e-01,-1.942151486873626709e-01,-1.941959559917449951e-01,-4.881153628230094910e-02,-1.378004550933837891e-01,-1.080799326300621033e-01,-8.136850595474243164e-02,9.846534579992294312e-03,-8.221887797117233276e-02,-3.635581955313682556e-02,1.427402812987565994e-02,1.290091723203659058e-01,9.742514789104461670e-02,-1.434951461851596832e-02,-7.261624187231063843e-02,-1.819200515747070312e-01,-1.889068484306335449e-01,-8.993597328662872314e-02,-2.342636696994304657e-02,-3.581589087843894958e-02,-1.333973743021488190e-02,-7.150683552026748657e-02,-1.037427186965942383e-01,-8.824451267719268799e-02,-1.029936298727989197e-01,-8.666460961103439331e-02,8.789569139480590820e-03,2.003845386207103729e-02,-1.058862060308456421e-01,-6.508138775825500488e-02,-3.758675605058670044e-02,-4.646459594368934631e-02,5.042232200503349304e-02,1.169281173497438431e-02,-4.244812205433845520e-02,-5.227542296051979065e-02,-3.205939382314682007e-02,-4.476247727870941162e-02,1.372213754802942276e-02,1.621337383985519409e-01,3.525136411190032959e-02,-2.525106444954872131e-02,-7.096510380506515503e-02,-4.524635896086692810e-02,-4.581185057759284973e-02,-1.079978495836257935e-01,-2.322337217628955841e-02,9.274753741919994354e-03,-5.972468480467796326e-02,-7.147984206676483154e-02,-1.304458230733871460e-01,-8.296167105436325073e-02,-7.834982872009277344e-02,5.881206318736076355e-02,3.361018002033233643e-02,8.300696313381195068e-02,-1.779268495738506317e-02,2.473059296607971191e-02,-2.509325928986072540e-02,2.929323911666870117e-02,4.780211672186851501e-02,-1.307849679142236710e-02,-1.560021787881851196e-01,-1.212796494364738464e-01,-9.815186262130737305e-02,-1.461325865238904953e-02,2.447829097509384155e-01,2.091231644153594971e-01,1.019639968872070312e-01,1.538956165313720703e-01,-9.848754107952117920e-02,-1.582614928483963013e-01,-1.067264825105667114e-01,-1.253609955310821533e-01,2.927727997303009033e-02,6.005173176527023315e-02,-2.598965167999267578e-02,-2.207612991333007812e-02,-2.035717666149139404e-02,-5.073051154613494873e-02,-2.027885429561138153e-02,3.631366416811943054e-02,2.620835788547992706e-02,1.074991282075643539e-02,-1.033055037260055542e-02,-6.093244999647140503e-02,-3.927501291036605835e-02,4.149238765239715576e-02,-1.721935160458087921e-02,-8.826763927936553955e-02,-1.125264391303062439e-01,-2.234576940536499023e-01,-6.213066354393959045e-02,4.144787043333053589e-02,2.138871848583221436e-01,2.291581928730010986e-01,-1.453708857297897339e-02,1.563826925121247768e-03,-1.527111083269119263e-01,-1.515818387269973755e-01,-2.306479215621948242e-01,-1.192419901490211487e-01,-7.730506360530853271e-02,-3.768875822424888611e-02,5.893481895327568054e-02,-7.799892127513885498e-02,-1.326927989721298218e-01,-3.965579345822334290e-02,-1.782107539474964142e-02,-4.752770811319351196e-02,1.322632376104593277e-02,-1.247933059930801392e-01,-1.205533593893051147e-01,5.922328680753707886e-02,1.247054710984230042e-01,-1.913097803480923176e-03,1.984737068414688110e-02,-1.694152504205703735e-01,-1.881029307842254639e-01,-1.774985790252685547e-01,-1.747246831655502319e-01,1.069801021367311478e-02,1.669890731573104858e-01,8.608840405941009521e-02,1.196971279568970203e-03,-6.580073386430740356e-02,-2.554409578442573547e-02,-1.544612348079681396e-01,-1.338985115289688110e-01,-4.773693904280662537e-02,-7.884749025106430054e-02,-6.137440726161003113e-02,-2.193941362202167511e-02,-3.353706747293472290e-02,-4.007751867175102234e-02,-3.883627057075500488e-02,3.653935715556144714e-02,-5.955198779702186584e-02,-6.842862069606781006e-02,-1.433679275214672089e-02,-1.209905371069908142e-01,-5.421393737196922302e-02,1.137119159102439880e-01,5.685548856854438782e-02,-6.667368859052658081e-02,-1.023444309830665588e-01,-9.532832354307174683e-02,-2.102545499801635742e-01,-1.425073146820068359e-01,-1.471186876296997070e-01,-8.918932639062404633e-03,5.713720619678497314e-02,8.596146106719970703e-02,-6.612998992204666138e-02,3.222665935754776001e-02,1.862393133342266083e-02,4.509376734495162964e-02,-3.768889978528022766e-02,-2.917199209332466125e-02,1.184992194175720215e-01,-6.068060640245676041e-03,-7.139194756746292114e-02,-6.182128563523292542e-03,-3.752463310956954956e-02,3.264226764440536499e-02,5.311571527272462845e-03,2.500914037227630615e-02,-5.017216317355632782e-04,7.647038996219635010e-02,-5.605533719062805176e-02,4.047898575663566589e-02,6.345554441213607788e-02,-3.708156198263168335e-02,-7.242548465728759766e-02,-3.939198702573776245e-02,-3.519324213266372681e-02,-1.583600044250488281e-01,2.898622304201126099e-02,7.434093207120895386e-02,1.284369379281997681e-01,-5.077693983912467957e-02,-6.998995784670114517e-03,-3.136086463928222656e-02,1.092137489467859268e-02,1.660360582172870636e-02,6.852508336305618286e-02,1.169415265321731567e-01,1.948446631431579590e-01,1.544681340456008911e-01,1.117752268910408020e-01,1.396040022373199463e-01,1.213411316275596619e-01,1.134878769516944885e-01,2.458506077527999878e-02,5.259456485509872437e-02,1.304359883069992065e-01,3.985022753477096558e-02,3.423343971371650696e-02,4.300295189023017883e-02,5.691136419773101807e-02,3.141865134239196777e-02,-9.094072133302688599e-02,-9.304221719503402710e-02,6.928022205829620361e-02,6.831257790327072144e-02,1.316886767745018005e-02,2.385435625910758972e-02,1.067261844873428345e-01,9.541433304548263550e-02,3.699246048927307129e-02,-7.577192783355712891e-02,8.669597655534744263e-02,1.970742195844650269e-01,1.515180766582489014e-01,1.357309818267822266e-01,2.215616852045059204e-01,2.433677911758422852e-01,1.726816743612289429e-01,1.156555637717247009e-01,9.516781568527221680e-02,1.585367619991302490e-01,1.673597991466522217e-01,9.712699800729751587e-02,1.199597343802452087e-01,9.455932676792144775e-02,7.095649093389511108e-02,2.637366577982902527e-02,3.056069836020469666e-02,4.026841744780540466e-02,2.287352690473198891e-03,7.310739159584045410e-02,8.613941818475723267e-02,7.327804714441299438e-02,1.943088173866271973e-01,9.476979821920394897e-02,6.862559169530868530e-02,-1.979548111557960510e-02,-7.026316225528717041e-02,-7.651598751544952393e-02,-7.373871654272079468e-02,1.514166295528411865e-01,8.343716710805892944e-02,9.404353052377700806e-02,1.369676887989044189e-01,2.074687182903289795e-01,1.920535713434219360e-01,1.384461075067520142e-01,1.722213774919509888e-01,1.374218016862869263e-01,1.440345048904418945e-01,3.928220644593238831e-02,1.359991133213043213e-01,1.387702226638793945e-01,1.021203920245170593e-01,9.819811582565307617e-02,-1.686795800924301147e-02,1.049081515520811081e-02,-3.557463735342025757e-02,2.155638299882411957e-02,1.243569701910018921e-01,1.571189463138580322e-01,1.488115042448043823e-01,6.381049007177352905e-02,6.294000893831253052e-02,-3.894168138504028320e-02,-5.859136208891868591e-02,-2.484676428139209747e-02,-4.911183193325996399e-02,8.999439887702465057e-03,5.192949995398521423e-02,4.491508752107620239e-02,-2.730832807719707489e-02,-7.133454550057649612e-03,1.415824145078659058e-01,4.515216872096061707e-02,9.066784381866455078e-02,-4.926428198814392090e-02,1.084766834974288940e-01,8.660060167312622070e-02,1.583399064838886261e-02,1.715162843465805054e-01,1.335511058568954468e-01,4.822933673858642578e-02,-3.935834765434265137e-02,-3.942051902413368225e-02,-3.669175785034894943e-03,5.282200500369071960e-02,5.803851783275604248e-02,1.551650613546371460e-01,1.327652484178543091e-01,1.211282759904861450e-01,1.107622832059860229e-01,1.223565638065338135e-01,4.937574639916419983e-02,-6.689498573541641235e-02,-1.031574159860610962e-01,3.152007982134819031e-02,1.206396222114562988e-01,1.674345284700393677e-01,-8.209379762411117554e-02,7.961840368807315826e-03,8.347167819738388062e-02,4.422012716531753540e-02,5.083415284752845764e-02,-4.835100844502449036e-02,1.895247958600521088e-02,5.259070172905921936e-02,-2.953583933413028717e-02,-2.183248102664947510e-02,1.683989912271499634e-02,1.469465717673301697e-02,2.767881564795970917e-02,1.124092712998390198e-01,5.297929793596267700e-02,4.057990759611129761e-02,6.405185163021087646e-02,-9.867885150015354156e-03,4.721631482243537903e-02,-1.230845786631107330e-02,-6.920270621776580811e-02,-5.744728818535804749e-02,4.251689836382865906e-02,-9.239302575588226318e-02,3.053695522248744965e-02,1.096829324960708618e-01,5.138480663299560547e-02,5.185077711939811707e-02,-1.924284920096397400e-02,-1.010733395814895630e-01,-1.058781053870916367e-02,-7.492034696042537689e-03,6.310298293828964233e-02,-2.174856327474117279e-02,-3.379826992750167847e-02,4.740906134247779846e-02,-4.917861148715019226e-02,4.207178577780723572e-02,-7.131586968898773193e-02,-7.453874498605728149e-02,-3.703158348798751831e-02,1.691746152937412262e-02,-2.135379426181316376e-02,1.095664352178573608e-01,-2.569372765719890594e-02,1.356485649012029171e-03,2.413533069193363190e-02,-4.672005772590637207e-02,-3.509023785591125488e-02,2.666119858622550964e-02,1.982481777667999268e-02,7.320051640272140503e-02,-3.820922225713729858e-02,-2.313763601705431938e-03,4.308528080582618713e-02,-8.176548406481742859e-03,-7.813185453414916992e-02,7.433780003339052200e-03,-2.479233033955097198e-02,-1.089862138032913208e-01,9.289902518503367901e-04,5.173071101307868958e-02,3.707773983478546143e-02,-1.164202392101287842e-01,-9.146138280630111694e-02,-1.172702759504318237e-01,-1.405208259820938110e-01,-8.121364563703536987e-02,-1.987149380147457123e-02,4.456522688269615173e-02,1.128594428300857544e-01,9.192012250423431396e-02,1.739600859582424164e-02,1.021291390061378479e-01,1.549120247364044189e-02,-1.310734897851943970e-01,-9.830762445926666260e-02,-5.962867662310600281e-02,3.864834457635879517e-02,-4.244658350944519043e-02,-1.233768463134765625e-01,-1.754727810621261597e-01,-1.960297226905822754e-01,-9.702498465776443481e-02,-1.566992849111557007e-01,-1.035818606615066528e-01,-1.154335960745811462e-01,-3.739681839942932129e-02,-1.644215881824493408e-01,2.657932601869106293e-02,2.379044331610202789e-02,4.540345631539821625e-03,-1.091169863939285278e-01,-9.164965897798538208e-02,-1.011253669857978821e-01,-3.764143213629722595e-02,9.970986284315586090e-04,-2.234261296689510345e-02,-4.367090761661529541e-02,3.392298147082328796e-02,-9.908418357372283936e-02,2.757730660960078239e-03,-1.541597545146942139e-01,-1.321885501965880394e-03,9.362316690385341644e-03,1.026111003011465073e-02,-4.264980927109718323e-02,1.391141116619110107e-02,-1.361400634050369263e-02,-7.736183702945709229e-02,-1.811485439538955688e-01,-1.679534465074539185e-01,-2.091666311025619507e-01,-1.254869252443313599e-01,-1.932760179042816162e-01,-1.120987385511398315e-01,-8.011583983898162842e-02,-1.028971225023269653e-01,3.348921611905097961e-02,-3.038050793111324310e-02,-6.348063796758651733e-02,-7.390964776277542114e-03,-2.026739344000816345e-02,-1.530406028032302856e-01,-2.252727597951889038e-01,-1.629383414983749390e-01,-6.238472089171409607e-02,-7.927443087100982666e-02,-5.415479466319084167e-02,-3.252508863806724548e-02,-1.440043151378631592e-01,1.749820075929164886e-02,-6.870271265506744385e-02,2.695942670106887817e-02,-6.512514501810073853e-02,-2.279101684689521790e-02,5.051702260971069336e-03,-3.305553644895553589e-02,6.766778230667114258e-02,-1.784612238407135010e-01,-1.263046711683273315e-01,-1.403621882200241089e-01,-1.679748147726058960e-01,-1.743896752595901489e-01,-1.168565824627876282e-01,-7.681906223297119141e-02,-1.103803887963294983e-01,-9.382017701864242554e-02,-5.263289809226989746e-02,-1.541565917432308197e-02,-9.547368437051773071e-02,-1.926452666521072388e-01,-3.114770650863647461e-01,-2.679913043975830078e-01,-1.658434122800827026e-01,9.337452240288257599e-03,9.596715122461318970e-02,1.175840478390455246e-02,-6.160994619131088257e-02,-2.492497488856315613e-02,-4.932134598493576050e-02,4.400005191564559937e-02,7.533320039510726929e-02,8.756905794143676758e-03,-4.303941503167152405e-02,1.884654164314270020e-03,4.393460601568222046e-02,3.340361267328262329e-02,-7.386702112853527069e-03,-1.104554384946823120e-01,-1.010555773973464966e-01,-1.584749519824981689e-01,-1.386205106973648071e-01,3.316718619316816330e-03,-8.941751718521118164e-02,-6.537736207246780396e-02,-1.895278319716453552e-02,1.270473748445510864e-01,-9.929461032152175903e-02,-1.591473817825317383e-01,-2.276903986930847168e-01,-2.219284921884536743e-01,-5.723275616765022278e-02,2.251982130110263824e-02,1.288374364376068115e-01,1.296337246894836426e-01,-9.261654317378997803e-02,-9.892389178276062012e-03,4.096633195877075195e-02,-6.578665226697921753e-02,5.156766623258590698e-02,7.387904077768325806e-02,2.437531948089599609e-03,7.474545389413833618e-02,-3.411546722054481506e-02,4.467918723821640015e-02,1.592600718140602112e-02,-7.745322771370410919e-03,-9.853687137365341187e-02,-1.692346185445785522e-01,-1.994752436876296997e-01,-8.069464564323425293e-02,-1.597006022930145264e-01,-9.659025818109512329e-02,-3.348365426063537598e-03,1.963659226894378662e-01,-4.621458053588867188e-02,-2.180715352296829224e-01,-3.423861265182495117e-01,-3.011417686939239502e-01,-9.775278717279434204e-02,8.212519437074661255e-02,6.957772374153137207e-02,1.991505548357963562e-02,-5.154548585414886475e-02,-2.652023360133171082e-02,-4.973346740007400513e-02,-6.810817867517471313e-02,-7.159974426031112671e-02
-7.930365949869155884e-02,6.882368773221969604e-02,2.317673712968826294e-02,-7.307299226522445679e-02,-2.728053927421569824e-02,5.048512667417526245e-02,3.735235333442687988e-02,-1.170504838228225708e-02,1.673546247184276581e-02,4.283240064978599548e-02,1.052091456949710846e-02,-6.116170063614845276e-02,7.670070976018905640e-02,-1.266938000917434692e-01,-8.015069365501403809e-02,-1.602294360054656863e-04,-2.261146530508995056e-02,-6.515439599752426147e-02,-7.454440742731094360e-02,-1.337133347988128662e-02,-3.223054483532905579e-02,-8.095592260360717773e-02,7.282473146915435791e-03,3.831690549850463867e-02,-5.383871495723724365e-02,-5.223510786890983582e-02,6.959408521652221680e-03,-3.034919872879981995e-02,-1.291326433420181274e-02,3.731963038444519043e-02,-6.237740814685821533e-02,7.170157879590988159e-02,4.840042442083358765e-02,-1.768425852060317993e-02,4.536405950784683228e-02,-6.558937579393386841e-02,-1.147125139832496643e-01,-1.388920545578002930e-01,5.895485356450080872e-02,4.886701703071594238e-03,6.549433618783950806e-02,-2.385693788528442383e-02,-1.084811799228191376e-02,-6.800425797700881958e-02,6.581076234579086304e-02,2.702915109694004059e-02,4.725953936576843262e-02,-6.215536966919898987e-02,-7.608560472726821899e-02,-7.753650099039077759e-02,1.687351986765861511e-02,6.264946889132261276e-03,-4.911148920655250549e-02,2.549771964550018311e-02,-2.430802956223487854e-02,7.658862322568893433e-02,-7.596849650144577026e-02,-5.646824091672897339e-02,2.203363180160522461e-02,3.006827086210250854e-02,-1.721354573965072632e-02,9.864220768213272095e-02,2.080514281988143921e-02,-6.070777773857116699e-02,-2.014123946428298950e-01,-6.813582032918930054e-02,-1.219814196228981018e-01,1.304097194224596024e-02,1.823481544852256775e-02,-1.415839195251464844e-01,-1.068485602736473083e-01,-6.448845844715833664e-03,-3.777670115232467651e-02,5.225927010178565979e-02,1.771376281976699829e-02,-6.565533578395843506e-02,-1.208583638072013855e-01,6.512227654457092285e-02,-9.123496711254119873e-02,8.506514132022857666e-02,-7.980324327945709229e-02,4.677496105432510376e-02,5.998978763818740845e-02,-2.928936481475830078e-02,6.744930893182754517e-02,-3.233172371983528137e-02,-9.107433259487152100e-03,-4.465014114975929260e-02,-1.303221136331558228e-01,-1.432527899742126465e-01,-5.813020095229148865e-02,-2.222502976655960083e-01,-1.129174381494522095e-01,-1.953821778297424316e-01,-1.696207672357559204e-01,-1.348128467798233032e-01,-2.350117117166519165e-01,-1.726922988891601562e-01,-2.474460378289222717e-02,7.250095903873443604e-02,5.333585664629936218e-02,-1.130952499806880951e-02,-3.776561841368675232e-02,-3.959568962454795837e-02,-1.361801773309707642e-01,5.494737066328525543e-03,1.928810402750968933e-02,-3.208677843213081360e-02,2.727117203176021576e-02,1.522876918315887451e-01,-3.804843500256538391e-02,1.437429338693618774e-02,-5.464673042297363281e-02,3.771169483661651611e-02,1.523770485073328018e-02,-1.101765185594558716e-01,-1.149134114384651184e-01,-1.305961161851882935e-01,-5.749562382698059082e-02,-1.282766759395599365e-01,-1.550134867429733276e-01,-2.243897169828414917e-01,-3.480001986026763916e-01,-2.068941593170166016e-01,-2.737479805946350098e-01,-1.066958531737327576e-01,4.142912849783897400e-02,3.121922165155410767e-02,6.422348320484161377e-02,1.350157335400581360e-02,-1.642866246402263641e-02,-6.806860119104385376e-02,-1.075755730271339417e-01,-4.440436884760856628e-02,-4.932305589318275452e-02,-1.841009035706520081e-02,-6.549878418445587158e-02,4.531145840883255005e-02,5.987442657351493835e-02,-6.882162392139434814e-02,-3.174430131912231445e-02,-1.496948488056659698e-02,-4.792246222496032715e-02,-6.601110100746154785e-02,-5.836336687207221985e-02,4.216651991009712219e-02,-7.582174986600875854e-02,-1.591167598962783813e-01,-2.038921266794204712e-01,-2.866188883781433105e-01,-1.475260555744171143e-01,-1.646701544523239136e-01,-9.139081835746765137e-02,-3.083470277488231659e-03,2.671509422361850739e-02,3.234706073999404907e-02,5.271489545702934265e-02,1.371810734272003174e-01,-7.545579690486192703e-03,-1.247583795338869095e-02,-1.017877832055091858e-01,-1.331273168325424194e-01,-8.057061582803726196e-02,-1.796200685203075409e-02,-1.906009316444396973e-01,-8.421448618173599243e-02,-2.351702749729156494e-01,-6.803145259618759155e-02,8.041892200708389282e-02,-9.906411916017532349e-02,7.544799149036407471e-02,2.736666053533554077e-02,4.624711349606513977e-02,1.341076791286468506e-01,6.931766122579574585e-02,1.523693054914474487e-01,-3.694035578519105911e-03,-1.935180127620697021e-01,-5.858600884675979614e-02,-1.736334711313247681e-01,-1.490641683340072632e-01,2.112509496510028839e-02,1.025193482637405396e-01,1.111237630248069763e-01,1.914021819829940796e-01,3.244910761713981628e-02,-4.083579406142234802e-02,-1.266658399254083633e-02,-6.342417001724243164e-02,-7.241127640008926392e-02,-6.378356367349624634e-02,-1.983274817466735840e-01,-1.192334294319152832e-01,-2.074055075645446777e-01,-1.756117492914199829e-01,-1.221084073185920715e-01,5.363101884722709656e-02,9.580276906490325928e-02,1.866501569747924805e-01,1.912471801042556763e-01,1.350987255573272705e-01,2.378446310758590698e-01,1.371574401855468750e-01,9.363355487585067749e-02,7.337402086704969406e-03,4.517072439193725586e-02,-3.022088203579187393e-03,-1.226306930184364319e-01,-4.027005285024642944e-02,-8.325033821165561676e-03,-1.140085235238075256e-02,-2.881096303462982178e-02,-4.945688415318727493e-03,1.491726376116275787e-02,-3.943379968404769897e-02,-3.667070344090461731e-02,-3.893997147679328918e-02,-1.066033318638801575e-01,-9.291242808103561401e-02,-1.016812473535537720e-01,-8.768224716186523438e-02,-2.106754779815673828e-01,-9.349975734949111938e-02,-6.573937833309173584e-02,-3.645212203264236450e-02,5.792544037103652954e-02,2.090959697961807251e-01,1.168047264218330383e-01,1.095454469323158264e-01,9.982119500637054443e-02,1.604797840118408203e-01,3.475335612893104553e-02,1.296067726798355579e-03,-8.408001624047756195e-03,-3.694244101643562317e-02,4.334391653537750244e-02,-9.804899990558624268e-02,3.481923043727874756e-02,-1.105910092592239380e-01,9.485624730587005615e-03,-2.765176817774772644e-02,5.911768227815628052e-02,-4.992302879691123962e-02,-1.940066181123256683e-02,-1.702370345592498779e-01,-1.590429991483688354e-01,-6.791125237941741943e-02,-6.174152716994285583e-02,-1.895486265420913696e-01,-2.340334467589855194e-02,5.930992960929870605e-02,8.184257894754409790e-02,-3.196526691317558289e-02,1.065461784601211548e-01,9.965510666370391846e-02,8.141981065273284912e-02,1.124860420823097229e-01,4.841820150613784790e-02,-3.682730952277779579e-03,4.383480548858642578e-02,-6.011581420898437500e-02,-2.175982110202312469e-02,2.816377021372318268e-02,-4.858591419178992510e-04,-9.573999792337417603e-02,-1.055602654814720154e-01,-2.050626836717128754e-02,-5.046289414167404175e-02,2.252686396241188049e-02,4.074655845761299133e-02,2.348817326128482819e-02,-1.295831054449081421e-01,-1.194579079747200012e-01,-5.054651759564876556e-03,-1.481980085372924805e-02,-1.734630316495895386e-01,-1.760059744119644165e-01,1.832347363233566284e-02,-4.546200856566429138e-02,1.909808069467544556e-02,1.583237200975418091e-02,2.982173347845673561e-03,9.593155235052108765e-02,1.127511560916900635e-01,5.125368386507034302e-02,4.912167042493820190e-02,-7.214107364416122437e-02,6.781924748793244362e-04,-1.524067074060440063e-01,-7.595448940992355347e-02,-1.485599391162395477e-02,-5.403155088424682617e-02,-1.216717734932899475e-01,-3.028946230188012123e-04,7.816192507743835449e-02,1.162451971322298050e-02,1.404954046010971069e-01,9.326086938381195068e-02,3.907031938433647156e-02,1.053900690749287605e-03,-1.337424200028181076e-02,5.110144242644309998e-02,-5.863583832979202271e-02,-1.330312788486480713e-01,-1.005793958902359009e-01,-1.918081641197204590e-01,-7.497512735426425934e-03,7.270179688930511475e-02,-5.715732648968696594e-02,1.488161366432905197e-02,4.291836544871330261e-02,-1.707873679697513580e-02,-8.806084841489791870e-02,-7.613580673933029175e-02,-1.055481731891632080e-01,-8.470067381858825684e-02,-9.622594714164733887e-02,-1.772177368402481079e-01,-1.387627571821212769e-01,-1.000738963484764099e-01,-1.795324869453907013e-02,-4.198751598596572876e-02,4.205133393406867981e-02,7.338500022888183594e-02,-1.112844794988632202e-02,-8.411435037851333618e-02,5.786248482763767242e-03,-1.840628683567047119e-02,7.991996407508850098e-02,8.186534047126770020e-02,-3.036156296730041504e-02,-1.616143248975276947e-02,-1.494533568620681763e-01,-1.489797234535217285e-01,-2.141660004854202271e-01,-7.750763744115829468e-02,-7.280534505844116211e-02,4.850259423255920410e-02,4.651654139161109924e-02,3.020095825195312500e-02,-2.340434938669204712e-01,-2.376110255718231201e-01,-2.087567597627639771e-01,-5.795205384492874146e-02,-1.132855936884880066e-01,-1.421029567718505859e-01,-2.105003222823143005e-02,-2.642459981143474579e-02,-6.529279798269271851e-02,-5.750330537557601929e-02,-8.906273543834686279e-02,2.381394989788532257e-02,-1.165895629674196243e-02,-1.506045460700988770e-01,-1.370189040899276733e-01,-6.483193486928939819e-03,1.352183371782302856e-01,7.354036718606948853e-02,1.480018496513366699e-01,2.291312813758850098e-02,-2.449953742325305939e-02,-1.350564062595367432e-01,-1.837109923362731934e-01,-4.231038503348827362e-03,-8.616964519023895264e-02,-2.474675327539443970e-02,-4.793857038021087646e-02,-7.858486473560333252e-02,-7.428081333637237549e-02,-1.071943808346986771e-02,-2.211118303239345551e-02,-8.197098970413208008e-02,-7.582987099885940552e-02,4.403213784098625183e-02,-2.047199942171573639e-02,6.143629550933837891e-03,7.493162900209426880e-02,-2.958492189645767212e-02,-1.369627099484205246e-02,3.924439806723967195e-05,-8.612021058797836304e-02,-4.190060868859291077e-02,-2.006657235324382782e-02,-2.684329450130462646e-02,2.913764864206314087e-02,3.511829301714897156e-02,1.512400805950164795e-01,1.050667166709899902e-01,9.588954970240592957e-03,-7.275993935763835907e-03,-1.641337275505065918e-01,-6.148463115096092224e-02,5.106012150645256042e-02,9.071990847587585449e-02,1.735951192677021027e-02,5.295151099562644958e-02,9.689693152904510498e-02,6.528715044260025024e-02,1.531873494386672974e-01,1.490342617034912109e-01,1.922081857919692993e-01,3.775974363088607788e-02,1.367906928062438965e-01,7.834932953119277954e-02,6.902896612882614136e-02,5.440145358443260193e-02,9.777726233005523682e-02,-4.451268538832664490e-02,2.265270426869392395e-02,-1.137562617659568787e-01,-6.916034035384654999e-03,9.099173359572887421e-03,1.057815402746200562e-01,6.673364341259002686e-02,1.186299026012420654e-01,6.781096756458282471e-02,-5.110882595181465149e-02,-7.841663807630538940e-02,-6.166525185108184814e-02,4.634231328964233398e-02,-3.608004748821258545e-02,3.625148162245750427e-02,1.956199295818805695e-02,-3.586371243000030518e-02,3.261983767151832581e-02,2.174517698585987091e-02,1.513844281435012817e-01,1.518773138523101807e-01,1.646568030118942261e-01,3.149675726890563965e-01,2.268182337284088135e-01,2.330130636692047119e-01,1.539506465196609497e-01,2.043210566043853760e-01,3.445549309253692627e-02,2.972405590116977692e-02,-2.667316934093832970e-03,4.156915470957756042e-02,7.855357229709625244e-02,-2.435157448053359985e-02,1.154670119285583496e-01,1.197644621133804321e-01,-3.941490128636360168e-02,5.972628132440149784e-04,-2.776742912828922272e-02,1.618947237730026245e-01,6.482268869876861572e-02,-8.948156237602233887e-02,5.291233211755752563e-02,-7.122617959976196289e-02,-3.215402364730834961e-02,-1.463723629713058472e-01,-8.182828873395919800e-02,-3.901373967528343201e-02,8.708480745553970337e-02,1.716803014278411865e-01,2.084553986787796021e-01,3.278992474079132080e-01,2.738369703292846680e-01,1.549855470657348633e-01,1.296228766441345215e-01,5.222246795892715454e-02,7.404404133558273315e-02,3.190971538424491882e-02,-6.387428194284439087e-02,-6.508871167898178101e-02,-4.466542508453130722e-03,2.175677753984928131e-02,4.520810022950172424e-02,-2.323483861982822418e-02,1.941762864589691162e-02,-8.437311649322509766e-02,2.392000053077936172e-03,7.122230529785156250e-02,9.602925926446914673e-02,-5.884054675698280334e-02,-7.417459785938262939e-02,-6.102364510297775269e-02,-1.460731681436300278e-02,-9.299087524414062500e-02,-1.686153933405876160e-02,2.769202925264835358e-02,8.525081723928451538e-02,8.234379440546035767e-02,1.771532893180847168e-01,2.282276600599288940e-01,2.829183936119079590e-01,1.648156940937042236e-01,3.432845929637551308e-03,-3.697661682963371277e-02,-2.085046656429767609e-02,4.265106469392776489e-02,-7.440450787544250488e-02,-4.462878033518791199e-02,-3.727298974990844727e-02,9.372625499963760376e-02,1.109120398759841919e-01,-1.442743744701147079e-02,-3.762291744351387024e-02,-8.409364521503448486e-02,7.019941695034503937e-03,-4.191258922219276428e-04,4.333943873643875122e-02,-5.522267147898674011e-02,1.706883125007152557e-02,8.177316188812255859e-02,6.445613503456115723e-02,-6.012391299009323120e-02,-1.153664141893386841e-01,8.017851971089839935e-03,1.066737156361341476e-02,1.252544228918850422e-03,1.838280856609344482e-01,1.884978860616683960e-01,1.369014978408813477e-01,1.048822999000549316e-01,-3.179589286446571350e-02,-5.003382638096809387e-02,-9.887125343084335327e-02,-1.332621723413467407e-01,-7.235243171453475952e-02,4.246426746249198914e-03,-7.124149799346923828e-02,6.456503272056579590e-02,9.426688402891159058e-02,4.143697768449783325e-02,3.166040871292352676e-03,-4.653490707278251648e-02,-5.825657024979591370e-02,-5.065239220857620239e-02,-1.899649761617183685e-02,-6.396453827619552612e-03,-4.066888615489006042e-02,-2.994492650032043457e-02,5.827422812581062317e-02,6.598136574029922485e-02,3.971216455101966858e-02,-1.392544526606798172e-02,-3.587984945625066757e-03,-7.170356810092926025e-02,-3.727749362587928772e-02,7.897946238517761230e-02,-2.015154808759689331e-02,-1.296500265598297119e-01,-1.996273994445800781e-01,-1.226833611726760864e-01,-1.217789128422737122e-01,-1.969398856163024902e-01,8.494325913488864899e-03,-2.317468076944351196e-02,-3.624065965414047241e-02,7.683786004781723022e-02,1.607955247163772583e-01,5.612336099147796631e-02,-1.144378185272216797e-01,-8.151841163635253906e-02,5.050661787390708923e-02,5.648935213685035706e-02,-5.093864724040031433e-02,-1.287050098180770874e-01,6.359753757715225220e-02,7.494732737541198730e-02,1.094760373234748840e-01,3.443259373307228088e-02,7.822253555059432983e-02,-4.096610099077224731e-02,2.988819219172000885e-02,4.306650906801223755e-02,-7.056174427270889282e-02,-1.394950319081544876e-03,-6.716039776802062988e-02,-1.387726664543151855e-01,-1.982930451631546021e-01,-1.397572457790374756e-01,-2.323941141366958618e-01,-1.203833669424057007e-01,1.576677896082401276e-02,-1.111319586634635925e-01,1.688613183796405792e-02,-2.598894061520695686e-03,-1.479807402938604355e-02,-3.954233974218368530e-02,-9.766571223735809326e-02,-1.489760279655456543e-01,-5.559056252241134644e-02,1.550182816572487354e-03,6.565900892019271851e-02,-6.178651750087738037e-02,-6.439077109098434448e-02,6.904473155736923218e-02,9.691801667213439941e-02,1.286476105451583862e-02,5.393596738576889038e-02,-1.003319621086120605e-01,-3.235229104757308960e-02,-8.294779807329177856e-03,6.336732208728790283e-02,7.405025511980056763e-02,-2.860113047063350677e-02,-6.962805241346359253e-02,-1.295590847730636597e-01,-1.230286136269569397e-01,-1.031700298190116882e-01,-2.532467804849147797e-02,-7.966287434101104736e-02,-9.607928991317749023e-02,5.849067494273185730e-02,2.963827177882194519e-02,1.070466823875904083e-02,-4.011674225330352783e-02,2.102272398769855499e-02,-1.062622666358947754e-01,-2.536629699170589447e-02,3.433696180582046509e-02,9.913589060306549072e-02,4.669669270515441895e-02,3.349912166595458984e-02,4.739465191960334778e-02,8.514689654111862183e-02,-1.469130814075469971e-02,-2.626936323940753937e-02,-1.152918413281440735e-01,-3.484888002276420593e-02,1.401659697294235229e-01,1.475245803594589233e-01,4.228537157177925110e-02,-1.133256219327449799e-02,-2.951179817318916321e-02,-7.803143560886383057e-02,-8.867234736680984497e-02,-3.821624815464019775e-02,1.716538891196250916e-02,5.978486500680446625e-03,8.824583888053894043e-02,1.256633456796407700e-02,9.445786476135253906e-03,-1.648175567388534546e-01,-3.974087536334991455e-02,-1.196268871426582336e-01,-5.316811054944992065e-02,-8.815361559391021729e-02,-7.874599844217300415e-02,2.196056209504604340e-02,-2.607800811529159546e-02,-5.411156266927719116e-02,3.609731094911694527e-03,1.480557620525360107e-01,1.150406082160770893e-03,1.144655141979455948e-02,3.905498608946800232e-02,-6.235320121049880981e-03,1.608497053384780884e-01,1.456730663776397705e-01,2.046684473752975464e-01,1.264052689075469971e-01,1.805536150932312012e-01,1.351630538702011108e-01,3.181482106447219849e-02,1.131894066929817200e-02,9.474018961191177368e-02,-4.830602556467056274e-02,5.368906259536743164e-02,3.166918456554412842e-02,6.957045197486877441e-02,-7.462145294994115829e-03,-3.345578163862228394e-02,-1.375820189714431763e-01,-1.090324521064758301e-01,-2.653108537197113037e-01,-1.922057420015335083e-01,6.675526499748229980e-02,-6.006069481372833252e-03,-5.638694390654563904e-02,-1.337461918592453003e-02,1.410016417503356934e-01,7.221176754683256149e-03,1.355210989713668823e-01,-6.133341230452060699e-03,-1.830294728279113770e-02,2.998148649930953979e-02,8.090045303106307983e-02,1.488764286041259766e-01,1.254454255104064941e-01,6.682369112968444824e-02,5.728828161954879761e-02,-1.993642421439290047e-03,3.882927820086479187e-02,-5.233355239033699036e-02,-4.939925670623779297e-02,-1.059161946177482605e-01,-8.415863849222660065e-03,1.005192324519157410e-01,1.058121398091316223e-01,-8.693172596395015717e-03,-9.538622200489044189e-02,-1.778458207845687866e-01,-2.044032514095306396e-01,-1.193642169237136841e-01,-8.181571960449218750e-03,9.332023561000823975e-03,-1.711586862802505493e-02,-2.187581360340118408e-02,6.714085489511489868e-02,-1.082187667489051819e-01,1.694635301828384399e-01,-5.045378208160400391e-02,8.045829087495803833e-02,5.720434710383415222e-02,-2.575211785733699799e-02,8.576970547437667847e-03,-4.974279925227165222e-02,-2.275885827839374542e-02,4.472199082374572754e-02,2.655533514916896820e-02,6.217577680945396423e-02,-1.146500706672668457e-01,-1.268734037876129150e-01,6.400990532711148262e-04,-8.149655908346176147e-02,1.865721307694911957e-02,-5.169807933270931244e-03,6.749938707798719406e-03,-8.512742072343826294e-02,-1.820961534976959229e-01,-4.949516057968139648e-02,1.448475569486618042e-02,-2.444804087281227112e-02,7.994659990072250366e-02,2.341259270906448364e-02,-1.900133118033409119e-02,5.962236970663070679e-02,5.482833832502365112e-02,2.568537741899490356e-02,2.664533443748950958e-02,-7.977434247732162476e-02,-7.612816989421844482e-02,-1.067736148834228516e-01,-5.579413846135139465e-02,7.140940055251121521e-03,-1.185263916850090027e-01,1.784561760723590851e-02,-2.272614277899265289e-02,-2.821902371942996979e-02,-5.304694175720214844e-02,-9.227523207664489746e-02,-1.103481277823448181e-01,-1.349210292100906372e-01,-1.222309321165084839e-01,-3.808334469795227051e-02,-3.754749521613121033e-02,-5.421115085482597351e-02,-1.027041748166084290e-01,6.260112673044204712e-02,7.845028489828109741e-02,-1.645341515541076660e-02,4.090810567140579224e-02,4.782257229089736938e-02,7.149311155080795288e-02,-7.656455039978027344e-03,5.498012155294418335e-02,-5.660796165466308594e-02,-8.110142499208450317e-02,-4.804185405373573303e-02,1.083541568368673325e-02,1.549461483955383301e-02,5.682464689016342163e-04,-1.682063043117523193e-01,-1.283122301101684570e-01,2.386294864118099213e-02,2.331321127712726593e-02,9.442237764596939087e-02,-3.836779296398162842e-02,-9.363262355327606201e-02,-4.934913665056228638e-02,-1.212474480271339417e-01,-1.100737228989601135e-01,3.664464876055717468e-02,1.870684325695037842e-01,6.297948211431503296e-02,4.328105971217155457e-02,2.594180405139923096e-02,-9.216710925102233887e-03,2.785240858793258667e-02,-5.925527960062026978e-02
