1.254354119300842285e-01
-4.980367049574851990e-02
1.669560223817825317e-01
-3.195289522409439087e-02
-1.003368645906448364e-01
-1.625657975673675537e-01
-1.370219141244888306e-01
7.070035487413406372e-02
2.667514048516750336e-02
2.590365707874298096e-01
-1.572882682085037231e-01
2.933565080165863037e-01
1.336589157581329346e-01
-2.082662470638751984e-02
-2.014528363943099976e-01
2.225350588560104370e-01
-1.001500561833381653e-01
-2.641845047473907471e-01
2.172607779502868652e-01
-2.135645300149917603e-01
-1.724979132413864136e-01
1.079241484403610229e-01
-6.150866672396659851e-02
1.009119488298892975e-02
8.205182105302810669e-02
-1.152182668447494507e-01
-1.423892080783843994e-01
-2.474840283393859863e-01
1.742365956306457520e-01
1.622885167598724365e-01
-3.703955188393592834e-02
-7.951159775257110596e-02
-1.076443865895271301e-01
-5.636963620781898499e-02
-2.308007925748825073e-01
-1.562874168157577515e-01
-8.030861616134643555e-02
3.027267009019851685e-02
-3.881248459219932556e-02
3.089718520641326904e-01
3.963771760463714600e-01
9.089446812868118286e-02
1.703559011220932007e-01
7.399540394544601440e-02
-9.514121711254119873e-02
1.618424206972122192e-01
2.245448827743530273e-01
5.637613311409950256e-02
-3.567368388175964355e-01
-1.813688129186630249e-01
1.694053709506988525e-01
-1.326339244842529297e-01
-2.047425508499145508e-02
-4.922867566347122192e-02
-2.005939036607742310e-01
1.828448176383972168e-01
-2.028240561485290527e-01
2.900759875774383545e-01
9.109798818826675415e-02
1.549250818789005280e-02
-6.018005684018135071e-02
-1.177294403314590454e-01
-2.489296197891235352e-01
-1.038136705756187439e-01
3.185259401798248291e-01
6.042677536606788635e-02
3.343060016632080078e-01
-2.095525898039340973e-02
-2.413942962884902954e-01
-5.314747989177703857e-02
-1.966928876936435699e-02
2.163674682378768921e-01
1.776451617479324341e-01
-1.284046024084091187e-01
4.030283540487289429e-02
-9.149447828531265259e-02
1.414928883314132690e-01
-1.230113673955202103e-02
-4.383529350161552429e-02
1.669800728559494019e-01
1.984467506408691406e-01
-9.522901475429534912e-02
-5.594790354371070862e-02
4.801030829548835754e-02
-1.587375067174434662e-02
-7.061281800270080566e-02
-7.412403076887130737e-02
1.380283571779727936e-02
2.259233891963958740e-01
-1.920201629400253296e-01
-1.902954578399658203e-01
-3.306285142898559570e-01
-6.234337761998176575e-02
1.027982681989669800e-01
-2.503372728824615479e-02
2.930944859981536865e-01
-8.317945525050163269e-03
-1.815770715475082397e-01
3.225520625710487366e-02
-1.791994422674179077e-01
-1.314396113157272339e-01
-6.616709381341934204e-02
-2.602732479572296143e-01
-3.571020439267158508e-02
-1.678284406661987305e-01
-3.226707130670547485e-02
-9.453004598617553711e-02
1.786340326070785522e-01
1.677563339471817017e-01
1.579782962799072266e-01
-1.561619341373443604e-01
2.403558641672134399e-01
8.151282556354999542e-03
2.292303740978240967e-01
1.492958515882492065e-02
5.052575143054127693e-04
-2.141640037298202515e-01
-1.275553256273269653e-01
-1.576312631368637085e-01
-1.955079585313796997e-01
8.339267224073410034e-04
2.759258151054382324e-01
1.060175150632858276e-01
1.919627189636230469e-01
-1.435090508311986923e-02
-5.478911474347114563e-02
-1.761792451143264771e-01
-2.165972888469696045e-01
