4.255074262619018555e-02
-1.539079844951629639e-02
1.046786680817604065e-01
-2.482302859425544739e-02
-1.068503689020872116e-02
2.090497640892863274e-03
7.453037798404693604e-02
-8.543595671653747559e-02
-1.174961924552917480e-01
1.713293939828872681e-01
1.484373304992914200e-02
-6.868317257612943649e-03
6.641875207424163818e-02
-1.892660744488239288e-02
-5.360839515924453735e-02
6.611681729555130005e-02
5.579359084367752075e-02
3.617051243782043457e-02
9.488144516944885254e-02
-1.912046223878860474e-02
-8.425363898277282715e-02
-2.221271097660064697e-01
6.636833306401968002e-03
1.596903242170810699e-02
-2.399713248014450073e-01
5.670471489429473877e-02
-9.373508393764495850e-02
6.862547993659973145e-02
-4.383091349154710770e-03
-3.970060124993324280e-02
3.015080839395523071e-02
-4.463660344481468201e-02
-3.711319714784622192e-02
8.167093247175216675e-02
-1.208195313811302185e-01
-1.796361617743968964e-02
1.975689455866813660e-02
5.533895641565322876e-02
-7.473266124725341797e-02
-1.757601350545883179e-01
8.679993450641632080e-02
-1.080498099327087402e-01
-1.941318660974502563e-01
9.873253107070922852e-02
-6.005591899156570435e-02
-1.066176667809486389e-01
-1.037950441241264343e-01
2.815285138785839081e-02
-1.582726389169692993e-01
4.327542707324028015e-02
-1.036390010267496109e-02
-1.013574004173278809e-02
-1.212862282991409302e-01
-1.467130053788423538e-02
1.083937883377075195e-01
5.215002689510583878e-03
3.801055718213319778e-03
3.190250834450125694e-03
6.284031271934509277e-02
4.289807379245758057e-02
-4.818853735923767090e-02
-5.751553550362586975e-02
-9.630707092583179474e-03
2.436499670147895813e-02
