2.334356606006622314e-01,-7.991787046194076538e-02,-1.859691292047500610e-01,-4.367451183497905731e-03,5.133217573165893555e-02,-4.387838765978813171e-02,1.735068261623382568e-01,-9.330580383539199829e-02,-3.110542334616184235e-02,-3.408325091004371643e-02,1.289357542991638184e-01,-7.268251478672027588e-02,-1.628304272890090942e-02,-1.206959113478660583e-01,-1.462963819503784180e-01,6.743643432855606079e-02,-1.805239319801330566e-01,-6.461785733699798584e-02,-1.482525616884231567e-01,8.801403641700744629e-02,-1.119295284152030945e-01,2.363177090883255005e-01,-4.406177625060081482e-02,8.207129314541816711e-03,6.064331158995628357e-02,-1.674279421567916870e-01,-3.594882413744926453e-02,1.268603950738906860e-01,3.454223275184631348e-01,-6.157582253217697144e-02,-1.814710795879364014e-01,-2.789699435234069824e-01,1.106141358613967896e-01,-9.420547634363174438e-03,3.590551018714904785e-02,-1.179214045405387878e-01,1.462683975696563721e-01,-2.721110917627811432e-02,-1.168337464332580566e-01,-6.151588633656501770e-03,2.420546710491180420e-01,-5.929738283157348633e-02,-2.720914082601666451e-03,-2.384563088417053223e-01,1.321920100599527359e-02,1.158480048179626465e-01,-4.313318803906440735e-02,1.196183040738105774e-01,1.328263878822326660e-01,-1.466984152793884277e-01,-1.321834921836853027e-01,-2.058599293231964111e-01,-9.047282487154006958e-02,-1.162031590938568115e-01,-1.145685762166976929e-01,1.915055327117443085e-02,-1.758831366896629333e-02,-1.218881234526634216e-01,1.522445529699325562e-01,1.774357259273529053e-01,-1.139883175492286682e-01,-1.151876747608184814e-01,-2.932260558009147644e-02,-1.091005355119705200e-01,8.800671994686126709e-02,5.575069785118103027e-02,-5.711480975151062012e-02,7.587941735982894897e-02,-5.388458818197250366e-02,3.178650885820388794e-02,-1.291522979736328125e-01,1.513016372919082642e-01,-9.464398026466369629e-02,-9.281303733587265015e-02,1.073413714766502380e-01,-2.787456475198268890e-02,-3.474820405244827271e-02,1.841081678867340088e-01,1.320857405662536621e-01,-2.134212553501129150e-01,1.772022396326065063e-01,2.150784432888031006e-01,1.372958272695541382e-01,1.033843979239463806e-01,4.325392469763755798e-02,-3.083752691745758057e-01,-3.344638645648956299e-02,-1.060465797781944275e-01,1.580989807844161987e-01,8.206494152545928955e-02,-4.472836386412382126e-03,4.182194359600543976e-03,-1.439433246850967407e-01,3.071177303791046143e-01,1.416911929845809937e-01,-1.954198479652404785e-01,-1.074679475277662277e-02,-2.672999631613492966e-03,1.459233611822128296e-01,1.113392710685729980e-01,-7.595976442098617554e-02,-4.739540815353393555e-02,1.392581127583980560e-02,6.160179898142814636e-02,-2.227289951406419277e-05,-5.337736383080482483e-02,-1.557056754827499390e-01,2.237778902053833008e-01,1.824863068759441376e-02,-1.338403671979904175e-02,7.257925719022750854e-02,-1.801261901855468750e-01,-2.077139616012573242e-01,1.317031085491180420e-01,-1.622296869754791260e-01,7.985705137252807617e-02,1.829938441514968872e-01,-1.249478831887245178e-01,7.188131660223007202e-02,9.405495226383209229e-02,9.982613846659660339e-03,1.626630425453186035e-01,-4.285830259323120117e-02,8.800597488880157471e-02,-6.075991317629814148e-02,-1.442906558513641357e-01,-4.876883700489997864e-03,-1.695270091295242310e-01
9.692586213350296021e-02,7.691735518164932728e-04,4.710333014372736216e-04,-2.460436373949050903e-01,1.679620593786239624e-01,1.458236277103424072e-01,1.817880421876907349e-01,-8.656517416238784790e-02,9.422680363059043884e-03,-7.103452831506729126e-02,1.105712056159973145e-01,-1.138517484068870544e-01,1.572758853435516357e-01,-2.249512076377868652e-01,5.271976068615913391e-02,-9.906797856092453003e-02,8.220858871936798096e-02,1.460422575473785400e-01,-1.016597151756286621e-01,3.805536404252052307e-02,-1.385195553302764893e-01,-3.668891638517379761e-02,-5.480714607983827591e-03,-2.523215301334857941e-02,-7.968608289957046509e-02,1.468357890844345093e-01,1.160435029305517673e-03,1.845416426658630371e-01,9.941429644823074341e-02,-1.741655021905899048e-01,8.859614282846450806e-02,-2.298098988831043243e-02,-4.629005491733551025e-02,6.119144335389137268e-02,9.175964444875717163e-02,1.442156918346881866e-02,1.104540973901748657e-01,1.353390812873840332e-01,4.921563435345888138e-03,1.056008711457252502e-01,-2.752805687487125397e-02,2.108878083527088165e-02,4.513214901089668274e-02,-6.503882259130477905e-02,-1.404280867427587509e-02,-3.724747151136398315e-02,-1.672540903091430664e-01,-1.295061260461807251e-01,7.965151965618133545e-02,4.428286477923393250e-02,-1.162469014525413513e-01,4.652370512485504150e-02,1.169610992074012756e-01,1.291867941617965698e-01,1.580024510622024536e-01,-4.764325544238090515e-02,4.642551764845848083e-02,7.549823820590972900e-02,-3.896511346101760864e-02,-1.627206653356552124e-01,1.324750334024429321e-01,8.886216208338737488e-03,-1.040592417120933533e-01,-2.536271465942263603e-03,1.141738221049308777e-01,1.337392628192901611e-01,-1.545807905495166779e-02,1.126557812094688416e-01,-2.447349429130554199e-01,-2.133307158946990967e-01,8.829910308122634888e-03,-1.483139246702194214e-01,-1.221487764269113541e-02,-1.228091120719909668e-01,2.803320437669754028e-02,-1.253200471401214600e-01,-3.581663221120834351e-02,3.398349136114120483e-02,1.723276674747467041e-01,-1.689085215330123901e-01,1.651675999164581299e-01,-3.106892667710781097e-02,-4.940005391836166382e-02,-6.299267709255218506e-02,2.422041259706020355e-03,-1.552080959081649780e-01,-2.781083807349205017e-03,-1.690599918365478516e-01,1.113519892096519470e-01,6.757754087448120117e-02,2.151156403124332428e-02,-2.033198066055774689e-02,-8.456200361251831055e-02,6.057072803378105164e-02,-1.693107187747955322e-02,6.861495226621627808e-02,-2.949867956340312958e-02,1.477136462926864624e-01,-2.160997241735458374e-01,-1.250385642051696777e-01,-1.455499557778239250e-03,-7.809780538082122803e-02,1.787457466125488281e-01,-4.719100520014762878e-02,9.230120480060577393e-02,-6.515119224786758423e-02,-5.201987177133560181e-02,-1.076987385749816895e-01,2.944344878196716309e-01,9.137263149023056030e-02,-4.349342361092567444e-02,1.899510771036148071e-01,1.508508473634719849e-01,-9.642586112022399902e-02,1.110456287860870361e-01,-1.655552834272384644e-01,-1.594576984643936157e-01,1.119286343455314636e-01,-1.161073893308639526e-01,-6.730413436889648438e-02,1.044841185212135315e-01,1.809849292039871216e-01,1.397504210472106934e-01,-1.401133835315704346e-01,1.382383257150650024e-01,6.005613505840301514e-02,2.218872606754302979e-01,5.603896826505661011e-02
1.323189958930015564e-02,4.658424109220504761e-02,-8.117631077766418457e-02,-3.523912653326988220e-02,-6.653958559036254883e-02,2.934482321143150330e-02,-7.385608553886413574e-02,1.940079778432846069e-01,-1.736878305673599243e-01,-2.676404118537902832e-01,7.382808718830347061e-03,-5.009567830711603165e-03,-2.095864713191986084e-01,-1.637059003114700317e-01,-8.401811867952346802e-02,3.189570903778076172e-01,1.271974295377731323e-01,-2.039005234837532043e-02,-1.252557337284088135e-01,1.958462893962860107e-01,9.113222360610961914e-03,1.872990727424621582e-01,2.284257411956787109e-01,-7.422550022602081299e-02,2.554573416709899902e-01,-1.316464841365814209e-01,-1.392098963260650635e-01,-6.493425369262695312e-02,3.913588076829910278e-02,-2.173237204551696777e-01,-4.285917803645133972e-02,-1.151248216629028320e-01,1.289376765489578247e-01,-9.175211936235427856e-02,8.118567056953907013e-04,2.272636070847511292e-02,1.471614390611648560e-01,6.263320893049240112e-02,2.310967147350311279e-01,1.327558755874633789e-01,7.001370936632156372e-02,1.945601403713226318e-01,1.847755610942840576e-01,1.025398820638656616e-01,-3.307256847620010376e-02,4.116579517722129822e-02,-2.814888954162597656e-02,1.933903396129608154e-01,-8.800612762570381165e-03,-7.436925172805786133e-02,1.379679292440414429e-01,-2.049392014741897583e-01,-9.086760133504867554e-02,-3.524167463183403015e-02,-8.529409766197204590e-02,-2.112608104944229126e-01,-3.020699918270111084e-01,2.881573326885700226e-02,2.326919585466384888e-01,-9.261275082826614380e-02,1.130271032452583313e-01,-2.081998139619827271e-01,-7.122847437858581543e-02,5.245265364646911621e-02,3.339587450027465820e-01,1.467599421739578247e-01,4.335188269615173340e-01,-8.138802647590637207e-02,-1.993365734815597534e-01,-2.643014192581176758e-01,1.210095137357711792e-01,5.764583870768547058e-02,-9.207674115896224976e-02,1.887277467176318169e-03,-2.694156169891357422e-01,3.857856849208474159e-03,-1.856415569782257080e-01,4.548636451363563538e-02,-5.173983424901962280e-02,-9.497987921349704266e-04,5.143422633409500122e-02,-4.514819476753473282e-03,-2.134938836097717285e-01,1.078107059001922607e-01,2.010973989963531494e-01,5.904487520456314087e-02,1.120330318808555603e-01,1.298706084489822388e-01,-6.791392713785171509e-02,1.019235849380493164e-01,-1.913903355598449707e-01,-1.743576973676681519e-01,1.090762093663215637e-01,2.182410657405853271e-01,-1.317439973354339600e-01,8.639819175004959106e-02,-6.264416873455047607e-02,-7.056886702775955200e-02,2.129133325070142746e-03,1.972713693976402283e-02,-1.362191736698150635e-01,1.677449792623519897e-02,-5.101773142814636230e-02,-1.328666657209396362e-01,-1.785464584827423096e-01,1.539600193500518799e-01,6.805903464555740356e-02,-4.243446514010429382e-02,1.296687573194503784e-01,1.409839242696762085e-01,-2.643907675519585609e-03,1.351166069507598877e-01,-5.681831762194633484e-02,-1.104621812701225281e-01,5.332218483090400696e-02,-1.042786091566085815e-01,3.420297801494598389e-02,-1.429687589406967163e-01,-1.217361018061637878e-01,1.421061716973781586e-02,-1.353113166987895966e-02,-5.366676300764083862e-02,6.164930760860443115e-02,1.030155643820762634e-01,7.140982896089553833e-03,2.328927665948867798e-01,4.558464884757995605e-02,2.877643704414367676e-02
1.533653028309345245e-02,8.377307653427124023e-02,3.102627396583557129e-02,3.467356041073799133e-02,8.249098062515258789e-02,-5.236570257693529129e-03,-9.175293147563934326e-02,2.311372905969619751e-01,5.668975040316581726e-02,9.336232393980026245e-02,4.806861281394958496e-02,-4.175877943634986877e-02,7.127215713262557983e-02,8.014137297868728638e-02,7.296080235391855240e-03,2.719565927982330322e-01,3.041345439851284027e-02,-8.120319992303848267e-02,-1.340774167329072952e-02,2.205591648817062378e-02,2.341359704732894897e-01,6.473048590123653412e-03,1.229651570320129395e-01,6.163116917014122009e-02,-6.974250078201293945e-02,-2.361752986907958984e-01,-1.378241926431655884e-01,-2.111072093248367310e-02,1.681553013622760773e-02,2.386475950479507446e-01,8.085436373949050903e-02,1.095188409090042114e-01,9.365186840295791626e-02,-2.711376547813415527e-01,-9.323660284280776978e-02,-4.631890356540679932e-02,4.589480161666870117e-02,-1.029016450047492981e-01,9.770755469799041748e-02,-8.720697462558746338e-02,-1.107719466090202332e-01,6.791297346353530884e-02,-3.093890845775604248e-02,3.143308311700820923e-02,-8.767938613891601562e-02,-6.826530396938323975e-02,5.513354763388633728e-02,-5.898316204547882080e-02,2.274998649954795837e-02,1.314836591482162476e-01,9.391333162784576416e-02,1.549005359411239624e-01,-7.864846289157867432e-02,4.075000062584877014e-02,-2.218578308820724487e-01,-6.604992598295211792e-02,-1.502599418163299561e-01,1.821965426206588745e-01,-2.693977952003479004e-01,-8.460453897714614868e-02,-1.742383539676666260e-01,-2.190588861703872681e-01,1.022904068231582642e-01,2.184037864208221436e-02,-2.454400807619094849e-02,6.024409830570220947e-02,1.112726051360368729e-02,-3.663942217826843262e-02,7.473301887512207031e-02,2.764477431774139404e-01,2.990533411502838135e-01,1.162262335419654846e-01,-4.404838010668754578e-02,1.551241427659988403e-01,4.913422092795372009e-02,1.170813199132680893e-02,1.471333652734756470e-01,-2.768124938011169434e-01,-1.137102395296096802e-02,3.431952893733978271e-01,-1.613886803388595581e-01,-1.178906485438346863e-01,-7.667219266295433044e-03,1.578934937715530396e-01,-2.540019750595092773e-01,2.954567670822143555e-01,1.951313912868499756e-01,1.690207608044147491e-02,-1.561784744262695312e-01,-2.146119251847267151e-03,7.358901202678680420e-02,-9.511298686265945435e-02,1.682945191860198975e-01,8.212859928607940674e-02,8.724610507488250732e-02,-8.013132959604263306e-03,-2.431006543338298798e-02,-1.688044518232345581e-01,1.955439597368240356e-01,6.323149055242538452e-02,-1.635699719190597534e-02,-7.262019068002700806e-02,-3.488569334149360657e-02,9.216023981571197510e-02,1.195773929357528687e-01,1.955678127706050873e-02,1.285603195428848267e-01,-1.639521680772304535e-02,-1.013872697949409485e-01,2.166719138622283936e-01,-4.262417927384376526e-02,-4.414174333214759827e-02,-1.151902228593826294e-01,2.527038101106882095e-03,1.071296632289886475e-01,4.905056208372116089e-03,-2.160920649766921997e-01,1.449820399284362793e-01,-1.085986942052841187e-02,-8.348430693149566650e-02,2.570262849330902100e-01,-5.649167671799659729e-02,-1.852757185697555542e-01,1.229874864220619202e-01,-1.908420026302337646e-01,-1.684678345918655396e-01,-3.459578454494476318e-01,1.690499931573867798e-01
-6.822697818279266357e-02,-1.205026879906654358e-01,8.545367419719696045e-02,-4.624309390783309937e-02,1.075523570179939270e-01,1.632071286439895630e-01,9.970754384994506836e-02,-1.410183608531951904e-01,-1.049742326140403748e-01,-1.168861333280801773e-02,-7.992868125438690186e-02,5.647179111838340759e-02,-1.102393418550491333e-01,1.711027920246124268e-01,7.284097373485565186e-02,3.179743513464927673e-02,2.950750291347503662e-01,-1.590036153793334961e-01,-1.010081619024276733e-01,1.441859304904937744e-01,2.085945755243301392e-01,-2.735693939030170441e-02,-7.049330323934555054e-02,1.559199392795562744e-01,-1.161631941795349121e-01,7.719987630844116211e-02,2.542988583445549011e-02,-6.010035984218120575e-03,-6.844292581081390381e-02,-1.330896317958831787e-01,-1.809709065128117800e-04,-2.041581124067306519e-01,-8.084815740585327148e-02,3.329731896519660950e-02,1.017475202679634094e-01,1.291428804397583008e-01,-5.425304546952247620e-02,2.290904819965362549e-01,1.911588460206985474e-01,-1.737747341394424438e-02,-8.893205970525741577e-02,2.434996888041496277e-02,1.356669366359710693e-01,1.559548527002334595e-01,2.360379844903945923e-01,-1.250710040330886841e-01,2.113337963819503784e-01,1.071654334664344788e-01,-8.226267993450164795e-02,-1.716005504131317139e-01,-3.508051857352256775e-02,-3.261622413992881775e-02,-1.313225626945495605e-01,1.539662182331085205e-01,1.406076997518539429e-01,2.012761123478412628e-02,-4.543494060635566711e-02,-6.366191804409027100e-02,-2.395301684737205505e-02,-2.116798609495162964e-01,3.688101842999458313e-02,3.292242810130119324e-02,1.981382966041564941e-01,-6.776121258735656738e-02,-5.235749483108520508e-02,2.860752493143081665e-02,1.252753734588623047e-01,-5.886957980692386627e-03,-8.718725293874740601e-02,-1.329299248754978180e-02,9.435129910707473755e-02,-4.087337106466293335e-02,8.572928607463836670e-02,1.309579610824584961e-01,-2.058701664209365845e-01,1.509178280830383301e-01,-4.789656028151512146e-03,1.456914991140365601e-01,-1.241464093327522278e-01,-1.637656241655349731e-01,-1.852307021617889404e-01,2.366053685545921326e-02,-1.129826158285140991e-01,1.373549364507198334e-02,1.772104799747467041e-01,-7.292140275239944458e-02,-1.287840865552425385e-02,4.038300365209579468e-02,-1.144951656460762024e-01,-1.637179106473922729e-01,-1.476386487483978271e-01,-2.371485084295272827e-01,9.455051273107528687e-02,-2.541775442659854889e-02,8.707898110151290894e-02,-1.396425366401672363e-01,5.952795967459678650e-03,1.678194105625152588e-01,-1.458049118518829346e-01,-8.708128333091735840e-02,-3.086485862731933594e-01,2.655549943447113037e-01,-1.451595276594161987e-01,-1.290080994367599487e-01,-1.728638708591461182e-01,1.726259887218475342e-01,1.389822363853454590e-01,-2.395458519458770752e-01,-1.062516272068023682e-01,5.413882434368133545e-02,2.086860984563827515e-01,-1.909521371126174927e-01,2.941110730171203613e-02,-1.263165497221052647e-03,-1.296145096421241760e-02,-1.799701154232025146e-01,1.714273393154144287e-01,-1.289046555757522583e-01,-1.079021170735359192e-01,-3.945441544055938721e-02,5.850538238883018494e-02,4.150448739528656006e-02,1.028352677822113037e-01,1.087380051612854004e-01,-2.707329206168651581e-02,6.996954977512359619e-02,-1.029436066746711731e-01,8.683475852012634277e-02
-1.707818061113357544e-01,-1.515110284090042114e-01,-1.322309523820877075e-01,-1.483377665281295776e-01,-3.983792290091514587e-02,4.674348607659339905e-02,8.956196159124374390e-02,-4.579680413007736206e-02,-9.646996855735778809e-02,5.655151605606079102e-02,9.926917403936386108e-02,-2.871265262365341187e-02,-2.692783772945404053e-01,4.928451776504516602e-02,2.837072014808654785e-01,-3.973287343978881836e-02,-2.760580740869045258e-02,-6.410316377878189087e-02,1.302909255027770996e-01,1.460549980401992798e-01,-2.975853160023689270e-02,-1.112016662955284119e-01,1.862705200910568237e-01,-8.233001455664634705e-03,-8.964428305625915527e-02,-1.365518867969512939e-01,-1.297497451305389404e-01,5.055825039744377136e-02,-6.854660063982009888e-02,3.147043660283088684e-02,-1.456624865531921387e-01,-1.482450515031814575e-01,-2.159964740276336670e-01,-6.621254980564117432e-02,1.285368651151657104e-01,4.802396148443222046e-02,-1.761839725077152252e-02,-9.152196347713470459e-02,-1.938109397888183594e-01,-8.373881131410598755e-02,-8.314520120620727539e-02,1.042381003499031067e-01,-7.050479203462600708e-02,-3.398920223116874695e-02,-1.065623108297586441e-02,-9.767882525920867920e-02,-1.494469046592712402e-01,7.243656367063522339e-02,2.053220272064208984e-01,1.376602202653884888e-01,6.268736720085144043e-02,-8.085259795188903809e-02,1.026439517736434937e-01,-5.131969228386878967e-02,1.081767957657575607e-02,-1.036082878708839417e-01,1.486935764551162720e-01,-5.709936469793319702e-02,1.152495518326759338e-01,-3.145672008395195007e-02,-1.855732649564743042e-01,1.876450181007385254e-01,8.443043380975723267e-02,1.950197853147983551e-02,1.203769370913505554e-01,7.397066056728363037e-02,-2.768566459417343140e-02,7.107228040695190430e-02,1.852218806743621826e-01,-1.166966855525970459e-01,5.076538398861885071e-02,1.876302808523178101e-01,-1.183030977845191956e-01,4.297492653131484985e-02,-1.613717339932918549e-02,-8.792294189333915710e-03,-1.762836426496505737e-02,-1.477722227573394775e-01,1.285013407468795776e-01,-6.469640880823135376e-02,5.204265937209129333e-02,-1.768848150968551636e-01,-1.601206660270690918e-01,5.306449532508850098e-02,-1.115663796663284302e-01,-2.062716521322727203e-02,2.786630019545555115e-02,6.445607542991638184e-02,-2.108823508024215698e-01,-1.175619754940271378e-02,2.086664587259292603e-01,2.477258443832397461e-01,1.827790886163711548e-01,-9.616677463054656982e-02,-4.367354139685630798e-02,4.648194834589958191e-02,-1.658116728067398071e-01,-2.685986161231994629e-01,-1.382795423269271851e-01,1.654880344867706299e-01,-1.002364158630371094e-01,8.151702582836151123e-03,1.661926060914993286e-01,1.094746962189674377e-01,7.054923474788665771e-02,-1.658266931772232056e-01,-5.288411676883697510e-02,9.773714095354080200e-02,-3.594628721475601196e-02,1.851807534694671631e-01,8.079836517572402954e-02,-2.830905318260192871e-01,-4.212494567036628723e-02,-1.214097142219543457e-01,1.767860800027847290e-01,6.709198653697967529e-02,-2.331797629594802856e-01,9.114874899387359619e-02,-3.825564682483673096e-02,-1.508922278881072998e-01,7.848299294710159302e-02,-1.494679600000381470e-01,1.689314991235733032e-01,2.495980123057961464e-03,8.767865598201751709e-02,1.604201197624206543e-01,-1.696488112211227417e-01,1.034600287675857544e-01
-1.372070237994194031e-02,-1.793453693389892578e-01,-2.963724434375762939e-01,-7.653905451297760010e-02,-9.493339806795120239e-02,5.944711621850728989e-03,2.335905134677886963e-01,2.188314497470855713e-02,4.893906787037849426e-02,-5.847001075744628906e-02,7.240003347396850586e-02,7.787711918354034424e-02,3.510949388146400452e-02,-1.479688435792922974e-01,8.799010515213012695e-02,1.273305620998144150e-02,-1.840378195047378540e-01,1.096708402037620544e-01,1.695654354989528656e-02,1.603469252586364746e-01,-2.512100934982299805e-01,1.013447418808937073e-01,1.939378678798675537e-01,1.533343456685543060e-03,1.026491001248359680e-01,-6.131873279809951782e-02,-1.001960560679435730e-01,-3.815831383690237999e-03,6.912923604249954224e-02,-1.646350473165512085e-01,-7.241041958332061768e-02,-1.081334799528121948e-01,-3.544716164469718933e-02,-1.889355927705764771e-01,-3.446856513619422913e-02,-1.296345740556716919e-01,1.342698466032743454e-02,1.053832992911338806e-01,-8.533223718404769897e-02,-1.975178122520446777e-01,2.349247410893440247e-02,-1.011086031794548035e-01,-1.764536947011947632e-01,-2.916165627539157867e-02,-6.189741939306259155e-02,4.119055718183517456e-02,-7.496684789657592773e-03,-1.118428185582160950e-01,8.869688212871551514e-02,-1.127952113747596741e-01,1.126194968819618225e-01,1.495330333709716797e-01,-4.695740714669227600e-02,-4.519551876001060009e-04,-6.788604706525802612e-02,-1.360962837934494019e-01,-1.026466265320777893e-01,4.407290369272232056e-02,1.152749732136726379e-01,-1.834307797253131866e-02,-6.779313087463378906e-02,1.532200574874877930e-01,-9.061009436845779419e-02,-1.299065947532653809e-01,1.599306054413318634e-02,-4.222718626260757446e-02,-1.608135253190994263e-01,-4.990964755415916443e-02,5.267349258065223694e-02,-4.038773477077484131e-02,-2.533631324768066406e-01,2.249622493982315063e-01,4.425646737217903137e-02,-1.021747142076492310e-01,-2.241774499416351318e-01,-1.213008835911750793e-01,-1.848252415657043457e-01,7.359485328197479248e-02,6.402970850467681885e-02,-1.084173247218132019e-01,2.621983289718627930e-01,8.897342532873153687e-02,-1.466723065823316574e-02,1.886878311634063721e-01,2.377460747957229614e-01,-1.504954397678375244e-01,-1.356877386569976807e-01,-1.718376278877258301e-01,-5.121730640530586243e-02,-2.294952049851417542e-02,1.890531778335571289e-01,3.428962780162692070e-03,2.541350945830345154e-02,1.556713730096817017e-01,-1.238663345575332642e-01,1.076589431613683701e-02,9.628657996654510498e-02,8.514296263456344604e-02,-6.773995608091354370e-02,-7.890122383832931519e-02,5.909708514809608459e-02,-6.486824899911880493e-02,1.820256561040878296e-01,-1.403582654893398285e-02,-9.402897953987121582e-02,-1.758867800235748291e-01,-8.960829675197601318e-02,-4.845376685261726379e-02,2.467898875474929810e-01,4.326397087424993515e-03,5.079260468482971191e-02,7.959200441837310791e-02,-3.190466016530990601e-02,2.245348840951919556e-01,6.178367510437965393e-02,-2.650359570980072021e-01,-5.994027480483055115e-02,-1.105273663997650146e-01,2.026251703500747681e-01,-4.495676979422569275e-02,6.855560094118118286e-02,1.839493513107299805e-01,4.498002305626869202e-02,-2.709502726793289185e-02,1.690966933965682983e-01,1.230509355664253235e-01,1.479411125183105469e-01,-1.680997312068939209e-01
5.633928254246711731e-02,5.093349888920783997e-02,-1.834576129913330078e-01,-3.560577332973480225e-02,-1.251326054334640503e-01,1.758721321821212769e-01,1.036190241575241089e-01,-2.362208254635334015e-02,-2.928234934806823730e-01,-7.069276273250579834e-02,1.013845726847648621e-01,1.348689496517181396e-01,-2.618931829929351807e-01,-7.561968173831701279e-03,2.480885535478591919e-01,-4.896386340260505676e-02,-5.416088178753852844e-02,9.985867887735366821e-02,5.798621475696563721e-02,-3.201704472303390503e-02,6.197085604071617126e-03,4.571107029914855957e-02,2.765362150967121124e-03,1.936904340982437134e-01,-1.221878305077552795e-01,-2.011312693357467651e-01,2.738782465457916260e-01,4.525168612599372864e-02,1.874405145645141602e-01,-1.625090241432189941e-01,3.220179304480552673e-02,-2.169321030378341675e-01,1.547459661960601807e-01,2.704629600048065186e-01,5.429467931389808655e-02,1.751022487878799438e-01,-2.533138394355773926e-01,-1.402485817670822144e-01,7.824403792619705200e-02,9.913274645805358887e-02,-4.456422850489616394e-02,6.453481316566467285e-02,5.352862924337387085e-02,2.693141251802444458e-02,-2.461428791284561157e-01,-1.350456476211547852e-01,-7.155866175889968872e-02,2.220079489052295685e-02,-2.072415947914123535e-01,6.726022809743881226e-02,4.167453572154045105e-02,-2.569989860057830811e-01,-1.938564926385879517e-01,-1.163803786039352417e-01,-1.097917035222053528e-01,1.688392907381057739e-01,-4.374295473098754883e-02,1.558849960565567017e-01,2.683668136596679688e-01,8.385188877582550049e-02,9.737314283847808838e-02,5.448401346802711487e-02,1.142965182662010193e-01,-2.405185550451278687e-01,1.133588552474975586e-01,-2.521330416202545166e-01,7.594717293977737427e-02,5.573865398764610291e-02,1.823249012231826782e-01,-1.680276393890380859e-01,4.869480431079864502e-02,1.235628351569175720e-01,-9.439870715141296387e-02,-7.247729226946830750e-03,1.544159799814224243e-01,1.492041796445846558e-01,1.395646482706069946e-01,-8.518263697624206543e-03,-1.098567694425582886e-01,2.404724210500717163e-01,-4.150949046015739441e-02,-2.441398613154888153e-02,-2.490314990282058716e-01,8.577150106430053711e-02,2.348510921001434326e-01,-4.577889293432235718e-02,-2.595827281475067139e-01,2.320965677499771118e-01,-1.114923134446144104e-01,8.128291368484497070e-02,-4.452311620116233826e-02,6.496637314558029175e-02,1.492503881454467773e-01,1.868204623460769653e-01,-2.140161208808422089e-02,3.291570767760276794e-02,-1.451791822910308838e-01,-4.979643970727920532e-02,-1.939015984535217285e-01,-2.644485235214233398e-01,5.812097713351249695e-02,1.568586826324462891e-01,4.545487836003303528e-02,6.045646220445632935e-02,-1.020685862749814987e-02,7.882417412474751472e-04,7.619984447956085205e-02,-2.333904802799224854e-01,-1.775431483983993530e-01,-3.599754720926284790e-02,-3.138236701488494873e-01,-1.261858344078063965e-01,-1.192279458045959473e-01,1.183486450463533401e-02,-4.365665465593338013e-02,-6.819542497396469116e-02,-1.132584512233734131e-01,5.473713390529155731e-03,-5.652203410863876343e-02,-2.889426052570343018e-01,-1.250372081995010376e-01,-1.222279760986566544e-02,2.498613893985748291e-01,-1.722164750099182129e-01,1.193180084228515625e-01,-1.917902529239654541e-01,-5.365395173430442810e-02,6.634351611137390137e-02
9.848420321941375732e-02,-2.850307337939739227e-02,-1.676356345415115356e-01,-4.819079488515853882e-02,1.875245273113250732e-01,-2.619995772838592529e-01,-3.737115114927291870e-02,1.863506436347961426e-01,-6.506214383989572525e-03,-9.873963892459869385e-02,-8.874107152223587036e-02,-2.896042913198471069e-02,-2.301708012819290161e-01,8.087612688541412354e-03,1.368717104196548462e-01,-1.447606384754180908e-01,-1.501101069152355194e-03,-1.810880750417709351e-01,9.126298129558563232e-02,-9.460732340812683105e-02,1.018850654363632202e-01,-3.101108409464359283e-02,9.791715443134307861e-02,2.640619575977325439e-01,2.013075947761535645e-01,4.192243330180644989e-03,-8.805695176124572754e-02,7.354582846164703369e-02,-4.116027057170867920e-02,-1.705634742975234985e-01,1.233036443591117859e-02,-1.856675595045089722e-01,3.286175057291984558e-02,-1.851647347211837769e-02,2.351805567741394043e-01,5.154153704643249512e-02,-1.459197103977203369e-01,-8.233863115310668945e-02,2.427145242691040039e-01,9.122915565967559814e-02,-1.955467313528060913e-01,-4.040792956948280334e-02,1.209431141614913940e-01,-3.478041291236877441e-02,4.364158958196640015e-02,-1.454267650842666626e-01,-5.286562070250511169e-02,2.848008573055267334e-01,1.003767624497413635e-01,5.581995844841003418e-02,-1.325564086437225342e-01,-1.155219227075576782e-01,6.355321407318115234e-02,-1.439366042613983154e-01,-1.132082343101501465e-01,1.504844874143600464e-01,-9.849401563405990601e-02,-2.883125841617584229e-02,1.375704556703567505e-01,-1.065996512770652771e-01,3.798226639628410339e-02,-6.646898388862609863e-02,-4.289107397198677063e-02,-1.554802805185317993e-01,3.213309869170188904e-02,-4.667855799198150635e-02,1.247859001159667969e-01,9.347552061080932617e-02,1.705817580223083496e-01,-9.292588382959365845e-02,-2.728610485792160034e-02,-1.626154780387878418e-01,-5.183266475796699524e-02,-2.515632845461368561e-02,1.915648728609085083e-01,-1.033086795359849930e-02,-4.257875494658946991e-03,1.282957382500171661e-03,5.293558537960052490e-02,5.501337721943855286e-02,1.681703329086303711e-02,-3.217687085270881653e-02,2.013544142246246338e-01,-3.248492479324340820e-01,-1.774706989526748657e-01,-9.071161597967147827e-02,3.894337639212608337e-02,1.463185846805572510e-01,-9.283353388309478760e-02,4.387471824884414673e-02,-1.960408501327037811e-02,1.089882031083106995e-01,9.995019435882568359e-02,-6.534967571496963501e-02,6.805869191884994507e-02,-1.699506938457489014e-01,-2.600295543670654297e-01,-6.018094345927238464e-02,2.877017669379711151e-02,1.315316259860992432e-01,2.064895480871200562e-01,-2.453643530607223511e-01,7.009465247392654419e-02,2.394647151231765747e-01,1.967491656541824341e-01,1.492992937564849854e-01,5.233097821474075317e-02,-9.360878169536590576e-02,-7.060407847166061401e-02,9.730359166860580444e-02,-7.299039978533983231e-03,-4.921722784638404846e-02,2.138480097055435181e-01,-1.078046783804893494e-01,-7.684443145990371704e-02,-7.843145728111267090e-02,-1.060967817902565002e-01,-3.510214760899543762e-02,-1.148484498262405396e-01,-3.800962865352630615e-02,3.570907935500144958e-02,-5.051285400986671448e-02,1.536791771650314331e-01,-2.508523166179656982e-01,4.758901521563529968e-02,1.581547707319259644e-01,3.355277702212333679e-02,-1.913576573133468628e-01
2.521129250526428223e-01,-3.151559457182884216e-02,-5.263790115714073181e-02,-1.749496459960937500e-01,2.502233907580375671e-02,1.168313100934028625e-01,4.317468032240867615e-03,1.306392997503280640e-01,-2.304719574749469757e-02,-7.735523581504821777e-02,7.926747947931289673e-02,1.124095451086759567e-02,4.964103177189826965e-02,1.374154835939407349e-01,2.540322020649909973e-02,9.706090390682220459e-02,1.419279128313064575e-01,-2.169924229383468628e-01,-8.878348767757415771e-02,2.003879547119140625e-01,2.924533933401107788e-02,1.474747806787490845e-01,1.847637295722961426e-01,7.945818454027175903e-02,1.330555528402328491e-01,-3.535349667072296143e-02,-4.102292060852050781e-01,-1.882914900779724121e-01,2.350955642759799957e-02,-1.714856922626495361e-01,1.853659749031066895e-02,-2.188683487474918365e-02,-1.403160989284515381e-01,1.201715692877769470e-01,-1.291247606277465820e-01,1.443077474832534790e-01,4.907212406396865845e-02,-2.661964297294616699e-01,2.812123596668243408e-01,2.121796011924743652e-01,3.188366442918777466e-02,7.730484008789062500e-02,-3.066076524555683136e-02,-1.036050394177436829e-01,1.274826228618621826e-01,-1.298466473817825317e-01,-9.502990543842315674e-02,-1.233432739973068237e-01,-2.090681195259094238e-01,1.201069578528404236e-01,-2.125902175903320312e-01,-7.107669860124588013e-02,1.034212391823530197e-02,1.367013342678546906e-02,-5.543677881360054016e-02,-6.522168964147567749e-02,3.326359018683433533e-02,3.052182495594024658e-02,-1.472301185131072998e-01,2.840944193303585052e-02,-1.538532506674528122e-02,-2.070622146129608154e-02,-7.036732882261276245e-02,-1.138499602675437927e-01,6.270280480384826660e-02,1.257189959287643433e-01,1.320185214281082153e-01,-1.311489641666412354e-01,-2.184065282344818115e-01,-1.152387782931327820e-01,3.311797678470611572e-01,-9.032259136438369751e-02,9.174906462430953979e-02,1.079490873962640762e-03,-1.609620153903961182e-01,-1.212466508150100708e-01,-1.258357167243957520e-01,-4.248602688312530518e-02,-5.017474666237831116e-02,8.826402574777603149e-02,8.867887407541275024e-02,-4.207011684775352478e-02,1.153154522180557251e-01,-6.308079510927200317e-02,-5.921041965484619141e-02,1.072276458144187927e-01,2.084635645151138306e-01,5.925629287958145142e-02,1.557001173496246338e-01,-1.290362179279327393e-01,-7.525628060102462769e-02,-1.633010506629943848e-01,2.565192524343729019e-03,2.223728001117706299e-01,1.093319877982139587e-01,-6.753495335578918457e-02,1.422227025032043457e-01,1.709161400794982910e-01,-4.378202185034751892e-02,8.087579905986785889e-02,-1.031615808606147766e-01,7.674671709537506104e-02,4.347091168165206909e-02,1.466079503297805786e-01,-1.349638700485229492e-01,3.115093708038330078e-01,1.411547511816024780e-01,1.976259201765060425e-01,2.456133440136909485e-02,-4.141942784190177917e-02,-1.049313992261886597e-01,-1.651330739259719849e-01,-6.591273844242095947e-02,-1.006946712732315063e-01,8.356741070747375488e-02,1.320376247167587280e-01,1.593122184276580811e-01,-2.294111698865890503e-01,-1.118981838226318359e-01,2.608192898333072662e-02,-1.209129206836223602e-02,2.211776673793792725e-01,1.597669534385204315e-02,1.171329841017723083e-01,-9.467618167400360107e-02,-1.752191334962844849e-01,1.325098127126693726e-01,1.128750070929527283e-01
-2.835821546614170074e-02,6.102731917053461075e-03,2.244067490100860596e-01,4.423924162983894348e-02,-3.827272728085517883e-02,1.082554012537002563e-01,-6.792626529932022095e-02,-1.035540327429771423e-01,-1.481717228889465332e-01,1.913839429616928101e-01,-1.637781262397766113e-01,1.421518027782440186e-01,9.303007274866104126e-02,6.418493390083312988e-02,4.768262803554534912e-02,2.762442827224731445e-01,2.534842491149902344e-02,-3.160349726676940918e-01,-1.298982743173837662e-02,1.096468940377235413e-01,1.048576012253761292e-01,2.424243986606597900e-01,1.619100719690322876e-01,-3.406966105103492737e-02,1.205934882164001465e-01,-5.376340448856353760e-02,-2.357887662947177887e-02,-3.498188555240631104e-01,4.223742708563804626e-02,-2.129164151847362518e-02,-1.712259352207183838e-01,-1.417592447251081467e-02,-2.311790585517883301e-01,8.108597993850708008e-02,-7.644932717084884644e-02,7.055087387561798096e-02,-3.680921196937561035e-01,-1.173420995473861694e-01,7.638210058212280273e-02,1.389472931623458862e-01,5.710640922188758850e-03,-1.250896751880645752e-01,1.899029314517974854e-01,1.882084161043167114e-01,-1.931615769863128662e-01,2.078398764133453369e-01,3.209280073642730713e-01,2.565547823905944824e-01,-1.695076078176498413e-01,-1.563697159290313721e-01,-1.561229676008224487e-01,-1.440392136573791504e-01,-9.763738140463829041e-03,1.955425888299942017e-01,-8.015114814043045044e-02,1.364065855741500854e-01,-5.342219024896621704e-02,1.950517892837524414e-01,-1.716353744268417358e-01,-6.670938432216644287e-02,-7.524830847978591919e-02,-1.984339803457260132e-01,3.321755677461624146e-02,-1.784842163324356079e-01,1.135942116379737854e-01,-6.221421435475349426e-02,3.741032183170318604e-01,-4.629386588931083679e-02,5.183768272399902344e-02,-1.345568615943193436e-02,4.703950509428977966e-02,-6.471051275730133057e-02,-1.237228699028491974e-02,-2.617224492132663727e-02,-4.505708441138267517e-02,-6.061144918203353882e-02,-4.104766622185707092e-02,-2.035602331161499023e-01,-1.451244801282882690e-01,-5.616645514965057373e-02,9.867778420448303223e-02,-3.832899630069732666e-01,5.492804199457168579e-02,-4.964784532785415649e-02,6.029045954346656799e-02,1.691493988037109375e-01,2.079358994960784912e-01,7.095018029212951660e-02,6.509093940258026123e-02,1.599886715412139893e-01,3.978992346674203873e-03,-2.814517617225646973e-01,9.266567230224609375e-02,2.618199884891510010e-01,1.667918860912322998e-01,1.402629911899566650e-01,-2.707399725914001465e-01,2.585072768852114677e-03,-9.075164049863815308e-02,-2.430237978696823120e-01,-1.535362899303436279e-01,1.034069582819938660e-01,-2.757003903388977051e-01,-9.996663779020309448e-02,-3.067194521427154541e-01,9.496451169252395630e-02,5.660936236381530762e-02,6.432106345891952515e-02,-1.693336106836795807e-02,-8.257585018873214722e-02,1.269659996032714844e-01,-2.619198895990848541e-02,1.606082729995250702e-02,-1.126336492598056793e-02,2.567493543028831482e-02,-8.648256771266460419e-03,-3.546472266316413879e-02,5.245495587587356567e-02,2.252621576189994812e-02,-1.657039821147918701e-01,-6.027084961533546448e-02,1.948917508125305176e-01,-2.670885995030403137e-02,1.199010461568832397e-01,2.172937691211700439e-01,-2.400192171335220337e-01,-1.354943960905075073e-01,7.122367620468139648e-02
1.973620057106018066e-01,-5.344145372509956360e-02,6.882198154926300049e-02,-1.784297376871109009e-01,8.284312486648559570e-02,2.186744473874568939e-02,9.209245443344116211e-02,2.676160335540771484e-01,1.073168497532606125e-02,3.844184428453445435e-02,3.401738940738141537e-04,-8.024918287992477417e-02,-1.438748240470886230e-01,-1.040709912776947021e-01,-1.713332235813140869e-01,1.027526035904884338e-01,-1.499086618423461914e-01,-2.720006108283996582e-01,-7.969865947961807251e-02,-7.920434325933456421e-02,-1.552804559469223022e-01,1.448531895875930786e-01,-6.671050190925598145e-02,1.647357195615768433e-01,3.738165274262428284e-02,-2.729010879993438721e-01,-1.343218516558408737e-02,-1.290345489978790283e-01,1.449397057294845581e-01,-7.002454996109008789e-02,3.888120055198669434e-01,2.358281053602695465e-02,1.200244352221488953e-01,-6.334901601076126099e-02,-1.064106002449989319e-01,5.484657362103462219e-02,2.101652175188064575e-01,-1.505105644464492798e-01,-4.908090829849243164e-02,8.492524176836013794e-02,1.387603878974914551e-01,3.827745318412780762e-01,-1.069073453545570374e-01,-1.936909705400466919e-01,1.284079849720001221e-01,-8.833044208586215973e-03,2.987832576036453247e-02,-5.166486650705337524e-02,-4.871972277760505676e-02,8.256357163190841675e-02,-8.095472306013107300e-02,-8.107622712850570679e-02,-2.197989970445632935e-01,4.488690942525863647e-02,-1.624391525983810425e-01,-6.631448864936828613e-02,-8.258981257677078247e-02,-8.914313465356826782e-02,1.789820492267608643e-01,6.093645468354225159e-02,1.242431104183197021e-01,9.797871112823486328e-03,-1.555244624614715576e-01,2.535848915576934814e-01,4.297187179327011108e-02,2.725771069526672363e-01,9.839112311601638794e-02,1.037998646497726440e-01,1.519792228937149048e-01,1.490176916122436523e-01,2.002760320901870728e-01,-1.202936284244060516e-03,4.943284764885902405e-02,-2.741081267595291138e-02,-9.058824181556701660e-02,8.028723299503326416e-02,1.162232011556625366e-01,5.140443891286849976e-02,-4.589093849062919617e-02,4.140011072158813477e-01,-1.446965783834457397e-01,-1.397762000560760498e-01,5.123087763786315918e-02,-1.121000647544860840e-01,-2.054545432329177856e-01,-3.574070334434509277e-02,-4.112399183213710785e-03,3.454653322696685791e-01,8.217442035675048828e-02,9.547923505306243896e-02,3.070271573960781097e-02,-5.807502940297126770e-02,-3.467468544840812683e-02,-8.591847494244575500e-03,-5.453243106603622437e-02,-7.721767574548721313e-02,2.196834795176982880e-02,-7.973625324666500092e-03,2.823210358619689941e-01,-6.530331075191497803e-02,2.282099612057209015e-02,3.270587697625160217e-02,1.169360727071762085e-01,5.866563692688941956e-02,2.688873931765556335e-02,7.622043043375015259e-02,-1.120084151625633240e-01,8.075110614299774170e-02,-2.140710316598415375e-02,1.788045018911361694e-01,-2.438749670982360840e-01,3.552747145295143127e-02,-2.133346647024154663e-01,3.601546213030815125e-02,-1.192028075456619263e-02,-1.094845235347747803e-01,-3.719178587198257446e-02,-8.094763755798339844e-02,-1.421028971672058105e-01,-4.404720850288867950e-03,-1.077580749988555908e-01,1.002368982881307602e-02,-1.102942004799842834e-01,-3.645616769790649414e-02,1.097089648246765137e-01,-2.124754637479782104e-01,-2.424595877528190613e-04,-1.031461507081985474e-01
6.455576419830322266e-02,2.127641066908836365e-02,-3.145239874720573425e-02,-1.429042369127273560e-01,-1.899441331624984741e-02,4.852379113435745239e-02,5.910626798868179321e-02,-8.072926104068756104e-02,-5.956596694886684418e-03,-7.021658122539520264e-02,-9.798553586006164551e-02,-3.661886975169181824e-02,2.516906857490539551e-01,4.939341451972723007e-03,-2.117130458354949951e-01,1.014827489852905273e-01,-4.470860585570335388e-02,-1.110517606139183044e-01,1.347217615693807602e-02,-1.176183484494686127e-02,-6.244422402232885361e-03,3.091827407479286194e-02,-2.275574356317520142e-01,-1.448146700859069824e-01,1.466379221528768539e-02,2.259889803826808929e-02,-1.814552992582321167e-01,1.537435799837112427e-01,-6.380902975797653198e-02,-1.332722157239913940e-01,-1.518502980470657349e-01,1.754047274589538574e-01,-7.428195327520370483e-02,1.187948286533355713e-01,8.258830010890960693e-02,-8.536425977945327759e-02,-6.672288477420806885e-02,2.202600091695785522e-01,-6.799287348985671997e-02,-3.676847741007804871e-02,1.869529299437999725e-02,-1.586019396781921387e-01,-1.780890226364135742e-01,-2.282492816448211670e-01,1.477767713367938995e-02,-1.447122246026992798e-01,-6.979755312204360962e-02,-5.670933797955513000e-02,9.033988416194915771e-02,3.891133368015289307e-01,7.394513487815856934e-02,-8.413715404458343983e-04,1.045131534337997437e-01,-6.807944923639297485e-02,-1.920565962791442871e-01,-1.929345875978469849e-01,9.231248497962951660e-02,1.780551113188266754e-02,-3.513731658458709717e-01,1.334112137556076050e-01,-1.047692522406578064e-01,-1.562609374523162842e-01,-7.752432674169540405e-02,1.141822338104248047e-01,1.141318082809448242e-01,8.789816498756408691e-02,9.992297738790512085e-02,1.123293787240982056e-01,1.731611639261245728e-01,7.926476746797561646e-02,2.053816616535186768e-01,-1.793967038393020630e-01,-5.801208689808845520e-02,-6.596564501523971558e-02,-1.829402297735214233e-01,-2.578982412815093994e-01,-1.367918998003005981e-01,-6.838846951723098755e-02,4.235535487532615662e-02,-1.497140377759933472e-01,-2.085307687520980835e-01,1.437701731920242310e-01,2.669658511877059937e-02,-1.136272475123405457e-01,-9.514943696558475494e-03,-1.639995351433753967e-02,1.700027287006378174e-01,-2.566940523684024811e-02,1.182307079434394836e-01,-1.601185053586959839e-01,-3.464390039443969727e-01,-6.863908469676971436e-02,-2.448193728923797607e-01,1.774370968341827393e-01,6.730743497610092163e-02,2.292799502611160278e-01,1.818777769804000854e-01,1.874121576547622681e-01,-1.061707809567451477e-01,5.102171003818511963e-02,-1.082224920392036438e-01,-1.202423591166734695e-02,1.456782668828964233e-01,1.776217222213745117e-01,-9.556510299444198608e-02,7.607631385326385498e-02,-1.273895502090454102e-01,1.539365202188491821e-01,2.619366943836212158e-01,2.972588837146759033e-01,8.297895640134811401e-02,2.955772355198860168e-02,1.701274216175079346e-01,-3.912393376231193542e-02,8.967468142509460449e-02,8.771343529224395752e-02,-1.476878374814987183e-01,-1.670067161321640015e-01,4.294364526867866516e-02,1.802692711353302002e-01,-1.243472471833229065e-02,-7.073696702718734741e-02,-2.201969027519226074e-01,1.526829302310943604e-01,-1.308112591505050659e-01,4.119515884667634964e-03,4.492333903908729553e-02,5.152093246579170227e-02
8.821368962526321411e-02,-2.551284134387969971e-01,-1.826202720403671265e-01,-5.488869920372962952e-02,-1.209504157304763794e-01,8.775766938924789429e-02,5.807172134518623352e-02,2.331950664520263672e-01,-6.370797008275985718e-02,-2.703769505023956299e-01,-5.037457868456840515e-02,-1.031266804784536362e-02,-1.678414195775985718e-01,2.060948759317398071e-01,-7.938566617667675018e-03,-8.979287743568420410e-02,-2.472618781030178070e-02,2.999682910740375519e-02,-2.946725301444530487e-02,-2.622900158166885376e-02,-1.090187132358551025e-01,1.765676736831665039e-01,6.516635417938232422e-02,1.631204485893249512e-01,2.909447252750396729e-01,-6.320013850927352905e-02,-3.484561294317245483e-02,1.795732788741588593e-02,-8.445903658866882324e-02,-1.247530356049537659e-01,9.866610169410705566e-02,-1.380615308880805969e-02,-1.628539711236953735e-01,-1.267600208520889282e-01,6.170396134257316589e-02,-9.140282124280929565e-02,3.553776070475578308e-02,-3.654761910438537598e-01,1.846433430910110474e-01,-1.258707046508789062e-01,2.887151949107646942e-02,2.910781502723693848e-01,1.351874619722366333e-01,-5.976338684558868408e-02,1.486098766326904297e-01,3.211442530155181885e-01,-1.523545235395431519e-01,-2.294634096324443817e-02,1.170585677027702332e-02,-1.085252091288566589e-01,5.436973646283149719e-02,5.778449028730392456e-02,4.717243835330009460e-02,-1.572635769844055176e-01,-7.936234027147293091e-02,-1.081498265266418457e-01,-2.999958097934722900e-01,-1.673689931631088257e-01,-6.654714047908782959e-02,5.463089793920516968e-02,1.753718107938766479e-01,4.640882462263107300e-02,-4.419531300663948059e-02,1.872232556343078613e-01,-1.138131413608789444e-02,1.360019892454147339e-01,-1.828828155994415283e-01,-1.912544365040957928e-03,-1.368704903870820999e-02,1.718306243419647217e-01,1.265016049146652222e-01,3.857009485363960266e-02,1.336053907871246338e-01,1.695001274347305298e-01,1.118790730834007263e-02,-2.032468318939208984e-01,-1.528275012969970703e-01,-2.281642705202102661e-01,1.278008222579956055e-01,1.716389805078506470e-01,-5.933519452810287476e-02,-2.171342968940734863e-01,-1.423636525869369507e-01,6.036020070314407349e-02,1.230500489473342896e-01,8.377220481634140015e-03,1.460164785385131836e-01,3.673593103885650635e-01,-2.088646404445171356e-02,-1.648100465536117554e-01,3.881143406033515930e-02,8.886244148015975952e-02,-2.987657859921455383e-02,8.647392690181732178e-02,-1.026000529527664185e-01,1.235528364777565002e-01,2.396706491708755493e-02,-5.270346254110336304e-02,-4.824727773666381836e-02,1.312121599912643433e-01,1.053562089800834656e-01,7.773130387067794800e-02,1.403851248323917389e-02,1.939893215894699097e-01,-8.386185765266418457e-02,1.538919359445571899e-01,-1.181239411234855652e-01,1.476475447416305542e-01,1.051230132579803467e-01,-8.387264679186046124e-04,1.847689598798751831e-02,-1.302051544189453125e-01,3.982513770461082458e-02,1.550477743148803711e-01,-4.454600811004638672e-02,1.800401359796524048e-01,1.593620181083679199e-01,-2.745682001113891602e-01,-1.009144783020019531e-01,-4.137957096099853516e-02,-1.555776298046112061e-01,1.795548498630523682e-01,1.769092381000518799e-01,5.108205974102020264e-02,-5.963718891143798828e-02,-9.829960018396377563e-02,-6.064119189977645874e-02,-1.434382647275924683e-01
-1.628156900405883789e-01,9.929917752742767334e-02,-2.616600878536701202e-02,-1.039936169981956482e-01,2.920325100421905518e-02,-1.181903108954429626e-02,7.011726964265108109e-03,3.273713961243629456e-02,-7.716984022408723831e-03,8.905377984046936035e-02,2.192033380270004272e-01,-2.191266715526580811e-01,-6.894297152757644653e-02,2.427877113223075867e-02,6.708091497421264648e-02,1.192580685019493103e-01,2.307588458061218262e-01,3.861074219457805157e-04,-1.450521964579820633e-02,1.786728650331497192e-01,1.907808482646942139e-01,5.425964295864105225e-02,1.774396151304244995e-01,2.291198819875717163e-01,-6.968238949775695801e-02,-2.241590917110443115e-01,8.221333473920822144e-02,-2.830204069614410400e-01,2.242152094841003418e-01,2.674264460802078247e-02,1.157658323645591736e-01,2.385725528001785278e-01,-1.048129200935363770e-01,8.616444468498229980e-02,1.218153685331344604e-01,1.602126955986022949e-01,1.229996010661125183e-01,-1.084435656666755676e-01,-1.581934094429016113e-01,-7.741635292768478394e-02,-9.870989620685577393e-02,1.429705321788787842e-01,-9.197861701250076294e-02,1.323817819356918335e-01,1.447495818138122559e-02,-5.493852868676185608e-02,-2.997996658086776733e-02,2.260252088308334351e-02,-1.112118810415267944e-01,-1.125571653246879578e-01,-2.253785282373428345e-01,-2.118229418992996216e-01,-1.916829794645309448e-01,2.589585483074188232e-01,3.306159004569053650e-02,-2.326948940753936768e-01,-1.892635673284530640e-01,-5.871874839067459106e-02,-1.219047605991363525e-01,3.714760020375251770e-02,6.278938055038452148e-02,-8.820307999849319458e-02,1.497309058904647827e-01,3.094960749149322510e-02,-1.605305969715118408e-01,-2.179641649127006531e-02,-1.337719261646270752e-01,-1.407113820314407349e-01,5.854394985362887383e-04,1.363140642642974854e-01,5.263902246952056885e-02,-1.226257979869842529e-01,-1.304037589579820633e-02,2.114684432744979858e-01,-1.416081041097640991e-01,2.648413777351379395e-01,-6.638428568840026855e-02,4.929509758949279785e-02,5.893578380346298218e-02,8.012384921312332153e-02,-1.316766440868377686e-01,8.856406807899475098e-02,3.911128267645835876e-02,1.036170646548271179e-01,8.857713639736175537e-02,1.674982309341430664e-01,9.253834723494946957e-04,1.942063914611935616e-03,-8.621738106012344360e-02,-1.885614246129989624e-01,-7.507541775703430176e-02,7.273454219102859497e-02,-2.102480456233024597e-02,3.871177881956100464e-02,-5.965381115674972534e-02,4.094245657324790955e-02,-7.509705144912004471e-03,1.499444395303726196e-01,-1.974156945943832397e-01,-1.766055449843406677e-02,-1.526907980442047119e-01,4.747242853045463562e-02,-3.630292788147926331e-02,-2.558423578739166260e-01,-1.239070519804954529e-01,-5.667077749967575073e-02,-6.643735617399215698e-02,9.701590985059738159e-02,-1.035262793302536011e-01,-1.252016723155975342e-01,-6.286165118217468262e-02,-1.540203094482421875e-01,-2.503225579857826233e-02,-2.631050348281860352e-01,1.760043017566204071e-02,2.170273512601852417e-01,9.298154711723327637e-02,-1.122788563370704651e-01,-2.045655101537704468e-01,2.480757981538772583e-02,2.894315123558044434e-01,-7.760021090507507324e-02,-9.639283269643783569e-02,-1.163005977869033813e-01,-2.293972671031951904e-02,-6.304091960191726685e-02,1.335313916206359863e-01,2.578686475753784180e-01
-3.696922957897186279e-02,-5.041067302227020264e-02,-1.644729673862457275e-01,8.302630484104156494e-02,9.839325398206710815e-02,2.117324061691761017e-02,1.389709115028381348e-01,-1.103235483169555664e-01,1.018936410546302795e-01,1.253393851220607758e-02,1.617673411965370178e-02,9.768877923488616943e-02,-8.815672993659973145e-02,-1.675866544246673584e-01,1.191393360495567322e-01,-1.279938369989395142e-01,1.678107976913452148e-01,-6.005799397826194763e-02,-2.342884242534637451e-01,1.642285473644733429e-02,-1.621292382478713989e-01,2.895701825618743896e-01,-1.779605634510517120e-02,3.004579246044158936e-01,2.225974947214126587e-01,-6.008874624967575073e-02,-1.838381402194499969e-02,-2.940709330141544342e-02,5.431613698601722717e-02,-1.123493462800979614e-01,1.191835626959800720e-01,-1.226188912987709045e-01,-1.826032698154449463e-01,4.943649843335151672e-02,9.781672060489654541e-02,3.236774355173110962e-02,3.830833360552787781e-02,-1.200700402259826660e-01,5.869450420141220093e-02,9.210310876369476318e-03,1.067969501018524170e-01,8.807647228240966797e-02,3.986311703920364380e-02,5.000457912683486938e-02,-9.180072695016860962e-02,1.621872633695602417e-01,-1.431638896465301514e-01,3.634319305419921875e-01,2.094275355339050293e-01,1.832234859466552734e-02,-8.697194606065750122e-02,1.542526781558990479e-01,1.962550282478332520e-01,7.572764158248901367e-02,1.609374731779098511e-01,3.767320141196250916e-02,-1.527665555477142334e-01,5.306465923786163330e-02,-2.785554528236389160e-02,1.077423617243766785e-01,2.164404541254043579e-01,4.140506312251091003e-02,1.245558634400367737e-01,-3.633471429347991943e-01,1.436857730150222778e-01,1.228902488946914673e-01,7.514642924070358276e-02,2.388376556336879730e-02,8.060400933027267456e-02,-6.421442329883575439e-02,8.191704005002975464e-02,-5.781548842787742615e-02,2.669856846332550049e-01,-1.985109299421310425e-01,4.041762277483940125e-02,8.478064835071563721e-02,-2.068306356668472290e-01,1.362065821886062622e-01,5.272195488214492798e-02,-5.466949939727783203e-02,2.907007746398448944e-02,2.462286502122879028e-01,-9.519734303466975689e-04,-2.537337541580200195e-01,-2.680457532405853271e-01,-1.892607361078262329e-01,-2.829076722264289856e-02,-8.679385297000408173e-03,1.133842095732688904e-01,4.706415161490440369e-02,-2.033850401639938354e-01,-1.203324124217033386e-01,-1.334193944931030273e-01,6.853472441434860229e-02,1.573139280080795288e-01,-5.395813658833503723e-02,-1.597476601600646973e-01,1.656233370304107666e-01,1.091412082314491272e-01,1.401923149824142456e-01,-1.013421043753623962e-01,-1.742191165685653687e-01,1.492317318916320801e-01,-4.580746963620185852e-02,-9.963691234588623047e-02,1.689639836549758911e-01,-1.255331486463546753e-01,9.453878551721572876e-02,2.655332684516906738e-01,2.834915183484554291e-02,-8.763862401247024536e-02,8.782233297824859619e-02,-1.679218560457229614e-01,-8.833175152540206909e-02,-2.308805435895919800e-01,-1.281322091817855835e-01,2.612697184085845947e-01,-3.137632608413696289e-01,-3.884310275316238403e-02,9.547660499811172485e-02,1.833260431885719299e-02,-1.899485588073730469e-01,2.821846492588520050e-02,-6.145437806844711304e-02,1.259927172213792801e-02,2.100534439086914062e-01,1.709571778774261475e-01,-2.080395817756652832e-01
-1.735632568597793579e-01,4.118175432085990906e-02,1.489349007606506348e-01,-2.217259556055068970e-01,7.739257812500000000e-02,-1.491113305091857910e-01,-1.955584138631820679e-01,-1.990833431482315063e-01,-1.017343029379844666e-01,2.665771842002868652e-01,8.791879564523696899e-02,-5.920853838324546814e-02,-2.741561532020568848e-01,3.921444341540336609e-02,-4.517240822315216064e-02,3.978663682937622070e-01,-2.274080924689769745e-02,1.044436544179916382e-01,1.519686430692672729e-01,2.544617950916290283e-01,2.447347939014434814e-01,9.115955978631973267e-02,6.407301127910614014e-02,-2.626209706068038940e-02,1.589514166116714478e-01,-2.586379051208496094e-01,2.957138419151306152e-02,-2.127960771322250366e-01,9.717859327793121338e-02,1.797338388860225677e-02,5.389113351702690125e-02,1.140927895903587341e-01,-4.480110853910446167e-02,1.854674071073532104e-01,1.727830469608306885e-01,1.019623577594757080e-01,1.361663788557052612e-01,4.678848385810852051e-02,1.087697669863700867e-01,1.998705714941024780e-01,-6.967991590499877930e-03,2.218937873840332031e-01,5.116646364331245422e-02,-6.617059931159019470e-03,-2.460053116083145142e-01,1.033802032470703125e-01,5.766881257295608521e-02,-2.006544619798660278e-01,-2.068060785531997681e-01,2.020345479249954224e-01,-7.801100611686706543e-02,2.746938355267047882e-02,-6.449738144874572754e-02,3.634209632873535156e-01,-2.210092246532440186e-01,1.679890602827072144e-01,-2.147950083017349243e-01,-7.373726367950439453e-02,-1.017454192042350769e-01,-2.862690389156341553e-01,2.488100156188011169e-02,-1.725203692913055420e-01,-7.664160430431365967e-02,-5.748078972101211548e-02,1.274941414594650269e-01,1.567929983139038086e-01,1.686883717775344849e-01,-1.390757709741592407e-01,-2.331936657428741455e-01,-1.362611800432205200e-01,3.512959182262420654e-01,-7.795744389295578003e-02,-4.536808992270380259e-04,1.885020881891250610e-01,-1.396195292472839355e-01,1.903081834316253662e-01,-5.367223918437957764e-02,-1.884557008743286133e-01,7.885721325874328613e-02,1.423922628164291382e-01,1.453303396701812744e-01,-2.130759321153163910e-02,4.006480798125267029e-02,-5.650410801172256470e-02,2.713626325130462646e-01,2.733060903847217560e-02,1.240380182862281799e-01,-1.678161881864070892e-02,1.005449295043945312e-01,-7.106711156666278839e-03,-5.316076800227165222e-02,6.751590222120285034e-02,3.851643949747085571e-02,1.379055976867675781e-01,-8.508916944265365601e-02,2.810206413269042969e-01,2.181883156299591064e-02,1.366988867521286011e-01,-2.676472067832946777e-01,8.509580045938491821e-02,-2.085479497909545898e-01,-5.390340462327003479e-02,-1.142301484942436218e-01,-2.164854407310485840e-01,-2.170466929674148560e-01,5.882449448108673096e-02,-2.157579548656940460e-02,1.679285019636154175e-01,9.478288143873214722e-02,1.861276924610137939e-01,-1.682545542716979980e-01,1.450141966342926025e-01,5.060575157403945923e-02,-7.544176280498504639e-02,-1.172763295471668243e-02,1.432664543390274048e-01,-2.285813689231872559e-01,-9.971661865711212158e-02,-1.426148712635040283e-01,7.565249502658843994e-02,2.062160372734069824e-01,3.287164494395256042e-02,-1.648983806371688843e-01,-1.271858215332031250e-01,-1.416607666760683060e-02,-1.776870638132095337e-01,1.052821949124336243e-01,1.205321922898292542e-01
3.753954172134399414e-02,-1.806318610906600952e-01,-7.802183926105499268e-02,-3.029371052980422974e-02,1.715561598539352417e-01,9.385083615779876709e-02,1.556684821844100952e-01,6.611379981040954590e-02,-2.061475627124309540e-02,-3.088686987757682800e-02,9.718511998653411865e-02,-2.824778854846954346e-01,1.354177147150039673e-01,-1.175954267382621765e-01,7.150154560804367065e-02,1.257514804601669312e-01,7.325079292058944702e-02,8.707605302333831787e-02,-1.839245110750198364e-02,7.503586262464523315e-02,-2.265526503324508667e-01,1.028619259595870972e-01,-2.375744655728340149e-02,2.922510728240013123e-02,-8.635784685611724854e-02,-1.186549961566925049e-01,-1.982979625463485718e-01,2.008175551891326904e-01,-1.654363274574279785e-01,-7.984705269336700439e-02,2.975731156766414642e-02,-1.863337755203247070e-01,-2.885745465755462646e-01,7.736114319413900375e-03,-9.092415124177932739e-02,-5.529743805527687073e-02,1.882971674203872681e-01,-9.430054575204849243e-03,-1.686504930257797241e-01,-2.242566086351871490e-02,1.221755445003509521e-01,1.071833372116088867e-01,-1.381288915872573853e-01,-1.074575930833816528e-01,1.016021221876144409e-01,-1.330422819592058659e-04,3.810949996113777161e-02,1.867069900035858154e-01,-3.762146458029747009e-02,-1.732177101075649261e-02,2.206500433385372162e-02,5.717355757951736450e-02,-2.753796242177486420e-02,1.024150010198354721e-02,-1.876849494874477386e-02,-8.015994727611541748e-02,-1.504981219768524170e-01,-1.473775319755077362e-02,1.105774864554405212e-01,1.810330748558044434e-01,5.877464544028043747e-03,3.893865644931793213e-02,-1.490324437618255615e-01,-5.346301198005676270e-02,9.155382961034774780e-02,1.831239461898803711e-01,1.684317588806152344e-01,2.817986160516738892e-02,7.567495107650756836e-02,9.521760046482086182e-02,-1.372423768043518066e-01,1.871900074183940887e-02,-4.076519981026649475e-02,4.523063078522682190e-02,-2.235318422317504883e-01,1.000975146889686584e-01,1.329308492131531239e-03,-7.022175937891006470e-02,3.729359507560729980e-01,1.334712933748960495e-02,-1.331342458724975586e-01,1.318931579589843750e-01,-1.551831960678100586e-01,5.628482624888420105e-02,-1.750131100416183472e-01,-1.592880040407180786e-01,-3.124270141124725342e-01,-4.875269159674644470e-02,-1.921155899763107300e-01,-9.506951272487640381e-02,1.693464517593383789e-01,-5.668717250227928162e-02,1.009140461683273315e-01,1.354054957628250122e-01,-1.688274294137954712e-01,4.903984814882278442e-02,-6.836194545030593872e-02,-1.866377443075180054e-01,9.403804689645767212e-02,9.856726974248886108e-02,-1.923915892839431763e-01,-1.065269559621810913e-01,6.481482833623886108e-02,1.155828610062599182e-01,1.064789816737174988e-01,7.369519025087356567e-02,-2.081013172864913940e-01,-1.083214282989501953e-01,1.814368180930614471e-02,1.937519162893295288e-01,2.080230265855789185e-01,-1.087028905749320984e-01,-1.378168165683746338e-01,-9.821133688092231750e-03,1.235388368368148804e-01,-1.398306488990783691e-01,1.965225338935852051e-01,-2.149764746427536011e-01,-4.975680261850357056e-02,1.315293461084365845e-01,1.439249068498611450e-01,-3.080135881900787354e-01,4.803090915083885193e-02,1.135589778423309326e-01,-1.654930710792541504e-01,-1.000703126192092896e-02,-9.319936484098434448e-02,7.880585640668869019e-02
-3.843546379357576370e-03,-1.022382080554962158e-01,-6.152629107236862183e-02,-3.470910713076591492e-02,-2.811116278171539307e-01,-5.477322265505790710e-02,3.219942748546600342e-02,-2.253114245831966400e-02,2.260707318782806396e-02,1.293891668319702148e-01,3.903600573539733887e-02,-3.753060847520828247e-02,-1.928021609783172607e-01,3.952778410166501999e-03,-3.156257793307304382e-03,-3.230680478736758232e-03,1.252875924110412598e-01,2.373736537992954254e-02,-2.836085669696331024e-02,-1.601900011301040649e-01,1.166194826364517212e-01,1.883225142955780029e-01,1.108009070158004761e-01,1.900573819875717163e-01,-2.854997850954532623e-02,5.000467225909233093e-02,-3.114354796707630157e-03,-3.386982679367065430e-01,1.933010220527648926e-01,3.966186568140983582e-02,6.828231364488601685e-02,-2.358245998620986938e-01,-9.278167039155960083e-02,-2.845009416341781616e-02,-5.444666370749473572e-02,-2.758863866329193115e-01,1.355388015508651733e-01,1.936617195606231689e-01,2.662296779453754425e-02,6.785738468170166016e-02,3.085796833038330078e-01,-7.456285506486892700e-02,-1.567680202424526215e-02,1.633744686841964722e-01,2.273243293166160583e-02,2.340579777956008911e-01,2.999283671379089355e-01,1.832434833049774170e-01,1.697664409875869751e-01,6.580103933811187744e-02,1.803990453481674194e-01,-2.373613715171813965e-01,1.749737709760665894e-01,-1.127622555941343307e-02,-1.787489801645278931e-01,2.631897330284118652e-01,-3.250472545623779297e-01,-1.354313045740127563e-01,-1.348946541547775269e-01,-1.047111675143241882e-01,-1.148571223020553589e-01,-2.421935945749282837e-01,-2.294527366757392883e-02,2.330969572067260742e-01,-5.341504700481891632e-03,1.103046163916587830e-01,-1.905156373977661133e-01,3.694976866245269775e-02,-3.280185908079147339e-02,2.081338316202163696e-01,-1.762887537479400635e-01,7.862759381532669067e-02,7.401008903980255127e-02,9.750768542289733887e-02,1.124506816267967224e-01,-2.008173912763595581e-01,-1.150566861033439636e-01,2.375423163175582886e-01,-5.858864169567823410e-03,-1.884570419788360596e-01,8.937302231788635254e-02,1.428436040878295898e-01,2.442690581083297729e-01,-1.228734254837036133e-01,5.177761428058147430e-03,-8.295204490423202515e-02,-6.299359351396560669e-02,-1.241444647312164307e-01,6.646805256605148315e-02,-2.232567220926284790e-02,4.763650894165039062e-02,-1.902728527784347534e-01,-3.817658126354217529e-01,-3.377696126699447632e-02,5.277977138757705688e-02,1.283224076032638550e-01,-5.706840381026268005e-02,2.083883434534072876e-01,-1.140050292015075684e-01,-4.820276796817779541e-02,-9.927493520081043243e-03,6.122324615716934204e-02,-3.273870348930358887e-01,5.190471187233924866e-02,-2.270015701651573181e-02,8.204475045204162598e-02,5.579422041773796082e-02,3.160401284694671631e-01,1.934620141983032227e-01,2.430805377662181854e-02,1.922823637723922729e-01,-2.325571142137050629e-03,4.311830550432205200e-02,-1.012787297368049622e-01,-3.004539906978607178e-01,4.059874713420867920e-01,8.129160851240158081e-02,-1.168273463845252991e-01,-1.143624261021614075e-02,9.948492050170898438e-02,7.994191348552703857e-02,-7.650864869356155396e-02,-5.436293780803680420e-02,-7.710324972867965698e-02,-2.129625529050827026e-01,3.253291919827461243e-02,-1.207633614540100098e-01,-4.226633533835411072e-02
-5.311442911624908447e-02,1.297782920300960541e-02,-1.618499904870986938e-01,-1.458571404218673706e-01,1.248413622379302979e-01,-8.897593617439270020e-02,-7.960992306470870972e-02,1.122696325182914734e-01,-2.532016932964324951e-01,-9.565815329551696777e-02,-1.996902376413345337e-01,-6.144869700074195862e-02,8.295170962810516357e-02,6.853251159191131592e-02,-9.147144854068756104e-02,5.258974060416221619e-02,-1.119936183094978333e-01,-1.360965818166732788e-01,1.614064574241638184e-01,-9.222330898046493530e-02,8.795516192913055420e-02,1.685812175273895264e-01,-8.104678243398666382e-02,-1.153202280402183533e-01,1.825321465730667114e-01,8.387684077024459839e-02,-2.601882815361022949e-01,-8.839721977710723877e-02,1.707947105169296265e-01,-2.366580665111541748e-01,-8.976003527641296387e-02,1.601396799087524414e-01,-1.154517754912376404e-01,1.599626541137695312e-01,5.126256868243217468e-02,2.723409608006477356e-02,-3.517422452569007874e-02,-3.474963009357452393e-01,-5.486662033945322037e-03,2.991009876132011414e-02,1.246252506971359253e-01,1.773622035980224609e-01,4.420802742242813110e-02,6.193887442350387573e-03,3.057383187115192413e-02,5.102680996060371399e-02,-1.576602086424827576e-02,2.074895799160003662e-01,2.530985325574874878e-02,-1.885810792446136475e-01,-5.437571182847023010e-02,-2.346832305192947388e-01,-1.887812465429306030e-01,-1.025321036577224731e-01,8.500273106619715691e-04,-4.632957652211189270e-02,1.484156528022140265e-04,-7.421447336673736572e-02,1.688416004180908203e-01,1.174567490816116333e-01,2.235598862171173096e-01,-1.958840489387512207e-01,9.157440811395645142e-02,-2.237282842397689819e-01,-5.176742002367973328e-02,-1.763240844011306763e-01,9.592422097921371460e-02,-3.050315380096435547e-02,2.952086925506591797e-01,-8.342988044023513794e-02,-5.423052981495857239e-02,6.899269670248031616e-02,1.498562395572662354e-01,5.156050436198711395e-03,2.655371725559234619e-01,2.089562863111495972e-01,-4.215291142463684082e-02,-1.087509319186210632e-01,-3.160171583294868469e-02,2.825015783309936523e-01,-9.461845457553863525e-02,1.062028706073760986e-01,9.012089110910892487e-03,-1.089393198490142822e-01,-9.651571512222290039e-02,-2.246196381747722626e-02,2.383868694305419922e-01,2.663570642471313477e-01,-6.544189900159835815e-02,1.675335168838500977e-01,-1.074225679039955139e-01,-1.355238109827041626e-01,-9.089637314900755882e-04,1.727505475282669067e-01,3.408995866775512695e-01,-1.247088536620140076e-01,-9.038505703210830688e-02,-8.648639917373657227e-02,-3.639332950115203857e-02,-1.824540644884109497e-02,1.954540163278579712e-01,-1.405679136514663696e-01,-6.533200293779373169e-02,3.081216849386692047e-02,-2.739323303103446960e-02,1.543570756912231445e-01,-2.847604155540466309e-01,4.929535835981369019e-02,-1.307488232851028442e-01,-1.113823279738426208e-01,-2.121866121888160706e-02,-9.473048150539398193e-02,-2.630178034305572510e-01,-2.791948057711124420e-02,7.987343706190586090e-03,8.001460693776607513e-03,1.310997307300567627e-01,-1.058163046836853027e-01,-7.013941556215286255e-02,6.809715181589126587e-02,-1.181341111660003662e-01,2.199753522872924805e-01,7.762790471315383911e-02,-1.775291264057159424e-01,2.019576728343963623e-01,-1.624595820903778076e-01,9.358526021242141724e-02,-2.155806720256805420e-01
-1.497038751840591431e-01,2.479759454727172852e-01,7.410676777362823486e-02,-1.837026923894882202e-01,-3.347310796380043030e-02,1.984009742736816406e-01,2.346209436655044556e-01,2.957242727279663086e-02,-1.616850197315216064e-01,1.414574235677719116e-01,4.850650578737258911e-02,-1.683231592178344727e-01,-1.432410627603530884e-01,1.027624309062957764e-01,1.290105432271957397e-01,-6.034043803811073303e-02,-4.300247505307197571e-02,2.135096192359924316e-01,-2.672833018004894257e-02,-1.822724789381027222e-01,-2.627496123313903809e-01,-2.449973113834857941e-02,3.051429288461804390e-03,-1.095248684287071228e-01,-2.044363170862197876e-01,-2.027380652725696564e-02,1.141809970140457153e-01,1.573408097028732300e-01,-2.659875713288784027e-02,1.820662617683410645e-02,1.980738043785095215e-01,-1.661906763911247253e-02,-7.486193906515836716e-03,-1.750591397285461426e-01,3.066960722208023071e-02,1.463524848222732544e-01,4.447182267904281616e-02,-8.616755157709121704e-02,2.335003227926790714e-04,-3.658339148387312889e-03,3.982789814472198486e-02,1.628181189298629761e-01,-1.632785499095916748e-01,-1.224767118692398071e-01,4.742031171917915344e-02,-1.263440698385238647e-01,1.628230214118957520e-01,-1.100313141942024231e-01,1.536478102207183838e-01,1.947689652442932129e-01,1.863565146923065186e-01,-1.702230870723724365e-01,-1.699802279472351074e-01,-1.787061244249343872e-01,1.362544018775224686e-02,3.809141367673873901e-02,-4.197968170046806335e-02,2.315177023410797119e-02,-6.400312483310699463e-02,3.593794628977775574e-02,1.675492711365222931e-02,2.340095341205596924e-01,1.427699625492095947e-02,6.906627863645553589e-02,-6.487228721380233765e-02,1.155670210719108582e-01,4.951327294111251831e-02,2.115087807178497314e-01,1.620632857084274292e-01,2.226697355508804321e-01,-1.999553442001342773e-01,7.658132165670394897e-02,-1.786397956311702728e-02,3.281627595424652100e-01,-4.716253280639648438e-02,1.561571657657623291e-01,1.140224933624267578e-01,5.110411345958709717e-02,3.782543167471885681e-02,7.099211215972900391e-02,-2.271719425916671753e-01,-1.136676073074340820e-01,-2.510961592197418213e-01,3.482950106263160706e-02,4.190139099955558777e-02,4.210188053548336029e-03,-3.981585204601287842e-01,-1.367370039224624634e-01,-1.120889261364936829e-01,1.646514795720577240e-02,-3.613833338022232056e-02,8.931116759777069092e-02,-8.230334520339965820e-02,-1.191265694797039032e-02,-1.345003694295883179e-01,-4.385793209075927734e-02,1.996160857379436493e-02,1.509771645069122314e-01,1.561826765537261963e-01,8.301987498998641968e-02,-1.961279362440109253e-01,7.592815905809402466e-02,-4.671265929937362671e-02,1.170523241162300110e-01,6.180381774902343750e-02,-2.251102179288864136e-01,-3.494631499052047729e-02,-1.069475933909416199e-01,-1.462988853454589844e-01,9.866467118263244629e-02,-1.856284141540527344e-01,-4.205854237079620361e-02,-7.137934863567352295e-02,5.517117679119110107e-02,-1.308233737945556641e-01,1.071741804480552673e-01,1.524243205785751343e-01,8.003086596727371216e-02,-5.204413086175918579e-02,1.680670231580734253e-01,-4.383740946650505066e-02,-1.018831357359886169e-01,1.900718808174133301e-01,-1.465614289045333862e-01,-5.922359600663185120e-02,-1.083658859133720398e-01,-1.501595079898834229e-01,-7.396164350211620331e-03
-2.328769862651824951e-02,-5.277365818619728088e-02,-7.111023366451263428e-02,1.569684445858001709e-01,-3.640385344624519348e-02,-2.418009191751480103e-01,-2.878800332546234131e-01,7.976135611534118652e-02,-2.548583410680294037e-02,5.752438306808471680e-02,-2.528559565544128418e-01,2.176554501056671143e-01,1.375379860401153564e-01,-1.200751140713691711e-01,-2.658049464225769043e-01,6.685420125722885132e-02,1.212246902287006378e-02,4.589703679084777832e-02,1.448504477739334106e-01,-2.948576807975769043e-01,-6.055865809321403503e-02,6.575879454612731934e-02,-1.155362352728843689e-01,-2.084458917379379272e-01,8.953721821308135986e-02,2.875890955328941345e-02,-1.577854156494140625e-02,9.839769452810287476e-03,-3.271755576133728027e-02,9.454692900180816650e-02,-2.337194979190826416e-02,6.447486579418182373e-02,-2.086063027381896973e-01,-3.106323182582855225e-01,-1.870233216322958469e-03,-1.345685571432113647e-01,2.067237906157970428e-02,-6.344371289014816284e-02,1.045319437980651855e-01,2.469565570354461670e-01,1.163420826196670532e-02,-1.083900332450866699e-01,1.310991793870925903e-01,1.735056489706039429e-01,-1.463977396488189697e-01,1.982022263109683990e-02,3.324762582778930664e-01,-1.049468517303466797e-01,-2.128862887620925903e-01,-9.601419419050216675e-02,1.323290765285491943e-01,8.896104991436004639e-02,-4.732020944356918335e-02,1.133367791771888733e-01,8.110030740499496460e-02,-8.632656186819076538e-03,-1.476990133523941040e-01,2.542009055614471436e-01,-1.289268881082534790e-01,9.026771783828735352e-02,6.379776448011398315e-02,-2.725460827350616455e-01,-1.289544552564620972e-01,-1.405341327190399170e-01,3.149678409099578857e-01,3.812028840184211731e-02,2.470618300139904022e-02,1.692908699624240398e-05,-3.811616599559783936e-01,9.012005478143692017e-02,-2.734041213989257812e-02,1.194161772727966309e-01,-1.192127354443073273e-02,-4.326492082327604294e-03,6.719897035509347916e-03,-2.093410789966583252e-01,8.547042496502399445e-03,-1.297963112592697144e-01,9.857396036386489868e-02,-2.627377398312091827e-02,1.157041564583778381e-01,-3.611455857753753662e-02,-8.276859298348426819e-03,-2.328654527664184570e-01,1.165828406810760498e-01,-5.517308413982391357e-02,9.764078259468078613e-02,3.594311699271202087e-02,4.783216491341590881e-02,-2.721530944108963013e-02,-1.677600741386413574e-01,5.740065872669219971e-02,1.278126686811447144e-01,1.063867956399917603e-01,-1.495888382196426392e-01,3.780265450477600098e-01,-2.548809945583343506e-01,-1.482992172241210938e-01,-1.050741076469421387e-01,-1.669969111680984497e-01,-9.630696848034858704e-03,1.621137410402297974e-01,4.576715454459190369e-02,1.882911026477813721e-01,6.644932180643081665e-02,-1.773961633443832397e-01,1.308245211839675903e-01,-1.277303546667098999e-01,9.951508045196533203e-02,-8.570671826601028442e-02,-8.709192276000976562e-02,3.655295372009277344e-01,3.289256989955902100e-01,-1.230629161000251770e-02,1.262221336364746094e-01,4.642472602427005768e-03,-1.166456043720245361e-01,-2.654702663421630859e-01,4.126835986971855164e-02,-1.899000443518161774e-02,2.024856023490428925e-02,4.421374574303627014e-02,3.124800696969032288e-02,3.604834526777267456e-02,2.033981867134571075e-02,-2.656914480030536652e-02,-2.028421033173799515e-03,-1.320936996489763260e-02
1.683652997016906738e-01,-1.247037947177886963e-01,1.027438417077064514e-01,-1.068218722939491272e-01,-1.876829713582992554e-01,1.214906647801399231e-01,-1.077566519379615784e-01,7.959069311618804932e-02,5.078373849391937256e-02,-1.183190383017063141e-02,3.472943231463432312e-02,-6.270977109670639038e-02,1.152714416384696960e-01,-4.207690805196762085e-02,7.013678550720214844e-02,1.166763156652450562e-01,2.416279353201389313e-02,-8.393609523773193359e-02,-1.673961430788040161e-02,1.293471902608871460e-01,8.492485433816909790e-02,-9.128466993570327759e-02,6.674244999885559082e-02,1.047076135873794556e-01,1.138409078121185303e-01,-5.629649013280868530e-02,-6.414534151554107666e-02,6.852889433503150940e-03,2.070502489805221558e-01,-3.443105518817901611e-02,-2.250243574380874634e-01,-1.900489330291748047e-01,-7.656478136777877808e-02,-1.316877752542495728e-01,-1.038863584399223328e-01,-2.357427924871444702e-01,-5.068954080343246460e-02,1.273255213163793087e-03,6.517399847507476807e-02,3.083504922688007355e-02,-1.986755430698394775e-01,6.895937025547027588e-02,-2.494603693485260010e-01,-2.853178232908248901e-02,2.674662172794342041e-01,9.800489991903305054e-02,-9.914272278547286987e-02,4.442520905286073685e-03,-1.094362814910709858e-03,2.413246631622314453e-01,-9.748987108469009399e-02,-1.932617463171482086e-02,1.207697391510009766e-01,4.637300223112106323e-02,4.789732396602630615e-02,-1.850079447031021118e-01,8.652988821268081665e-02,-1.894679218530654907e-01,-1.923278868198394775e-01,-1.907747983932495117e-02,-2.369673550128936768e-02,1.368940323591232300e-01,2.209886759519577026e-01,1.534477174282073975e-01,2.040004432201385498e-01,2.304614633321762085e-01,-1.790683865547180176e-01,-6.361487507820129395e-02,-1.729318946599960327e-01,2.821438014507293701e-01,-5.696668103337287903e-02,-1.404788345098495483e-01,2.902981042861938477e-01,6.914758682250976562e-02,9.700816124677658081e-02,1.849188208580017090e-01,-2.134723030030727386e-02,-6.870342046022415161e-02,1.051651537418365479e-01,-9.887195378541946411e-02,-1.998793520033359528e-02,3.254433348774909973e-02,-1.242240816354751587e-01,-9.294920414686203003e-02,-2.570914328098297119e-01,9.257522225379943848e-02,-9.898354113101959229e-02,-9.692283719778060913e-02,6.465772539377212524e-02,-2.386041879653930664e-01,1.182239130139350891e-01,-2.413201145827770233e-03,-1.393216103315353394e-01,-1.792680770158767700e-01,2.129231579601764679e-02,3.773275995627045631e-03,1.941155046224594116e-01,-2.073042653501033783e-02,1.098757535219192505e-01,1.504727602005004883e-01,-1.552478075027465820e-01,1.361828446388244629e-01,1.705404072999954224e-01,-4.843528568744659424e-02,1.633381992578506470e-01,1.776825264096260071e-02,1.603111475706100464e-01,1.315231770277023315e-01,8.481018990278244019e-02,4.623314365744590759e-02,2.103788405656814575e-01,-1.699417233467102051e-01,1.393507122993469238e-01,-2.699164748191833496e-01,1.246747076511383057e-01,3.014455437660217285e-01,3.569214791059494019e-02,2.691236883401870728e-02,-1.121807396411895752e-01,1.460703760385513306e-01,1.856073886156082153e-01,-2.000374644994735718e-01,-1.329378038644790649e-01,1.184811890125274658e-01,-1.522314250469207764e-01,-2.592208981513977051e-01,-8.103655278682708740e-02,1.831522583961486816e-01
-9.699135273694992065e-02,1.911292821168899536e-01,7.121751457452774048e-02,1.083873510360717773e-01,1.741139143705368042e-01,-1.134135946631431580e-01,5.401711165904998779e-02,-8.769226074218750000e-02,5.084875598549842834e-02,1.263962835073471069e-01,1.871159523725509644e-01,-1.984466016292572021e-01,1.114447042346000671e-01,-1.795506328344345093e-01,-4.366998001933097839e-02,1.681663282215595245e-02,-9.555396437644958496e-02,2.873828634619712830e-02,1.616496294736862183e-01,-4.150181636214256287e-02,-5.139698460698127747e-02,-9.389148652553558350e-02,5.313247069716453552e-02,-6.711021065711975098e-02,9.188327193260192871e-02,-1.229176763445138931e-02,-3.231793642044067383e-01,9.724818170070648193e-02,1.432005763053894043e-01,6.750348955392837524e-03,-9.490554034709930420e-02,2.971256077289581299e-01,9.036608785390853882e-02,2.365748398005962372e-02,-3.242372870445251465e-01,-2.701394557952880859e-01,-1.198436878621578217e-02,-1.538963615894317627e-01,-3.640775382518768311e-01,2.495677918195724487e-01,-3.125156834721565247e-02,-1.178965643048286438e-01,2.982848584651947021e-01,-2.747922539710998535e-01,-1.402625590562820435e-01,2.108459472656250000e-01,-1.482783816754817963e-02,1.842903904616832733e-02,1.352166980504989624e-01,-8.245219290256500244e-02,7.368429750204086304e-02,-1.049502640962600708e-01,-1.764263957738876343e-01,-1.077544912695884705e-01,-3.681496381759643555e-01,2.290850318968296051e-02,-1.431200653314590454e-01,1.886906027793884277e-01,3.537494242191314697e-01,2.586209774017333984e-01,1.045027375221252441e-01,1.082795485854148865e-01,-3.139786720275878906e-01,4.496536776423454285e-02,1.600754112005233765e-01,-3.469690680503845215e-02,2.779277563095092773e-01,-1.264415448531508446e-03,-6.650108098983764648e-02,-3.437780439853668213e-01,2.125525474548339844e-01,1.667926907539367676e-01,-3.163278475403785706e-02,-1.913395375013351440e-01,1.216411888599395752e-01,-7.932825013995170593e-03,-2.538751438260078430e-02,2.155687510967254639e-01,4.257931560277938843e-02,2.299494743347167969e-01,1.329234093427658081e-01,-3.881089389324188232e-02,-5.850403569638729095e-03,2.135513424873352051e-01,-1.195073947310447693e-01,1.008870303630828857e-01,-1.192977800965309143e-01,-1.812196224927902222e-01,-1.564692556858062744e-01,7.065801322460174561e-02,1.433529555797576904e-01,-1.035479977726936340e-01,-8.100338280200958252e-02,2.021716982126235962e-01,-2.108601182699203491e-01,4.641056060791015625e-02,1.733361510559916496e-03,1.904588751494884491e-02,5.305810272693634033e-02,6.204335391521453857e-02,4.654887132346630096e-03,-2.584046423435211182e-01,3.503928333520889282e-02,4.533272609114646912e-02,2.160901948809623718e-02,3.152650594711303711e-02,1.107764020562171936e-01,9.093055501580238342e-03,3.367427885532379150e-01,4.210630953311920166e-01,-3.384645581245422363e-01,4.356373846530914307e-01,-1.826522350311279297e-01,1.065043136477470398e-01,-1.182527989149093628e-01,-1.465725600719451904e-01,-7.602039724588394165e-02,-5.054751876741647720e-03,7.504139840602874756e-02,-1.628023087978363037e-01,-1.272547245025634766e-01,1.022335663437843323e-01,-7.150352001190185547e-02,-1.693230122327804565e-02,-1.281648427248001099e-01,2.049191743135452271e-01,5.406478419899940491e-03,-1.821837723255157471e-01
9.342664480209350586e-02,-9.967104345560073853e-02,7.125459611415863037e-02,2.484133243560791016e-01,9.550160169601440430e-02,-2.628824114799499512e-01,-2.235946208238601685e-01,2.236754000186920166e-01,-7.561400998383760452e-03,4.725014790892601013e-02,-1.733807474374771118e-01,1.999896951019763947e-02,3.153343796730041504e-01,-1.779495924711227417e-02,-2.479768842458724976e-01,1.859166473150253296e-01,5.068736523389816284e-02,1.453796476125717163e-01,3.500403165817260742e-01,-9.490874409675598145e-02,-4.614009708166122437e-02,-2.129008919000625610e-01,3.918681442737579346e-01,-2.431340068578720093e-01,1.280893683433532715e-01,-2.114025652408599854e-01,5.559809505939483643e-02,8.874377608299255371e-02,1.242078170180320740e-01,2.746924459934234619e-01,8.334238082170486450e-02,6.461619585752487183e-02,1.963908225297927856e-01,-1.087030917406082153e-01,1.487237066030502319e-01,7.341489195823669434e-02,1.627913564443588257e-01,-1.517595350742340088e-01,1.379133462905883789e-01,6.309214234352111816e-02,-1.184757873415946960e-01,2.680117078125476837e-02,3.315995633602142334e-02,7.434308528900146484e-02,-8.581002056598663330e-02,1.458939015865325928e-01,2.979242801666259766e-01,2.508179843425750732e-01,-1.676822304725646973e-01,7.132074236869812012e-02,4.763104021549224854e-02,2.578203007578849792e-02,-5.437914282083511353e-03,1.970698237419128418e-01,9.560932219028472900e-02,-1.222623698413372040e-02,2.448562160134315491e-02,1.170551553368568420e-01,1.516965031623840332e-01,2.232944518327713013e-01,2.187199592590332031e-01,-1.141853183507919312e-01,-2.197409719228744507e-01,-1.780358701944351196e-01,8.303980343043804169e-03,4.232894256711006165e-02,1.473553776741027832e-01,-1.719761341810226440e-01,1.378134340047836304e-01,8.705880492925643921e-02,6.641819328069686890e-02,-1.451721340417861938e-01,4.391906317323446274e-03,-1.401311438530683517e-02,1.765086650848388672e-01,6.999419629573822021e-02,-1.315132081508636475e-01,3.495993912220001221e-01,1.246908307075500488e-01,9.899632073938846588e-03,5.010152608156204224e-02,1.616811566054821014e-02,-1.121184900403022766e-01,-1.435005813837051392e-01,2.632130682468414307e-01,3.635640144348144531e-01,2.536282539367675781e-01,2.969400286674499512e-01,-6.732113659381866455e-02,1.102162152528762817e-01,-1.340807080268859863e-01,-5.809591617435216904e-03,4.014739766716957092e-02,1.661306619644165039e-01,-1.815202981233596802e-01,1.596470475196838379e-01,-1.609420776367187500e-01,-3.032195940613746643e-02,1.825163960456848145e-01,8.237962424755096436e-02,1.017079129815101624e-01,2.221024036407470703e-02,-1.266483366489410400e-01,-9.037669748067855835e-02,-1.679362356662750244e-01,1.621277183294296265e-01,1.764933392405509949e-02,-1.078290492296218872e-01,-2.161781042814254761e-01,6.176325678825378418e-02,-1.417972594499588013e-01,6.825961917638778687e-02,-1.124943494796752930e-01,1.814049929380416870e-01,9.124304354190826416e-02,1.205586716532707214e-01,-1.013088971376419067e-01,1.486140638589859009e-01,8.003661781549453735e-02,1.886999607086181641e-01,2.060124650597572327e-02,-2.763156034052371979e-02,-6.622096151113510132e-02,-4.800924286246299744e-02,1.221731454133987427e-01,-2.866207808256149292e-02,-8.375202014576643705e-05,1.665405631065368652e-01
-1.557968258857727051e-01,1.281241187825798988e-03,-5.261623859405517578e-02,9.134604036808013916e-02,-3.210298344492912292e-02,1.819419413805007935e-01,9.316167235374450684e-02,1.410776376724243164e-01,-2.007264494895935059e-01,-2.500076219439506531e-02,-3.925180435180664062e-02,-1.475569903850555420e-01,5.146135389804840088e-02,2.179689407348632812e-01,-4.509407281875610352e-02,2.653232030570507050e-02,1.710778176784515381e-01,-3.256260752677917480e-01,8.985094726085662842e-02,-1.259650141000747681e-01,1.259019970893859863e-01,1.044322624802589417e-01,8.074989169836044312e-02,4.811776056885719299e-02,-2.695260345935821533e-01,-2.254695259034633636e-02,-4.700656607747077942e-02,-1.132159531116485596e-01,-7.963082939386367798e-02,-2.317079007625579834e-01,-9.411712735891342163e-02,-1.963663250207901001e-01,-1.463257819414138794e-01,-1.568358242511749268e-01,-1.594281494617462158e-01,3.883886337280273438e-02,-1.056431457400321960e-01,-9.341565892100334167e-03,-7.499815523624420166e-02,8.625175058841705322e-02,5.811319500207901001e-02,1.414484251290559769e-02,-1.358692720532417297e-02,1.749732494354248047e-01,6.302081048488616943e-02,-1.151032596826553345e-01,3.440614044666290283e-01,3.900308310985565186e-01,1.911952197551727295e-01,1.607094556093215942e-01,6.462696939706802368e-02,-9.443878196179866791e-03,5.590571463108062744e-02,-6.086016073822975159e-02,-2.191959023475646973e-01,2.300345003604888916e-01,9.465682506561279297e-02,2.385705411434173584e-01,-2.839435338973999023e-01,2.635785192251205444e-02,-1.348904222249984741e-01,-5.618085339665412903e-02,-1.772330552339553833e-01,-2.615700662136077881e-01,-2.884655445814132690e-02,1.155983507633209229e-01,6.330389529466629028e-02,-1.283131819218397141e-02,2.031999677419662476e-01,5.674766004085540771e-02,-1.601281613111495972e-01,1.681648194789886475e-02,2.418410964310169220e-02,1.226371303200721741e-01,-2.347903400659561157e-01,1.403147876262664795e-01,-6.653844844549894333e-03,-3.955061733722686768e-02,1.987437605857849121e-01,1.877039074897766113e-01,-1.565824002027511597e-01,-5.443259701132774353e-02,-1.903858184814453125e-01,-2.987970039248466492e-02,-1.601170003414154053e-01,1.170454546809196472e-01,2.659712545573711395e-02,1.096177026629447937e-01,-2.370613366365432739e-01,-4.820153117179870605e-02,-1.661264300346374512e-01,-3.768882155418395996e-01,1.191779896616935730e-01,9.291604906320571899e-02,1.202078238129615784e-01,3.711009025573730469e-02,-1.673659235239028931e-01,-8.560889959335327148e-02,2.387562245130538940e-01,1.193217560648918152e-01,-2.505135238170623779e-01,4.516963288187980652e-02,-6.721074879169464111e-02,-2.803846634924411774e-02,-1.675332337617874146e-01,-2.237606942653656006e-01,-1.601333320140838623e-01,-2.680663168430328369e-01,-5.050562694668769836e-02,1.354731768369674683e-01,6.213947758078575134e-02,-2.332796752452850342e-01,-1.051264479756355286e-01,-2.998044155538082123e-02,-1.033699139952659607e-02,-1.002415716648101807e-01,-5.038645863533020020e-02,-1.461122483015060425e-01,1.139514669775962830e-01,6.504885852336883545e-02,2.484904676675796509e-01,-1.452137976884841919e-01,1.579167097806930542e-01,2.639704346656799316e-01,-9.386450052261352539e-02,3.620983287692070007e-02,-5.088114142417907715e-01,-5.276475846767425537e-02
-1.419513765722513199e-02,4.009061679244041443e-02,1.871435791254043579e-01,1.119914427399635315e-01,2.582609951496124268e-01,5.670596659183502197e-02,8.230257779359817505e-02,9.734288603067398071e-02,-8.495119214057922363e-02,-4.894240945577621460e-02,8.808396011590957642e-02,-9.195145964622497559e-02,1.364820748567581177e-01,-1.425247788429260254e-01,-2.737272717058658600e-02,-9.359088540077209473e-02,7.303307950496673584e-02,-7.091247290372848511e-02,-9.750205278396606445e-02,1.866147965192794800e-01,4.757221788167953491e-02,-1.531686335802078247e-01,2.429493963718414307e-01,-2.579519748687744141e-01,-2.437909599393606186e-03,7.775507122278213501e-02,-2.084262967109680176e-01,-1.173426881432533264e-01,-2.418686747550964355e-01,-9.713142365217208862e-02,1.259299218654632568e-01,5.491090938448905945e-02,-1.640142947435379028e-01,-2.281160056591033936e-01,-1.128500401973724365e-01,-5.841470137238502502e-02,2.277617305517196655e-01,-1.850821077823638916e-01,-4.330025613307952881e-02,-7.846667617559432983e-02,2.280853129923343658e-02,7.611326128244400024e-02,8.522588014602661133e-02,-1.541485488414764404e-01,-7.863172888755798340e-02,2.141392678022384644e-01,-1.006998643279075623e-01,1.079031080007553101e-01,5.261666327714920044e-02,-1.807940751314163208e-01,-1.454914361238479614e-01,9.766478091478347778e-02,5.919801443815231323e-02,6.458368152379989624e-02,-4.169101268053054810e-02,-5.311846360564231873e-02,7.776916772127151489e-02,-2.880054153501987457e-02,-1.552995294332504272e-01,1.686753034591674805e-01,-4.316156357526779175e-02,-2.944560721516609192e-02,-2.097275406122207642e-01,1.026708111166954041e-01,-1.945364922285079956e-01,1.259590238332748413e-01,6.274819374084472656e-02,-2.844445109367370605e-01,-4.238350689411163330e-02,-5.864648148417472839e-02,3.054452873766422272e-02,-5.367910861968994141e-02,-1.112010553479194641e-01,-1.175063624978065491e-01,-1.253006160259246826e-01,-1.007983312010765076e-01,3.993751108646392822e-02,1.273935101926326752e-02,2.472383826971054077e-01,-1.168492510914802551e-01,-1.215003430843353271e-01,1.090903580188751221e-01,7.589871436357498169e-02,-2.311543822288513184e-01,-1.326644979417324066e-02,5.631728470325469971e-02,2.344885282218456268e-02,9.318592958152294159e-03,-3.608940169215202332e-02,-1.415676623582839966e-01,-6.771092861890792847e-02,2.559201605618000031e-02,2.399581372737884521e-01,6.702663004398345947e-02,-4.552847146987915039e-02,3.190704062581062317e-02,-2.106447219848632812e-01,1.989167369902133942e-02,1.467957999557256699e-02,1.527154073119163513e-02,-7.800189778208732605e-03,-8.393561840057373047e-02,-1.303817424923181534e-02,1.158768385648727417e-01,-1.929619908332824707e-01,5.668830499053001404e-02,-3.470313549041748047e-02,3.685129340738058090e-04,-1.288952585309743881e-02,-3.611486032605171204e-02,-6.765347905457019806e-03,-1.468476355075836182e-01,-1.885313540697097778e-01,3.782270103693008423e-02,-6.194698438048362732e-02,1.064429711550474167e-02,-3.249289840459823608e-02,8.443723618984222412e-02,-1.379074621945619583e-02,-1.235726103186607361e-01,2.567488551139831543e-01,7.341179996728897095e-02,9.854225814342498779e-02,1.635357886552810669e-01,-1.252249628305435181e-01,-4.390601813793182373e-02,1.519328802824020386e-01,2.655110359191894531e-01
-1.536893658339977264e-02,6.586219370365142822e-02,-3.498284146189689636e-02,3.377655148506164551e-02,2.850640416145324707e-01,-4.950949549674987793e-02,1.479862034320831299e-01,-1.898514479398727417e-01,-1.009871810674667358e-01,9.897477179765701294e-02,1.473360508680343628e-01,3.262256830930709839e-02,-8.006429672241210938e-02,1.128630638122558594e-01,-1.057929322123527527e-01,-1.757770180702209473e-01,-1.921001523733139038e-01,-1.973187327384948730e-01,-3.500802814960479736e-02,1.059616804122924805e-01,-1.643205434083938599e-01,1.116130203008651733e-01,2.680083177983760834e-02,-1.279043555259704590e-01,-9.323790436610579491e-06,-1.688877195119857788e-01,1.343168914318084717e-01,2.488939836621284485e-02,6.367345154285430908e-02,-4.583856090903282166e-02,1.179347708821296692e-01,2.059226632118225098e-01,-1.441925466060638428e-01,-2.171599566936492920e-01,1.560704559087753296e-01,2.522043585777282715e-01,-2.435543984174728394e-01,-4.437688365578651428e-02,-1.382910758256912231e-01,6.575576961040496826e-02,-1.695083677768707275e-01,-1.512068361043930054e-01,1.250214725732803345e-01,-2.096813544631004333e-02,-9.101482480764389038e-02,1.977583467960357666e-01,4.291054978966712952e-02,6.374045740813016891e-03,3.415505588054656982e-02,3.147636353969573975e-02,-2.536759674549102783e-01,-4.452198371291160583e-02,7.993919402360916138e-02,7.820116728544235229e-02,-7.815641909837722778e-02,2.696983516216278076e-01,2.416101694107055664e-01,2.971150577068328857e-01,2.885353006422519684e-02,2.591197937726974487e-02,-3.553904360160231590e-03,-2.155695259571075439e-01,3.773640841245651245e-02,-1.694639921188354492e-01,8.525945991277694702e-02,6.577204167842864990e-02,-2.277472987771034241e-03,-2.624750323593616486e-02,1.536552160978317261e-01,-1.422981023788452148e-01,1.749437749385833740e-01,-1.281291097402572632e-01,4.297797009348869324e-02,1.443828642368316650e-01,1.735564172267913818e-01,-1.320119351148605347e-01,-7.941178977489471436e-02,3.608755534514784813e-03,1.945829242467880249e-01,6.721032410860061646e-02,-1.934946887195110321e-02,-1.237735152244567871e-01,2.457201294600963593e-02,-2.649593055248260498e-01,-1.125510707497596741e-01,-1.920374482870101929e-02,1.407484412193298340e-01,1.878431439399719238e-01,1.217277944087982178e-01,-2.943499982357025146e-01,-5.467132851481437683e-02,2.012536674737930298e-01,-6.417694687843322754e-02,1.900330036878585815e-01,-8.125737309455871582e-03,1.004126742482185364e-01,-3.138972818851470947e-01,-8.740216493606567383e-02,6.383478641510009766e-02,-1.414298564195632935e-01,8.141204714775085449e-03,-1.071975901722908020e-01,1.890602335333824158e-02,1.895770579576492310e-01,-3.008854389190673828e-01,-1.262241154909133911e-01,-1.095058321952819824e-01,-2.681294083595275879e-01,1.081583462655544281e-02,5.364789813756942749e-02,1.606602803803980350e-03,-1.847509481012821198e-02,-2.900915592908859253e-02,2.363124042749404907e-01,-2.482470870018005371e-01,1.055169254541397095e-01,-1.241222023963928223e-01,-7.648146245628595352e-03,-2.669050097465515137e-01,-1.771600842475891113e-01,-2.222368866205215454e-02,-8.147776871919631958e-02,1.430763751268386841e-01,-1.294174697250127792e-02,2.288628071546554565e-01,-2.545709311962127686e-01,-1.326285153627395630e-01,7.804401963949203491e-02
-1.398801058530807495e-01,-3.373341262340545654e-02,-3.818194195628166199e-02,-1.629710495471954346e-01,-2.151703089475631714e-01,3.694666549563407898e-02,-7.143506407737731934e-02,1.405437588691711426e-01,-2.789442194625735283e-03,1.735709458589553833e-01,-1.532678753137588501e-01,2.494331896305084229e-01,9.355459362268447876e-02,-1.637432277202606201e-01,1.281916946172714233e-01,1.297522783279418945e-01,1.072883605957031250e-01,8.073172718286514282e-02,2.170327752828598022e-01,-1.318321228027343750e-01,3.826542571187019348e-02,7.163102924823760986e-02,-1.027794554829597473e-01,1.761910505592823029e-02,-2.480183914303779602e-02,-2.948326244950294495e-02,-9.340199641883373260e-03,-1.504395902156829834e-01,4.726517572999000549e-02,1.041786447167396545e-01,-1.487271636724472046e-01,-2.265107482671737671e-01,-1.036172509193420410e-01,7.317066192626953125e-02,-9.807226061820983887e-02,-1.244596205651760101e-02,6.455018371343612671e-02,1.722834557294845581e-01,-1.408102363348007202e-01,2.227095067501068115e-01,3.843683600425720215e-01,-7.117099594324827194e-03,1.852336078882217407e-01,1.265978962182998657e-01,1.087933182716369629e-01,-1.934440135955810547e-01,4.224265739321708679e-02,1.441576927900314331e-01,-1.493718028068542480e-01,1.121933087706565857e-01,1.073848530650138855e-01,-1.609655171632766724e-01,-5.544129759073257446e-02,1.740828342735767365e-02,3.823740407824516296e-02,-5.133844912052154541e-02,6.009959429502487183e-02,-1.384514421224594116e-01,-1.768494397401809692e-02,-2.808007411658763885e-02,-1.475022919476032257e-02,-5.352549254894256592e-02,-4.649415612220764160e-02,7.127983868122100830e-02,2.954045832157135010e-01,1.110977306962013245e-01,4.514138996601104736e-01,1.968370527029037476e-01,-2.495990097522735596e-01,-3.939507529139518738e-02,1.554453000426292419e-02,1.891240626573562622e-01,-6.535536795854568481e-02,-1.949020475149154663e-01,-3.794616460800170898e-02,1.916440576314926147e-01,1.304106116294860840e-01,8.630010485649108887e-02,-2.581206858158111572e-01,1.380535513162612915e-01,2.702965168282389641e-03,8.433450758457183838e-02,-2.690698504447937012e-01,2.245283275842666626e-01,2.336985617876052856e-01,6.542750447988510132e-02,-1.511013060808181763e-01,-1.630271822214126587e-01,1.384634673595428467e-01,-3.428750112652778625e-02,2.032851986587047577e-02,-3.622795939445495605e-01,-1.191204935312271118e-01,9.215103089809417725e-02,-1.337697803974151611e-01,-3.002199530601501465e-02,1.258498132228851318e-01,1.382481455802917480e-01,9.801955521106719971e-02,-1.429638564586639404e-01,-3.436793014407157898e-02,9.405244141817092896e-02,-4.024237766861915588e-02,5.979705601930618286e-03,8.571016788482666016e-02,1.659132242202758789e-01,4.167438298463821411e-02,1.118152886629104614e-01,1.804272234439849854e-01,3.599867224693298340e-01,7.869802415370941162e-03,2.709790170192718506e-01,3.679781034588813782e-02,-1.308587640523910522e-01,2.922737896442413330e-01,-1.528386920690536499e-01,5.351902171969413757e-02,1.018573809415102005e-02,4.661114513874053955e-02,1.475792378187179565e-01,-1.824321597814559937e-01,-1.217389944940805435e-02,-1.823187023401260376e-01,1.018975153565406799e-01,1.102461069822311401e-01,-1.813708432018756866e-02,2.475443482398986816e-02,-9.064644575119018555e-02
-9.860624372959136963e-02,1.409417837858200073e-01,1.564482972025871277e-02,-1.069671660661697388e-01,-6.969407200813293457e-02,4.472786094993352890e-03,-9.167323261499404907e-02,-1.158826425671577454e-01,3.218062967061996460e-02,2.453139424324035645e-01,-7.695119082927703857e-02,-4.249098151922225952e-02,1.229070872068405151e-01,8.198820799589157104e-02,7.903610914945602417e-02,1.618935614824295044e-01,-2.224534749984741211e-01,2.152923122048377991e-02,2.095249108970165253e-02,6.278642266988754272e-02,-4.510588943958282471e-03,-1.906875073909759521e-01,1.251030862331390381e-01,-1.756610125303268433e-01,1.164619326591491699e-01,-7.414769381284713745e-02,-1.493517756462097168e-01,8.112169802188873291e-02,1.498908549547195435e-01,2.418826520442962646e-01,-1.874513924121856689e-01,2.234701365232467651e-01,6.170228496193885803e-02,4.453421384096145630e-02,-3.156679868698120117e-01,-2.881501317024230957e-01,-1.696472913026809692e-01,-2.868838310241699219e-01,1.431261748075485229e-02,1.702529937028884888e-01,-5.896842107176780701e-02,1.767117530107498169e-01,1.216766312718391418e-01,-1.580081880092620850e-01,6.346634775400161743e-02,-6.054200977087020874e-02,-2.864306047558784485e-02,-1.306279599666595459e-01,-1.151906400918960571e-01,1.990552097558975220e-01,9.283212572336196899e-02,-6.120747327804565430e-02,-1.411488950252532959e-01,8.104948699474334717e-02,-2.389116287231445312e-01,-2.066115476191043854e-02,-1.706522330641746521e-02,6.457114964723587036e-02,6.140715256333351135e-02,-1.034938320517539978e-01,-1.139543727040290833e-01,9.900022298097610474e-02,-2.415136247873306274e-02,-1.231270506978034973e-01,3.331853151321411133e-01,-8.679737150669097900e-02,-5.326505750417709351e-03,2.180746793746948242e-01,1.627428084611892700e-01,1.216157525777816772e-01,1.985809504985809326e-01,2.265101820230484009e-01,1.940990239381790161e-02,1.488175541162490845e-01,4.327455163002014160e-02,-4.664322733879089355e-02,-2.759072743356227875e-02,-3.107546865940093994e-01,-4.940103366971015930e-02,3.452598452568054199e-01,1.891686953604221344e-02,-1.089353412389755249e-01,-2.120736539363861084e-01,-9.460392594337463379e-02,-1.722463518381118774e-01,4.307223018258810043e-03,-8.606367558240890503e-02,1.250845193862915039e-01,-2.178502082824707031e-01,-6.083423271775245667e-02,-2.958068065345287323e-02,1.174316778779029846e-01,1.205807998776435852e-01,1.355508565902709961e-01,-1.418140977621078491e-01,2.030978351831436157e-01,8.252336084842681885e-02,-1.753196269273757935e-01,-2.118635177612304688e-01,-8.904672227799892426e-03,9.834875166416168213e-02,-2.713845670223236084e-02,1.475194562226533890e-02,-1.807670146226882935e-01,1.142201572656631470e-01,-5.637782067060470581e-02,8.199533820152282715e-02,1.913689523935317993e-01,2.066262997686862946e-02,3.044245839118957520e-01,-2.350088655948638916e-01,-2.963767619803547859e-03,-1.014887169003486633e-01,-2.212329022586345673e-02,-3.280203416943550110e-02,1.783577352762222290e-02,-2.201395928859710693e-01,8.333669602870941162e-02,-5.556317418813705444e-02,-2.413595467805862427e-01,-4.547950625419616699e-02,-1.464718729257583618e-01,-1.585899144411087036e-01,-9.290957450866699219e-02,4.061686992645263672e-02,9.770741686224937439e-03,-1.699602752923965454e-01,3.435095772147178650e-02
