-7.339773327112197876e-02,8.410166949033737183e-02,7.749795913696289062e-04,-6.024254113435745239e-02,8.374013751745223999e-02,1.096863001585006714e-01,1.897990107536315918e-01,1.067695617675781250e-01,1.885074377059936523e-01,2.795694470405578613e-01,2.947388589382171631e-01,3.178570270538330078e-01,2.981047034263610840e-01,2.717311680316925049e-01,2.336288094520568848e-01,2.326796501874923706e-01,3.042487502098083496e-01,5.124009251594543457e-01,4.024721682071685791e-01,2.906572520732879639e-01,1.850045621395111084e-01,1.085683852434158325e-01,8.957541733980178833e-02,1.076156347990036011e-01,1.015621796250343323e-02,-4.091052338480949402e-02,-1.821929775178432465e-02,4.756579548120498657e-02,6.984951347112655640e-02,4.329703748226165771e-03,-3.547608852386474609e-03,-8.689373731613159180e-02,3.216005116701126099e-02,1.442043781280517578e-01,1.442090123891830444e-01,2.671502530574798584e-01,2.546902000904083252e-01,3.726688325405120850e-01,5.334647297859191895e-01,4.997762441635131836e-01,4.052987098693847656e-01,3.530999720096588135e-01,2.843634486198425293e-01,3.958722949028015137e-01,4.794626832008361816e-01,4.470872879028320312e-01,4.321785569190979004e-01,4.233228564262390137e-01,3.588941991329193115e-01,3.575032949447631836e-01,2.828777134418487549e-01,2.713522315025329590e-01,2.399675101041793823e-01,-1.465908717364072800e-03,5.691805854439735413e-02,-4.109782353043556213e-02,-3.821232914924621582e-02,-3.559089079499244690e-02,1.702495664358139038e-02,-3.376380354166030884e-02,2.998977713286876678e-02,-1.041791681200265884e-02,2.081256657838821411e-01,2.233806699514389038e-01,2.197872102260589600e-01,2.683442234992980957e-01,2.154919505119323730e-01,3.429255485534667969e-01,1.935107111930847168e-01,3.860424160957336426e-01,5.283363461494445801e-01,4.608489573001861572e-01,4.628252089023590088e-01,4.355474710464477539e-01,3.836559355258941650e-01,3.477812707424163818e-01,4.484985470771789551e-01,3.496956229209899902e-01,2.864950299263000488e-01,2.732425332069396973e-01,2.249299287796020508e-01,2.346525490283966064e-01,6.618317961692810059e-02,1.074063479900360107e-01,3.372082114219665527e-02,7.704074680805206299e-02,6.051557604223489761e-03,1.597729921340942383e-01,6.511940807104110718e-02,8.063562959432601929e-02,8.879281580448150635e-02,6.873421370983123779e-02,-5.339099839329719543e-02,-2.902949154376983643e-01,-3.850194215774536133e-01,-2.871184945106506348e-01,-2.228803783655166626e-01,-3.231319040060043335e-02,1.501868665218353271e-01,1.392491459846496582e-01,5.666974931955337524e-02,1.612668633460998535e-01,7.553373277187347412e-02,1.974911391735076904e-01,1.477949023246765137e-01,-1.436717249453067780e-02,-5.451897531747817993e-02,1.164641082286834717e-01,1.060234084725379944e-01,2.000705003738403320e-01,1.253546588122844696e-02,3.576680645346641541e-02,-5.296467989683151245e-02,-4.424278065562248230e-02,9.401279687881469727e-02,-1.040650159120559692e-01,-3.117669820785522461e-01,-2.471439093351364136e-01,-2.115741968154907227e-01,-2.810415923595428467e-01,-8.504050970077514648e-01,-1.035158991813659668e+00,-1.086797237396240234e+00,-1.041975975036621094e+00,-9.044817090034484863e-01,-6.789816617965698242e-01,-5.017756819725036621e-01,-4.958845674991607666e-01,-5.277518630027770996e-01,-6.484944820404052734e-01,-3.940188288688659668e-01,-1.490820050239562988e-01,-1.986594945192337036e-01,-2.899124026298522949e-01,-2.923450469970703125e-01,-2.099048197269439697e-01,-1.268662214279174805e-01,-2.248467877507209778e-02,5.351480096578598022e-02,5.563017353415489197e-02,-2.723689377307891846e-02,3.716150298714637756e-02,1.490742415189743042e-01,1.555208563804626465e-01,-8.681882172822952271e-02,-3.796409666538238525e-01,-4.104262888431549072e-01,-6.326369643211364746e-01,-9.962050318717956543e-01,-9.011156558990478516e-01,-7.724305987358093262e-01,-7.107722163200378418e-01,-5.424674153327941895e-01,-3.978000283241271973e-01,-3.951128125190734863e-01,-5.324805378913879395e-01,-5.866031646728515625e-01,-6.738007068634033203e-01,-5.762434601783752441e-01,-5.709595680236816406e-01,-5.941997766494750977e-01,-6.063488721847534180e-01,-5.171988606452941895e-01,-3.621699810028076172e-01,-2.629882395267486572e-01,-3.718015253543853760e-01,-2.238314300775527954e-01,-2.317908853292465210e-01,2.719100750982761383e-02,-6.685195863246917725e-02,3.739551901817321777e-01,3.383736014366149902e-01,-3.325733169913291931e-02,-1.900484263896942139e-01,-3.242719769477844238e-01,-4.523313045501708984e-01,-4.133156836032867432e-01,-1.656167805194854736e-01,-1.080002784729003906e-01,-2.512879110872745514e-02,2.173139713704586029e-02,-7.277962565422058105e-02,-1.878822594881057739e-01,-2.990611493587493896e-01,-2.672197520732879639e-01,-2.817389369010925293e-01,-3.344281911849975586e-01,-2.993005514144897461e-01,-3.330101072788238525e-01,-4.870871305465698242e-01,-5.458674430847167969e-01,-5.937209129333496094e-01,-5.772033333778381348e-01,-7.757986783981323242e-01,-5.855186581611633301e-01,-1.695288866758346558e-01,1.685478687286376953e-01,-1.668336428701877594e-02,3.348776102066040039e-01,3.946687877178192139e-01,1.411663144826889038e-01,-1.167145520448684692e-01,-1.804658323526382446e-01,-2.784210741519927979e-01,-1.919474750757217407e-01,1.630186736583709717e-01,2.692031562328338623e-01,2.066966295242309570e-01,5.547970905900001526e-02,-4.606577102094888687e-03,-4.828749969601631165e-02,-8.953255414962768555e-02,-1.916686147451400757e-01,-4.698086902499198914e-02,-4.872022196650505066e-02,-1.455382108688354492e-01,-2.201223820447921753e-01,-3.659675419330596924e-01,-4.376277923583984375e-01,-5.153232216835021973e-01,-7.212634682655334473e-01,-8.268047571182250977e-01,-5.838799476623535156e-01,-1.659683883190155029e-01,5.504205822944641113e-02,4.233844578266143799e-02,2.538997530937194824e-01,3.523247838020324707e-01,1.125122979283332825e-01,-1.810730248689651489e-01,-3.380759656429290771e-01,-2.576874196529388428e-01,7.442804425954818726e-02,2.787124812602996826e-01,3.370256423950195312e-01,1.822973340749740601e-01,1.892679743468761444e-02,-1.218395903706550598e-01,3.811644855886697769e-03,8.232574909925460815e-02,1.336240768432617188e-01,8.376364409923553467e-02,5.446704477071762085e-02,1.606832295656204224e-01,4.820942506194114685e-02,-1.000212654471397400e-01,-2.325347959995269775e-01,-2.161803394556045532e-01,-4.087861180305480957e-01,-5.386702418327331543e-01,-4.233011603355407715e-01,-1.832623183727264404e-01,-1.308936066925525665e-02,1.678968518972396851e-01,3.056878447532653809e-01,3.731423914432525635e-01,1.984706148505210876e-02,-2.733935415744781494e-01,-3.360956907272338867e-01,-7.902421802282333374e-02,1.216698586940765381e-01,1.619379371404647827e-01,7.680004835128784180e-02,-5.512133985757827759e-02,-4.880259931087493896e-02,-2.357571199536323547e-02,-1.511479616165161133e-01,2.204415388405323029e-02,1.505635306239128113e-02,9.335720539093017578e-02,7.037051022052764893e-02,2.073117941617965698e-01,2.198036164045333862e-01,1.718711853027343750e-01,1.573635078966617584e-02,-6.463788449764251709e-02,-2.578952610492706299e-01,-2.449909895658493042e-01,-1.816719621419906616e-01,-1.507007032632827759e-01,-2.854574620723724365e-01,2.062228322029113770e-02,1.647863686084747314e-01,2.060285955667495728e-01,-1.334095187485218048e-02,-1.802746653556823730e-01,-1.525733023881912231e-01,6.822904944419860840e-02,1.159074157476425171e-01,4.167696833610534668e-02,1.480831485241651535e-02,-5.496659129858016968e-02,5.673783831298351288e-03,9.647528827190399170e-02,-5.237003043293952942e-02,-1.268394440412521362e-01,-2.250008657574653625e-02,5.147539079189300537e-02,5.728755891323089600e-02,1.306768655776977539e-01,-5.380822718143463135e-02,4.478279501199722290e-02,6.697160191833972931e-03,-1.055948957800865173e-01,-2.321639955043792725e-01,-8.057185262441635132e-02,-1.209081411361694336e-01,-1.534016728401184082e-01,-1.452573835849761963e-01,-8.173035085201263428e-02,-9.737130254507064819e-02,6.292404979467391968e-02,-8.125398308038711548e-02,-1.873865723609924316e-01,-8.639484643936157227e-02,1.234006509184837341e-01,1.279639601707458496e-01,-6.574597209692001343e-02,-2.426512911915779114e-02,-6.642498075962066650e-02,2.024472318589687347e-02,5.971844308078289032e-03,-4.535496234893798828e-03,6.340733915567398071e-02,7.887925952672958374e-02,1.307913810014724731e-01,-2.338099293410778046e-02,-1.072635725140571594e-01,-5.967648327350616455e-02,-1.346357073634862900e-02,1.181305423378944397e-01,6.797380745410919189e-02,-2.399025112390518188e-01,-1.693250238895416260e-01,-1.460696011781692505e-01,-4.877276346087455750e-02,-1.539930105209350586e-01,-3.780500888824462891e-01,-2.141695320606231689e-01,-1.005617305636405945e-01,-4.463688284158706665e-02,-8.631557971239089966e-02,-4.406673461198806763e-02,-2.702504396438598633e-02,6.634459644556045532e-02,-9.383345022797584534e-03,-1.563177853822708130e-01,-8.701045066118240356e-02,1.604904979467391968e-01,2.324926108121871948e-01,6.405851989984512329e-02,-4.358981177210807800e-02,1.273376196622848511e-01,9.170538932085037231e-02,-5.728721991181373596e-02,-2.082159221172332764e-01,-8.468734472990036011e-02,-2.355374209582805634e-02,-2.334713377058506012e-02,-1.344165019690990448e-02,-1.191988810896873474e-01,-1.631404832005500793e-02,1.225223913788795471e-01,1.252024918794631958e-01,-1.042416095733642578e-01,-2.705394923686981201e-01,-2.253373861312866211e-01,1.206142753362655640e-01,1.130850464105606079e-01,1.267060488462448120e-01,-1.089193113148212433e-02,-1.014794930815696716e-01,-2.069660127162933350e-01,-1.766747683286666870e-01,-1.822956651449203491e-01,6.498201191425323486e-02,3.654020428657531738e-01,3.759186565876007080e-01,1.227903645485639572e-03,-2.023605108261108398e-01,-1.622374057769775391e-01,-1.041777357459068298e-01,-1.164869144558906555e-01,-2.359917908906936646e-01,-1.330628991127014160e-01,-7.721970975399017334e-02,-7.679787930101156235e-03,1.758685708045959473e-01,6.794533133506774902e-02,1.994108110666275024e-01,7.587157934904098511e-02,6.543707568198442459e-03,1.764578074216842651e-01,1.731033250689506531e-02,-9.459681808948516846e-02,-3.549855202436447144e-02,3.026248514652252197e-01,1.222442612051963806e-01,-1.069705351255834103e-03,-1.413485407829284668e-01,-2.748181521892547607e-01,-2.468512207269668579e-01,3.511813934892416000e-03,9.020554274320602417e-02,2.552310824394226074e-01,1.830362081527709961e-01,6.164164841175079346e-02,-1.901721060276031494e-01,-2.811318039894104004e-01,-9.027654677629470825e-02,-1.871915534138679504e-02,-4.791916534304618835e-02,-1.383049488067626953e-01,-6.559392064809799194e-02,8.587335050106048584e-02,2.530656158924102783e-01,1.049323827028274536e-01,2.356109581887722015e-02,-8.566212654113769531e-02,5.390065535902976990e-02,2.456300109624862671e-01,-5.518993362784385681e-02,-2.029004096984863281e-01,2.594934403896331787e-02,3.015221953392028809e-01,1.164059787988662720e-01,2.138808369636535645e-02,-1.569438427686691284e-01,-7.022887468338012695e-02,-1.698640361428260803e-02,1.004188284277915955e-01,-6.343180686235427856e-02,3.861364722251892090e-02,-3.138451211270876229e-05,1.436444967985153198e-01,-1.499578822404146194e-02,-2.092809528112411499e-01,-5.420571193099021912e-02,-1.635952852666378021e-02,-1.159049123525619507e-01,-1.032679304480552673e-01,-5.705152824521064758e-02,1.358074545860290527e-01,4.097900167107582092e-02,-6.733851134777069092e-02,1.258376520127058029e-02,-1.417710334062576294e-01,-1.919153779745101929e-01,2.156010866165161133e-01,7.127476856112480164e-03,-2.197600454092025757e-01,-1.802743971347808838e-01,2.097216397523880005e-01,-3.242937615141272545e-03,-6.075195595622062683e-02,-2.330204471945762634e-02,1.556719392538070679e-01,1.362014859914779663e-01,1.565966159105300903e-01,-1.958976499736309052e-02,-1.647334732115268707e-02,3.989252448081970215e-02,2.658806145191192627e-01,1.401448547840118408e-01,-2.950181253254413605e-02,-1.209403648972511292e-01,-1.472318917512893677e-01,-1.759878396987915039e-01,7.241149246692657471e-02,4.068649560213088989e-02,1.128380671143531799e-01,-7.663837634027004242e-03,-4.937729239463806152e-02,-1.990685984492301941e-02,1.816137693822383881e-02,-9.379947185516357422e-02,1.265282332897186279e-01,2.044359445571899414e-01,9.158224612474441528e-02,9.855338186025619507e-02,-4.465208202600479126e-02,-1.260871067643165588e-02,3.183475509285926819e-02,2.659285627305507660e-02,1.486209034919738770e-01,1.109091863036155701e-01,1.504266858100891113e-01,2.371470257639884949e-02,1.511372346431016922e-02,1.639332771301269531e-01,2.827206552028656006e-01,3.114445209503173828e-01,8.693246543407440186e-02,3.441074490547180176e-02,-1.036033257842063904e-01,5.443834234029054642e-03,-3.066120855510234833e-02,1.042573228478431702e-01,1.004979386925697327e-01,-6.069482117891311646e-02,2.292289398610591888e-02,3.481645882129669189e-01,1.170082986354827881e-01,1.054484695196151733e-01,1.084303632378578186e-01,2.661591172218322754e-01,4.401161670684814453e-01,4.250226020812988281e-01,-6.502557545900344849e-02,-1.587968617677688599e-01,-6.784600764513015747e-02,-3.273192793130874634e-02,1.487622857093811035e-01,1.507323831319808960e-01,2.717122137546539307e-01,2.397603690624237061e-01,2.990203201770782471e-01,2.871724665164947510e-01,2.705732285976409912e-01,2.603573799133300781e-01,2.803832292556762695e-01,6.828859448432922363e-02,5.452471598982810974e-02,9.169074147939682007e-02,8.841978013515472412e-02,1.299015283584594727e-01,5.444006621837615967e-02,5.418017134070396423e-02,1.516017317771911621e-01,3.596456050872802734e-01,3.086612224578857422e-01,3.279369473457336426e-01,3.657048344612121582e-01,3.214439749717712402e-01,4.271914064884185791e-01,2.642442584037780762e-01,-1.482637673616409302e-01,-3.555603325366973877e-01,-3.313536942005157471e-01,-2.290037274360656738e-01,-5.822055786848068237e-02,2.740816213190555573e-02,1.988972574472427368e-01,1.692968308925628662e-01,2.143857330083847046e-01,1.310658156871795654e-01,3.445733189582824707e-01,2.709015011787414551e-01,2.965300381183624268e-01,2.310620546340942383e-01,4.251000583171844482e-01,2.208824157714843750e-01,1.579586714506149292e-01,-1.325908116996288300e-03,-1.544394642114639282e-01,-9.076698869466781616e-02,-3.660520911216735840e-02,2.156915962696075439e-01,1.389916241168975830e-01,5.843159183859825134e-02,4.742965996265411377e-01,7.026680707931518555e-01,6.613029241561889648e-01,2.115650773048400879e-01,-1.324355900287628174e-01,-5.910408496856689453e-01,-5.165969133377075195e-01,-4.736651182174682617e-01,-2.561510801315307617e-01,-2.753995060920715332e-01,-3.459424674510955811e-01,-1.307663172483444214e-01,-1.062354743480682373e-01,4.471404850482940674e-02,1.308937072753906250e-01,-6.128423660993576050e-02,-3.219421580433845520e-02,-2.616789564490318298e-02,4.510437324643135071e-02,-2.327501075342297554e-03,-5.963112413883209229e-02,-1.533297002315521240e-01,-3.950901702046394348e-02,-6.578234583139419556e-02,-2.751198783516883850e-02,9.630592167377471924e-02,-4.039781540632247925e-02,4.939600452780723572e-02,4.166079461574554443e-01,7.810081839561462402e-01,7.415481805801391602e-01,2.658672928810119629e-01,-1.782363057136535645e-01,-5.395391583442687988e-01,-8.485341668128967285e-01,-8.350444436073303223e-01,-7.635594606399536133e-01,-8.211683630943298340e-01,-7.915180921554565430e-01,-6.558496356010437012e-01,-3.647804558277130127e-01,-4.994366466999053955e-01,-6.237491965293884277e-01,-7.609280943870544434e-01,-6.674654483795166016e-01,-5.874249339103698730e-01,-4.872049987316131592e-01,-4.208503067493438721e-01,-3.016667664051055908e-01,-9.471749514341354370e-02,2.946920925751328468e-03,5.307279899716377258e-02,2.591873891651630402e-02,2.409941703081130981e-01,3.721621632575988770e-01,2.402224242687225342e-01,2.533973753452301025e-01,6.848096251487731934e-01,7.379928231239318848e-01,3.674163520336151123e-01,3.013840876519680023e-02,-4.356854557991027832e-01,-4.890974164009094238e-01,-6.705296039581298828e-01,-5.773403644561767578e-01,-6.091518402099609375e-01,-8.117932677268981934e-01,-9.036787152290344238e-01,-8.562411665916442871e-01,-1.051945686340332031e+00,-1.313709139823913574e+00,-1.294978737831115723e+00,-8.907970786094665527e-01,-7.310026884078979492e-01,-5.858620405197143555e-01,-3.648093342781066895e-01,-2.784045040607452393e-01,-1.204447820782661438e-01,3.972192108631134033e-02,1.365885734558105469e-01,2.803538143634796143e-01,5.681214928627014160e-01,5.838993787765502930e-01,4.596668481826782227e-01,6.902951747179031372e-02,3.621644973754882812e-01,5.589519739151000977e-01,3.835298418998718262e-01,1.177616938948631287e-01,-3.238839209079742432e-01,-3.283918499946594238e-01,-4.515781998634338379e-01,-2.473457157611846924e-01,-1.292852461338043213e-01,-4.621995985507965088e-01,-4.807415604591369629e-01,-7.032597661018371582e-01,-9.584820270538330078e-01,-9.621649384498596191e-01,-6.908873915672302246e-01,-4.031169712543487549e-01,-1.868135780096054077e-01,-6.886897236108779907e-02,2.777073904871940613e-02,1.309664398431777954e-01,1.014847159385681152e-01,-2.622727304697036743e-02,1.090276613831520081e-01,2.573347985744476318e-01,4.687632918357849121e-01,5.776448249816894531e-01,4.532682001590728760e-01,-6.726901233196258545e-02,1.113654226064682007e-01,1.697218716144561768e-01,2.046388089656829834e-01,1.296917945146560669e-01,1.194833666086196899e-01,8.396092802286148071e-02,-1.194403157569468021e-03,1.189647242426872253e-01,2.704692482948303223e-01,2.182024717330932617e-01,4.335763677954673767e-02,-1.217037886381149292e-01,-2.029754817485809326e-01,-5.916835740208625793e-02,1.275329589843750000e-01,2.423906177282333374e-01,2.765225172042846680e-01,2.853955030441284180e-01,4.254540801048278809e-01,3.455467224121093750e-01,4.102570116519927979e-01,3.715311586856842041e-01,1.717389672994613647e-01,5.640063807368278503e-02,1.856188774108886719e-01,2.949235737323760986e-01,2.556627690792083740e-01,-7.419651001691818237e-02,-2.134953625500202179e-02,1.542066037654876709e-01,2.188630700111389160e-01,2.715264260768890381e-01,3.074727356433868408e-01,3.056688606739044189e-01,3.590582609176635742e-01,2.166903764009475708e-01,2.798894643783569336e-01,3.139017224311828613e-01,3.063731789588928223e-01,2.972164154052734375e-01,3.050721585750579834e-01,5.453444123268127441e-01,5.655552148818969727e-01,5.576590895652770996e-01,6.080274581909179688e-01,3.952306807041168213e-01,3.423924148082733154e-01,2.564048171043395996e-01,3.050525188446044922e-01,2.354978919029235840e-01,7.681542634963989258e-02,1.603833734989166260e-01,1.365000605583190918e-01,8.624910563230514526e-02,3.330834582448005676e-02,6.301156431436538696e-02,4.677243996411561966e-03,-1.144551485776901245e-01,1.282192915678024292e-01,1.370096057653427124e-01,2.244705557823181152e-01,2.912788689136505127e-01,2.450185418128967285e-01,3.013086318969726562e-01,2.808050513267517090e-01,3.165042996406555176e-01,2.467915564775466919e-01,1.884047091007232666e-01,5.517731308937072754e-01,6.650830507278442383e-01,8.278010487556457520e-01,8.329415321350097656e-01,5.983265638351440430e-01,2.413530796766281128e-01,2.445602789521217346e-02,1.020050868391990662e-01,7.036211341619491577e-02,4.135730117559432983e-02,-1.960311271250247955e-02,-9.876561351120471954e-03,-1.290599703788757324e-01,-1.057503968477249146e-01,-2.381326258182525635e-02,-5.346909910440444946e-02,-2.925828099250793457e-03,-9.973672032356262207e-02,-1.256935894489288330e-01,9.704750031232833862e-03,9.851888567209243774e-02,1.366335749626159668e-01,2.700080573558807373e-01,3.030015230178833008e-01,1.536253988742828369e-01,2.888051867485046387e-01,1.257205456495285034e-01,1.873100399971008301e-01,5.322380065917968750e-01,6.516416668891906738e-01,7.443436980247497559e-01,6.261427998542785645e-01,3.760738074779510498e-01,5.162205174565315247e-02,-1.409343034029006958e-01,4.484356567263603210e-02,3.641083091497421265e-02,8.443329483270645142e-02,-1.794544607400894165e-02,4.324331879615783691e-02,-1.286954283714294434e-01,7.017865031957626343e-02,-6.905469298362731934e-02
6.198134273290634155e-02,8.469432592391967773e-03,2.621457725763320923e-02,6.729234009981155396e-02,8.751921355724334717e-02,4.536923021078109741e-03,-4.578811302781105042e-02,-1.517902314662933350e-01,-2.107581198215484619e-01,-4.732235670089721680e-01,-4.803333580493927002e-01,-3.966035544872283936e-01,-5.025547742843627930e-01,-4.946393966674804688e-01,-5.201113820075988770e-01,-1.887815743684768677e-01,-9.989979118108749390e-02,-1.637915968894958496e-01,-3.875869214534759521e-01,-4.969850480556488037e-01,-3.441275656223297119e-01,-2.287908792495727539e-01,-9.213227778673171997e-02,-7.659985218197107315e-03,1.225071102380752563e-01,-3.312173113226890564e-02,-5.217894539237022400e-02,-5.539260804653167725e-02,8.402840048074722290e-02,4.547923058271408081e-02,2.457074820995330811e-02,-2.124712057411670685e-02,-2.318704128265380859e-01,-3.762084543704986572e-01,-2.915195226669311523e-01,-2.681736052036285400e-01,-4.332165122032165527e-01,-5.499431490898132324e-01,-7.287325263023376465e-01,-7.553468346595764160e-01,-8.052964210510253906e-01,-7.566084861755371094e-01,-6.556419134140014648e-01,-3.394290804862976074e-01,-6.273451447486877441e-02,-2.362257800996303558e-03,-1.357869356870651245e-01,-1.978485584259033203e-01,-1.719196736812591553e-01,-1.046431437134742737e-01,-2.433515153825283051e-02,2.155584655702114105e-02,2.268994040787220001e-02,-8.469904959201812744e-02,1.959254778921604156e-02,-9.592745453119277954e-02,-8.064779639244079590e-02,-7.150062918663024902e-02,4.972292855381965637e-02,-3.987192511558532715e-01,-3.248259425163269043e-01,-3.693546056747436523e-01,-4.782637953758239746e-01,-4.587967395782470703e-01,-5.745309591293334961e-01,-5.206900238990783691e-01,-6.107398867607116699e-01,-7.009127140045166016e-01,-6.778709888458251953e-01,-6.066516637802124023e-01,-4.354264438152313232e-01,-4.617145061492919922e-01,-5.284082517027854919e-02,-2.136047929525375366e-02,-2.295528501272201538e-01,-1.519562900066375732e-01,2.922791987657546997e-02,1.014212071895599365e-01,4.470013082027435303e-03,-1.329362392425537109e-02,1.582274436950683594e-01,2.382819056510925293e-01,-4.209281131625175476e-02,-1.356706768274307251e-01,-6.193955615162849426e-02,-7.777857780456542969e-02,-7.635060697793960571e-02,-2.230570465326309204e-01,-2.849281728267669678e-01,-2.457407563924789429e-01,-3.792572021484375000e-01,-4.869522154331207275e-01,-4.083879888057708740e-01,-3.971854746341705322e-01,-2.598174214363098145e-01,-4.030841588973999023e-01,-4.250454008579254150e-01,-3.421373069286346436e-01,-2.657568454742431641e-01,-2.037176638841629028e-01,-8.432988822460174561e-02,-9.115452319383621216e-02,-1.231314688920974731e-01,-1.864618435502052307e-02,1.781437695026397705e-01,2.000593096017837524e-01,2.893965505063533783e-02,-1.147583425045013428e-01,7.152628153562545776e-02,1.271834075450897217e-01,2.439020127058029175e-01,2.144138514995574951e-02,6.972283869981765747e-02,-8.463520556688308716e-02,4.714379832148551941e-02,-3.487336263060569763e-02,-1.107196435332298279e-01,-1.262062788009643555e-01,-1.121185123920440674e-01,-5.046003684401512146e-02,-8.211185783147811890e-02,-1.123631298542022705e-01,-1.840092055499553680e-02,1.055380031466484070e-01,-5.451991036534309387e-02,-3.806501030921936035e-01,-1.992481350898742676e-01,1.966553330421447754e-01,3.496426045894622803e-01,1.365932673215866089e-01,9.450666606426239014e-02,1.952746063470840454e-01,1.989208459854125977e-01,2.245352417230606079e-01,-4.445063322782516479e-02,-9.646432101726531982e-02,-6.857184227555990219e-03,1.556314527988433838e-01,-6.089636124670505524e-03,-2.362060099840164185e-01,2.860419452190399170e-02,-3.504524007439613342e-02,1.158729046583175659e-01,8.664785325527191162e-02,5.223978683352470398e-02,1.521547734737396240e-01,2.600897252559661865e-01,4.023967683315277100e-01,3.396469354629516602e-01,3.264397680759429932e-01,2.544583380222320557e-01,9.233231097459793091e-02,-1.793646998703479767e-02,-3.864135444164276123e-01,-5.003238916397094727e-01,-2.903227210044860840e-01,1.623934954404830933e-01,1.252102702856063843e-01,-7.224968820810317993e-02,8.963387459516525269e-03,1.912631690502166748e-01,1.729874014854431152e-01,-3.146818280220031738e-02,-2.041262239217758179e-01,-9.229090809822082520e-02,8.132126927375793457e-02,-9.366479516029357910e-02,-9.733314067125320435e-02,1.413336545228958130e-01,2.239573150873184204e-01,2.854417562484741211e-01,2.901447713375091553e-01,2.366774529218673706e-01,2.961630225181579590e-01,3.206960856914520264e-01,3.906618058681488037e-01,4.404205381870269775e-01,7.930149137973785400e-02,-1.475761923938989639e-02,8.759672939777374268e-02,-1.575183123350143433e-01,-4.486839473247528076e-01,-8.050633668899536133e-01,-4.324802458286285400e-01,5.103961750864982605e-02,1.048261821269989014e-01,-5.803903192281723022e-02,-1.038750782608985901e-01,1.199684292078018188e-01,5.932276695966720581e-02,-8.856200426816940308e-02,-1.060468554496765137e-01,-3.391424566507339478e-02,-4.399364069104194641e-02,-7.005517929792404175e-02,-1.971283704042434692e-01,3.043634295463562012e-01,3.764069378376007080e-01,4.073890149593353271e-01,3.505437970161437988e-01,2.854463160037994385e-01,2.825089693069458008e-01,1.771071851253509521e-01,1.439321190118789673e-01,1.342409523203969002e-03,-1.536591947078704834e-01,-6.117204576730728149e-02,3.352576121687889099e-02,-5.666674301028251648e-02,-5.281216502189636230e-01,-6.360828280448913574e-01,-3.790842294692993164e-01,1.118820756673812866e-01,3.255822360515594482e-01,1.322863250970840454e-01,6.637182086706161499e-03,7.661549746990203857e-02,3.772686049342155457e-02,-8.747091889381408691e-02,-6.327010691165924072e-02,-7.883280515670776367e-02,-1.631921827793121338e-01,-2.320407181978225708e-01,-7.404184341430664062e-02,4.468160569667816162e-01,3.650282919406890869e-01,4.120082557201385498e-01,2.441696226596832275e-01,4.220064580440521240e-01,2.896746993064880371e-01,1.861282438039779663e-01,-1.695652306079864502e-02,-4.798995330929756165e-02,2.351594157516956329e-02,7.073401659727096558e-02,4.225250706076622009e-02,-1.115544363856315613e-01,-4.009146392345428467e-01,-7.591487765312194824e-01,-3.402996361255645752e-01,2.039999216794967651e-01,3.310496807098388672e-01,1.766547411680221558e-01,1.576459854841232300e-01,9.642183780670166016e-02,-9.964395314455032349e-02,-1.084173843264579773e-01,-9.655445069074630737e-02,-7.337503135204315186e-02,-1.968707591295242310e-01,-1.360888183116912842e-01,5.079909041523933411e-02,6.497832536697387695e-01,6.285759806632995605e-01,3.460609018802642822e-01,2.759799063205718994e-01,3.190143406391143799e-01,1.028150916099548340e-01,-3.703872207552194595e-03,5.063896253705024719e-02,1.425992399454116821e-01,7.965508103370666504e-02,5.704343318939208984e-02,2.382938414812088013e-01,1.150076538324356079e-01,-3.490681350231170654e-01,-6.183609962463378906e-01,-1.051862239837646484e-01,2.611722946166992188e-01,2.887299954891204834e-01,5.417640134692192078e-02,1.206212043762207031e-01,1.259914785623550415e-01,5.710084736347198486e-02,-2.619832055643200874e-03,-1.130221113562583923e-01,-3.910956531763076782e-02,2.602289803326129913e-02,-2.719965018332004547e-02,2.669586539268493652e-01,9.550033211708068848e-01,8.344125747680664062e-01,6.414549350738525391e-01,2.895868122577667236e-01,2.152405232191085815e-01,-1.135199740529060364e-01,-1.196301877498626709e-01,4.995364695787429810e-02,7.075681537389755249e-02,8.704745210707187653e-03,2.422607094049453735e-01,4.271330535411834717e-01,2.120299041271209717e-01,-4.182483553886413574e-01,-7.575365304946899414e-01,7.321400195360183716e-02,3.936765789985656738e-01,2.123420387506484985e-01,-1.094385981559753418e-01,4.907663539052009583e-02,1.736613065004348755e-01,-8.215165138244628906e-02,-1.854461431503295898e-01,-2.363541871309280396e-01,1.086024288088083267e-02,3.692504391074180603e-02,1.169586479663848877e-01,2.105665355920791626e-01,8.363521695137023926e-01,1.051637887954711914e+00,9.804064035415649414e-01,3.482827246189117432e-01,6.544844806194305420e-02,-4.073267057538032532e-02,-1.455930769443511963e-01,3.154788911342620850e-02,1.338498760014772415e-02,-1.257139444351196289e-01,1.436604857444763184e-01,5.206182599067687988e-01,2.575458884239196777e-01,-6.719179153442382812e-01,-9.155200123786926270e-01,1.479575186967849731e-01,3.435522019863128662e-01,1.621489524841308594e-01,-8.559031784534454346e-02,-3.086108341813087463e-02,4.798542335629463196e-02,-1.015798151493072510e-01,-3.313665986061096191e-01,-2.397803813219070435e-01,-8.787097036838531494e-02,-7.518954575061798096e-02,8.510023355484008789e-02,1.720391362905502319e-01,6.625326871871948242e-01,1.145783305168151855e+00,1.075235247611999512e+00,3.495940566062927246e-01,1.072696447372436523e-01,2.663176134228706360e-02,-1.431799978017807007e-01,-2.476871386170387268e-02,3.025904484093189240e-02,-1.916758716106414795e-01,1.042470112442970276e-01,5.070309638977050781e-01,2.164917737245559692e-01,-1.068892240524291992e+00,-9.613091945648193359e-01,1.005688458681106567e-01,3.948803544044494629e-01,1.462253481149673462e-01,-9.893743693828582764e-02,-5.781840905547142029e-02,-2.371823042631149292e-02,-1.632764190435409546e-01,-2.137879580259323120e-01,-2.110199332237243652e-01,-3.225984573364257812e-01,-3.793894052505493164e-01,-2.576217949390411377e-01,-2.338896989822387695e-01,6.072392463684082031e-01,8.407466411590576172e-01,7.144559621810913086e-01,1.685036718845367432e-01,-4.618585109710693359e-02,-7.699592411518096924e-02,-1.379731297492980957e-01,-1.845140308141708374e-01,-4.237570613622665405e-02,-2.051315754652023315e-01,2.078339010477066040e-01,3.641645908355712891e-01,4.407454282045364380e-02,-1.037784576416015625e+00,-8.983608484268188477e-01,6.807824969291687012e-02,2.896354794502258301e-01,7.238379865884780884e-02,-7.917276024818420410e-02,1.454955041408538818e-01,1.058773398399353027e-01,6.827119737863540649e-02,3.951902966946363449e-03,3.316705673933029175e-02,-2.324117571115493774e-01,-2.461055815219879150e-01,-2.666205763816833496e-01,-2.631303369998931885e-01,3.080790638923645020e-01,3.539419174194335938e-01,2.595763206481933594e-01,-5.464722216129302979e-02,-1.438838690519332886e-01,-1.967995427548885345e-02,-1.270791441202163696e-01,8.853795379400253296e-02,1.446423977613449097e-01,-2.536541782319545746e-03,2.171685844659805298e-01,1.100192666053771973e-01,-2.860796265304088593e-02,-4.405834078788757324e-01,-3.908232450485229492e-01,2.462133392691612244e-02,1.084657460451126099e-01,-5.993377044796943665e-02,6.542521994560956955e-03,8.176749199628829956e-02,3.311674296855926514e-01,1.961849033832550049e-01,1.839199960231781006e-01,1.376660317182540894e-01,-5.679391697049140930e-02,-1.179355978965759277e-01,-3.370321691036224365e-01,-3.843352198600769043e-01,1.374380439519882202e-01,5.423221364617347717e-02,1.828008443117141724e-01,5.242702737450599670e-02,6.962247658520936966e-03,1.086878329515457153e-01,2.526989439502358437e-03,2.267652451992034912e-01,1.565408706665039062e-01,1.104267910122871399e-01,1.377115212380886078e-02,-2.698760293424129486e-02,-4.195725917816162109e-01,-4.629798233509063721e-01,-2.299085110425949097e-01,-7.404246926307678223e-02,9.710998088121414185e-02,7.368384301662445068e-02,2.029622644186019897e-01,1.542034298181533813e-01,2.308930903673171997e-01,1.973423361778259277e-01,1.548000425100326538e-01,1.272603273391723633e-01,-8.704303950071334839e-02,-2.018270790576934814e-01,-4.629303812980651855e-01,-2.062901556491851807e-01,8.702474832534790039e-02,-2.922955434769392014e-03,-5.542939901351928711e-02,-6.564047187566757202e-02,-4.257742315530776978e-02,2.154181897640228271e-01,1.185830011963844299e-01,1.007097586989402771e-01,5.253822728991508484e-02,-5.206705257296562195e-02,-6.390698999166488647e-02,-2.687726318836212158e-01,-4.865680932998657227e-01,-3.660008609294891357e-01,-1.994064301252365112e-01,5.823301151394844055e-02,4.642436653375625610e-02,1.023343577980995178e-01,2.307353764772415161e-01,2.183085680007934570e-01,1.954232454299926758e-01,9.212205559015274048e-02,-5.162192042917013168e-03,3.905785456299781799e-02,1.023586243391036987e-01,-3.672315776348114014e-01,-4.171805977821350098e-01,-3.073810636997222900e-01,-2.535268664360046387e-02,-1.146063879132270813e-01,-2.105945199728012085e-01,1.397336646914482117e-02,1.931037306785583496e-01,3.109079897403717041e-01,2.407475411891937256e-01,-8.183053135871887207e-02,1.817156374454498291e-02,-4.543070122599601746e-02,-1.579484045505523682e-01,-4.232792556285858154e-01,-5.893428325653076172e-01,-1.463329792022705078e-01,8.142038434743881226e-02,1.491055637598037720e-01,4.093991592526435852e-02,6.387747824192047119e-02,1.989012807607650757e-01,2.094925343990325928e-01,1.583674699068069458e-01,-1.897407025098800659e-01,-1.484354287385940552e-01,7.167778909206390381e-02,1.076797395944595337e-01,-2.170586287975311279e-01,-2.707819640636444092e-01,-2.204987406730651855e-01,9.512364119291305542e-02,7.871819287538528442e-02,-9.131082147359848022e-02,-6.113226339221000671e-02,3.207236528396606445e-01,2.225002646446228027e-01,2.830492556095123291e-01,1.301800012588500977e-01,1.849046498537063599e-01,8.299579471349716187e-02,-2.474745661020278931e-01,-5.619854927062988281e-01,-3.360085785388946533e-01,7.655101269483566284e-02,2.768005430698394775e-01,2.253010571002960205e-01,-7.556630671024322510e-02,-2.934518270194530487e-02,1.081120315939188004e-02,6.011926755309104919e-02,1.369250472635030746e-02,-1.185576543211936951e-01,-7.346108555793762207e-02,-1.942587830126285553e-02,7.411110214889049530e-03,-1.353481709957122803e-01,-1.798119246959686279e-01,-2.727915644645690918e-01,-6.025576591491699219e-02,-1.632566899061203003e-01,-9.936396032571792603e-02,-1.120175467804074287e-03,2.571014165878295898e-01,3.533580601215362549e-01,3.286952674388885498e-01,2.569964230060577393e-01,6.277338415384292603e-02,2.371985651552677155e-02,-4.925297796726226807e-01,-6.428359150886535645e-01,-2.311291098594665527e-01,2.067690640687942505e-01,1.925076544284820557e-01,9.692929685115814209e-02,-2.805972658097743988e-02,4.337918385863304138e-02,-2.057478949427604675e-02,-1.946945115923881531e-02,5.134134739637374878e-02,1.019133254885673523e-01,2.055051550269126892e-02,1.403081510215997696e-02,-1.447564661502838135e-01,-2.528037130832672119e-01,-1.984096616506576538e-01,-4.283143207430839539e-04,-2.110411226749420166e-01,-2.443422526121139526e-01,-3.681001812219619751e-02,5.892078578472137451e-02,1.643998771905899048e-01,9.595540165901184082e-02,1.423182487487792969e-01,1.026983708143234253e-01,-1.462053358554840088e-01,-4.380090832710266113e-01,-5.985140204429626465e-01,-3.961647152900695801e-01,4.230887442827224731e-02,2.729254662990570068e-01,2.371457815170288086e-01,-1.437684334814548492e-02,9.120289236307144165e-02,9.879469126462936401e-02,-3.832311928272247314e-02,9.634707868099212646e-02,1.329176872968673706e-01,1.580988615751266479e-01,1.152221709489822388e-01,-2.189617045223712921e-02,-1.435939669609069824e-01,-1.962511241436004639e-01,-4.719623248092830181e-04,1.285057812929153442e-01,-3.017305769026279449e-02,-9.483474493026733398e-02,-8.380032330751419067e-02,-7.060901820659637451e-02,-1.212446391582489014e-01,7.652094122022390366e-03,-3.685798496007919312e-02,-1.026361435651779175e-01,-2.841298878192901611e-01,-4.242587983608245850e-01,-3.884485960006713867e-01,-6.913092453032732010e-03,2.225127369165420532e-01,1.544089466333389282e-01,5.406838655471801758e-02,-4.386091604828834534e-02,-4.087539389729499817e-02,-4.297424480319023132e-02,-1.826103031635284424e-02,4.902119189500808716e-02,9.439487010240554810e-02,-9.329819679260253906e-02,-1.923927813768386841e-01,-2.524545788764953613e-01,-2.102385759353637695e-01,-1.566161811351776123e-01,1.846024952828884125e-02,1.875417828559875488e-01,-1.084588095545768738e-01,-7.478214800357818604e-02,-8.440934866666793823e-02,-1.759043037891387939e-01,-9.371085464954376221e-02,-3.211572021245956421e-02,-4.526125639677047729e-02,-2.163918316364288330e-01,-2.648903429508209229e-01,-2.872521281242370605e-01,-9.580571949481964111e-02,1.910094469785690308e-01,2.482663542032241821e-01,1.023544147610664368e-01,-1.387427449226379395e-01,5.724490433931350708e-02,5.353196710348129272e-02,8.165814727544784546e-02,-5.739679187536239624e-02,-6.132159754633903503e-02,-3.860271722078323364e-02,-2.444018721580505371e-01,-2.732390463352203369e-01,-4.145886600017547607e-01,-3.166585564613342285e-01,-2.546917498111724854e-01,1.925459504127502441e-02,1.201779618859291077e-01,-1.646236889064311981e-02,6.346802413463592529e-02,1.184674873948097229e-01,1.376732736825942993e-01,9.543936699628829956e-02,-6.353352963924407959e-02,-1.779527813196182251e-01,-3.162328004837036133e-01,-3.340762555599212646e-01,-2.035078555345535278e-01,9.282454848289489746e-02,5.562358535826206207e-03,4.111308977007865906e-02,9.348646551370620728e-02,7.529821246862411499e-02,1.165963634848594666e-01,8.801084756851196289e-02,-3.565865382552146912e-02,-1.465829461812973022e-01,-7.156729698181152344e-02,-1.591135859489440918e-01,-2.550649940967559814e-01,-2.289617806673049927e-01,-1.907138526439666748e-01,-1.893637329339981079e-01,-8.797690272331237793e-02,-1.077776923775672913e-01,1.460462659597396851e-01,-6.265576928853988647e-02,1.804261654615402222e-02,1.776926070451736450e-01,1.117745637893676758e-01,2.588631510734558105e-01,-6.440991163253784180e-02,-1.324172019958496094e-01,-3.474085330963134766e-01,-2.372800260782241821e-01,-1.030354797840118408e-01,-1.549289375543594360e-01,-1.738439202308654785e-01,-4.847387969493865967e-02,-4.486713558435440063e-02,3.145398944616317749e-02,1.954606920480728149e-01,6.957452744245529175e-02,-3.560164570808410645e-02,-6.165877729654312134e-02,-8.652220666408538818e-02,-1.451199203729629517e-01,-1.969328373670578003e-01,-1.725105643272399902e-01,-8.098652213811874390e-02,-2.399571612477302551e-02,1.630424521863460541e-02,-3.376636654138565063e-02,-9.078832715749740601e-02,-5.930191278457641602e-02,-7.801440358161926270e-02,-1.311761420220136642e-02,1.377363651990890503e-01,1.736830025911331177e-01,1.373973339796066284e-01,-2.443388290703296661e-02,-1.229151338338851929e-01,2.499762549996376038e-02,6.398093700408935547e-02,3.392988815903663635e-03,-1.625247299671173096e-01,-1.691534072160720825e-01,-9.860648214817047119e-02,-5.510983243584632874e-02,-5.567949637770652771e-02,2.172513306140899658e-02,1.386794261634349823e-02,2.899530716240406036e-02,3.918010275810956955e-03,-1.030899658799171448e-01,-1.275658421218395233e-02,3.372072009369730949e-03,5.606000497937202454e-02,1.553186029195785522e-01,1.203010007739067078e-01,-2.111214213073253632e-02,-1.363193243741989136e-02,7.721804827451705933e-02,3.209903091192245483e-02,-7.134888321161270142e-02,7.863284647464752197e-02,3.798485398292541504e-01,3.972851932048797607e-01,2.712695300579071045e-01,3.542196154594421387e-01,5.397532582283020020e-01,4.826019704341888428e-01,3.744628131389617920e-01,1.663879752159118652e-01,-1.020244136452674866e-01,-4.289177060127258301e-02,-1.780763566493988037e-01,-1.597194671630859375e-01,-1.769982278347015381e-01,7.124511152505874634e-02,7.491477578878402710e-02,-3.207830339670181274e-02,-6.570525467395782471e-02,-1.146889640949666500e-03,-2.975840680301189423e-02,-2.995299920439720154e-02,1.809273958206176758e-01,1.835309267044067383e-01,5.249040573835372925e-02,-8.324982225894927979e-02,5.710928887128829956e-02,-6.850821524858474731e-02,3.323617577552795410e-02,-7.795098703354597092e-03,1.447508782148361206e-01,3.365586996078491211e-01,5.848665833473205566e-01,7.233703732490539551e-01,7.548916935920715332e-01,7.790142297744750977e-01,6.767119765281677246e-01,2.561394274234771729e-01,-3.205478563904762268e-02,-2.992263808846473694e-02,-1.130360215902328491e-01,-4.825937747955322266e-02,-1.366989463567733765e-01,6.145680323243141174e-02,1.347080618143081665e-01,-9.557284414768218994e-02,-2.718740999698638916e-01,-7.413754612207412720e-02,-5.794976279139518738e-02,-3.896269202232360840e-02,6.569658219814300537e-02,7.384936511516571045e-02,-6.938833743333816528e-02,4.343803972005844116e-02
-8.069729059934616089e-02,7.880800217390060425e-02,-7.238181680440902710e-02,2.925239503383636475e-02,4.939244687557220459e-02,1.749978065490722656e-01,1.306892186403274536e-01,2.873137891292572021e-01,5.526648759841918945e-01,7.846452593803405762e-01,7.058941125869750977e-01,4.129768610000610352e-01,1.756707727909088135e-01,3.414409607648849487e-02,-5.761507526040077209e-02,-2.776186466217041016e-01,-1.947250217199325562e-01,-9.444920718669891357e-02,2.745783925056457520e-01,6.380110979080200195e-01,4.424856007099151611e-01,4.028210937976837158e-01,3.633708953857421875e-01,1.559711545705795288e-01,7.165826391428709030e-03,7.508569955825805664e-02,3.996862098574638367e-02,-8.026625961065292358e-02,-8.286416530609130859e-02,7.794228941202163696e-02,6.969291716814041138e-02,8.896442130208015442e-03,1.537274569272994995e-01,4.110132157802581787e-01,8.312441706657409668e-01,9.050754308700561523e-01,9.442375302314758301e-01,7.862074971199035645e-01,5.341184139251708984e-01,1.817118823528289795e-01,-2.415015920996665955e-02,-4.443236067891120911e-02,-2.003819197416305542e-01,-1.700711548328399658e-01,-1.718691438436508179e-01,-7.168814539909362793e-02,2.483452856540679932e-01,6.371300220489501953e-01,1.082235693931579590e+00,1.101327300071716309e+00,1.225907206535339355e+00,1.182750344276428223e+00,5.122898221015930176e-01,2.449490427970886230e-01,1.064555943012237549e-01,3.351765498518943787e-02,1.039310544729232788e-02,-7.993675768375396729e-03,-3.024939360329881310e-05,9.854599088430404663e-02,4.514817297458648682e-01,4.762379527091979980e-01,7.855677008628845215e-01,5.552336573600769043e-01,6.904851794242858887e-01,6.047726869583129883e-01,5.059167146682739258e-01,1.452801078557968140e-01,-1.227658167481422424e-01,-1.829417645931243896e-01,-7.515239715576171875e-02,1.076947078108787537e-01,7.740537077188491821e-02,2.525163441896438599e-02,4.110476970672607422e-01,7.565166354179382324e-01,9.181461930274963379e-01,8.882572054862976074e-01,1.156757235527038574e+00,1.030524969100952148e+00,8.247678875923156738e-01,7.376111745834350586e-01,1.256993114948272705e-01,1.526731103658676147e-01,1.167109608650207520e-02,1.195692047476768494e-01,1.805965043604373932e-02,4.939771443605422974e-02,4.643915966153144836e-02,1.697198897600173950e-01,2.767290771007537842e-01,3.622796237468719482e-01,1.809588521718978882e-01,3.015165030956268311e-01,1.701366603374481201e-01,-1.285381801426410675e-02,-8.029677718877792358e-02,1.818841323256492615e-03,9.227181226015090942e-02,1.886862963438034058e-01,1.478587090969085693e-01,1.598093360662460327e-01,2.344639785587787628e-02,8.951602131128311157e-02,2.974882423877716064e-01,3.988084197044372559e-01,6.788865327835083008e-01,7.083805799484252930e-01,5.891211628913879395e-01,5.373870730400085449e-01,4.075391888618469238e-01,2.230686694383621216e-01,5.601608008146286011e-02,1.501185595989227295e-01,7.228296995162963867e-02,7.268325984477996826e-02,1.251679807901382446e-01,7.111860811710357666e-02,-4.289461672306060791e-02,4.475077614188194275e-03,-3.276266157627105713e-02,4.797636345028877258e-02,-6.424761563539505005e-02,4.355528950691223145e-02,-1.209975965321063995e-02,-6.739781051874160767e-02,-9.461059421300888062e-02,-8.805374801158905029e-02,-6.986538879573345184e-03,-4.017553105950355530e-02,-1.015942394733428955e-01,-2.613178193569183350e-01,-1.317698359489440918e-01,5.480649322271347046e-02,1.058498695492744446e-01,3.359213471412658691e-01,3.323656618595123291e-01,2.635281085968017578e-01,1.835505515336990356e-01,3.672962486743927002e-01,4.628567397594451904e-02,2.762197852134704590e-01,2.136763781309127808e-01,1.999023258686065674e-01,3.163108229637145996e-01,2.713687717914581299e-01,2.221155613660812378e-01,3.082256317138671875e-01,1.800988912582397461e-01,6.789908558130264282e-02,-1.399284750223159790e-01,-1.756737828254699707e-01,-1.189907118678092957e-01,-3.171481192111968994e-01,-3.667071461677551270e-01,-3.966507315635681152e-01,-3.633556365966796875e-01,-2.902730107307434082e-01,-2.531733810901641846e-01,-4.217694997787475586e-01,-3.599494695663452148e-01,-2.239205390214920044e-01,-1.297659277915954590e-01,6.776262074708938599e-02,7.206110656261444092e-02,1.769698262214660645e-01,1.658819317817687988e-01,3.219134509563446045e-01,-2.554664015769958496e-02,3.051739931106567383e-01,9.470027685165405273e-02,1.314274072647094727e-01,3.770220577716827393e-01,3.425070941448211670e-01,2.094195485115051270e-01,2.635318636894226074e-01,2.584066092967987061e-01,7.112095504999160767e-02,-7.619798183441162109e-02,1.461237017065286636e-02,-9.529943764209747314e-02,-1.558432877063751221e-01,-9.965948760509490967e-02,-1.258653253316879272e-01,-7.604839652776718140e-02,2.184101566672325134e-02,-3.324998542666435242e-02,-1.540210247039794922e-01,-3.482491672039031982e-01,-4.863571524620056152e-01,-4.590162336826324463e-01,-3.557387590408325195e-01,-1.336326599121093750e-01,9.959689527750015259e-02,5.858783796429634094e-02,1.498599201440811157e-01,-2.445014007389545441e-02,-9.499994106590747833e-03,3.548838943243026733e-02,1.114039942622184753e-01,3.320340812206268311e-01,2.761247158050537109e-01,9.022261947393417358e-02,8.003565669059753418e-02,-6.058986764401197433e-03,9.969736449420452118e-03,-9.612954407930374146e-02,-5.398759618401527405e-02,-7.212828099727630615e-02,-4.392609989736229181e-04,1.706095337867736816e-01,2.602608203887939453e-01,2.034116238355636597e-01,1.378532350063323975e-01,1.345231533050537109e-01,4.381873458623886108e-02,-6.445055454969406128e-02,-2.833151519298553467e-01,-4.656992554664611816e-01,-4.115193784236907959e-01,-4.749880731105804443e-01,-3.420758843421936035e-01,-7.685092836618423462e-02,1.599772125482559204e-01,-1.133015304803848267e-01,5.201916769146919250e-02,-1.748846843838691711e-02,2.912944927811622620e-02,9.621836990118026733e-02,5.161939654499292374e-03,-2.289976691827178001e-03,8.084768056869506836e-02,3.012960031628608704e-02,2.102102898061275482e-02,4.224842041730880737e-02,7.991152256727218628e-02,9.609507769346237183e-02,1.510595530271530151e-01,2.839795947074890137e-01,3.436825275421142578e-01,3.888736665248870850e-01,2.602244019508361816e-01,3.641553968191146851e-02,3.155377134680747986e-02,1.321863979101181030e-01,-7.411751151084899902e-02,-2.633075118064880371e-01,-5.335509181022644043e-01,-4.343063235282897949e-01,-3.395323157310485840e-01,-1.152028813958168030e-01,-4.487578943371772766e-02,-1.380912065505981445e-01,-9.452313929796218872e-02,-5.017842352390289307e-02,-1.663087755441665649e-01,-1.672203466296195984e-02,-1.769177466630935669e-01,-2.080335021018981934e-01,2.057153731584548950e-02,4.042227193713188171e-02,7.909267395734786987e-02,2.417052723467350006e-02,-5.823306739330291748e-02,3.977381438016891479e-02,2.386327832937240601e-01,2.168563306331634521e-01,2.255435883998870850e-01,1.484395563602447510e-01,-1.817070506513118744e-02,-2.369316518306732178e-01,-1.132572591304779053e-01,-3.525567799806594849e-02,-8.171033859252929688e-02,-3.248208165168762207e-01,-5.613480210304260254e-01,-4.504332840442657471e-01,-3.942099213600158691e-01,-1.594279259443283081e-01,-2.162349596619606018e-02,1.100494191050529480e-01,-2.530380338430404663e-02,-1.919934898614883423e-01,-3.098937273025512695e-01,-4.352707564830780029e-01,-4.045019149780273438e-01,-2.999360263347625732e-01,-3.199525177478790283e-02,1.877398602664470673e-02,-3.496914729475975037e-02,3.717602416872978210e-02,-9.332562237977981567e-02,1.876998394727706909e-01,2.829228639602661133e-01,-3.272354230284690857e-02,-1.738883703947067261e-01,-3.264005780220031738e-01,-1.396913528442382812e-01,-8.623287826776504517e-02,-1.009866818785667419e-01,7.964447885751724243e-02,-5.935895815491676331e-02,-3.935769796371459961e-01,-4.769951105117797852e-01,-4.732612669467926025e-01,-4.629249572753906250e-01,-2.317080050706863403e-01,8.177308738231658936e-02,4.999694228172302246e-01,2.818151116371154785e-01,1.044031530618667603e-01,-1.898897737264633179e-01,-5.295574069023132324e-01,-4.628286361694335938e-01,-3.493407368659973145e-01,-7.814280688762664795e-02,3.148455917835235596e-02,-5.941974464803934097e-03,3.195561096072196960e-02,5.818272754549980164e-02,1.186068430542945862e-01,1.372480243444442749e-01,-6.819002330303192139e-02,-3.082173466682434082e-01,-2.250421941280364990e-01,7.714441418647766113e-02,9.933698177337646484e-02,6.632933020591735840e-02,3.478957414627075195e-01,2.567881643772125244e-01,-1.719051450490951538e-01,-5.140399932861328125e-01,-4.938991367816925049e-01,-2.911331653594970703e-01,-1.298442929983139038e-01,-1.291684657335281372e-01,4.160435497760772705e-01,3.141045272350311279e-01,1.109940558671951294e-01,-1.038262918591499329e-01,-3.739198744297027588e-01,-4.845067560672760010e-01,-3.420827090740203857e-01,-4.550637677311897278e-02,-1.103767380118370056e-01,5.135896801948547363e-02,7.498582452535629272e-02,7.808539085090160370e-03,-4.905908554792404175e-02,-1.328166201710700989e-02,-9.792671352624893188e-02,-1.733944416046142578e-01,-2.457528375089168549e-02,2.111364454030990601e-01,1.313513368368148804e-01,2.709452211856842041e-01,3.831340074539184570e-01,3.498717844486236572e-01,3.939557820558547974e-02,-4.847224652767181396e-01,-4.317979514598846436e-01,-4.534336030483245850e-01,-3.915770351886749268e-01,-2.918431758880615234e-01,5.185212492942810059e-01,3.438825011253356934e-01,1.356712728738784790e-01,-2.179612964391708374e-01,-3.693964481353759766e-01,-5.435140132904052734e-01,-2.530847191810607910e-01,-2.180892825126647949e-01,-2.728611230850219727e-01,9.440180659294128418e-02,8.618187159299850464e-03,-1.057257130742073059e-01,-6.418486684560775757e-02,-2.437191829085350037e-02,-8.408538252115249634e-02,-7.377162110060453415e-03,-6.152230501174926758e-02,9.451282024383544922e-02,1.431944966316223145e-01,2.345321774482727051e-01,2.806428670883178711e-01,4.221644997596740723e-02,-4.038769006729125977e-02,-5.082830786705017090e-01,-6.318165659904479980e-01,-6.418403983116149902e-01,-6.621611118316650391e-01,-3.274708986282348633e-01,2.981952428817749023e-01,1.550242304801940918e-01,1.959433034062385559e-02,-1.078165173530578613e-01,-4.326696991920471191e-01,-7.434737682342529297e-01,-3.853357136249542236e-01,-1.516775488853454590e-01,-2.414219081401824951e-01,1.505221147090196609e-02,1.592986471951007843e-02,5.259388126432895660e-03,-1.950851827859878540e-01,-1.601148694753646851e-01,6.717093288898468018e-03,1.526321917772293091e-01,8.874027058482170105e-03,-1.684280931949615479e-01,6.845451891422271729e-03,2.793352901935577393e-01,1.055022776126861572e-01,2.301705628633499146e-02,-2.490856200456619263e-01,-5.109964013099670410e-01,-5.597285032272338867e-01,-6.079391837120056152e-01,-3.825747966766357422e-01,-1.933521777391433716e-01,2.619792222976684570e-01,3.284591063857078552e-02,-1.673344820737838745e-01,-3.117742240428924561e-01,-4.708649516105651855e-01,-6.658819913864135742e-01,-4.590975046157836914e-01,-5.257070809602737427e-02,-9.956081211566925049e-02,-7.861391641199588776e-03,6.906478852033615112e-02,1.794582903385162354e-01,-2.165813446044921875e-01,-4.138106405735015869e-01,-1.331052929162979126e-01,7.231519371271133423e-02,1.312826946377754211e-02,-1.453097760677337646e-01,-3.352855797857046127e-03,2.406001687049865723e-01,2.172581851482391357e-01,5.122387781739234924e-02,-2.490231022238731384e-02,-4.010060131549835205e-01,-6.248859167098999023e-01,-4.949157238006591797e-01,-2.985739409923553467e-01,-2.047912180423736572e-01,2.351291775703430176e-01,-2.023921906948089600e-02,-1.977870613336563110e-01,-4.552694559097290039e-01,-4.243232607841491699e-01,-4.393871426582336426e-01,-3.616662919521331787e-01,3.355772793292999268e-02,6.105703860521316528e-02,1.111473515629768372e-01,1.047982499003410339e-01,2.831069231033325195e-01,-2.105194032192230225e-01,-3.286566138267517090e-01,-3.237114846706390381e-01,8.279970288276672363e-02,1.332575082778930664e-01,-2.869388274848461151e-02,1.480741053819656372e-01,9.106257557868957520e-02,1.172406971454620361e-01,-1.932003162801265717e-02,9.706395864486694336e-02,-2.297519445419311523e-01,-6.053026318550109863e-01,-5.234063863754272461e-01,-3.264689147472381592e-01,-1.447642408311367035e-02,3.003623485565185547e-01,1.021900177001953125e-01,-3.143198192119598389e-01,-4.329080581665039062e-01,-5.574201345443725586e-01,-6.092679500579833984e-01,-3.957005143165588379e-01,-7.625404000282287598e-02,1.327253431081771851e-01,1.468818932771682739e-01,1.540157496929168701e-01,3.142285346984863281e-01,1.632042527198791504e-01,-1.070185601711273193e-01,-2.393715381622314453e-01,2.869156748056411743e-02,2.004433572292327881e-01,7.833333313465118408e-02,1.278620213270187378e-01,3.344278782606124878e-02,9.577558375895023346e-03,-6.556882988661527634e-03,-5.261928960680961609e-02,-2.909607589244842529e-01,-4.438920021057128906e-01,-5.702232122421264648e-01,-4.005370736122131348e-01,-7.851199060678482056e-02,2.838663756847381592e-01,1.867126375436782837e-01,4.781265929341316223e-02,-3.844867944717407227e-01,-7.007746696472167969e-01,-7.392548918724060059e-01,-4.841869473457336426e-01,-1.617785990238189697e-01,1.775473356246948242e-02,-1.992555893957614899e-02,1.022731363773345947e-01,4.423265457153320312e-01,3.510303795337677002e-01,5.348776280879974365e-02,-1.294942498207092285e-01,4.351843893527984619e-02,3.407120704650878906e-02,6.230322271585464478e-02,4.978338256478309631e-02,1.299217194318771362e-01,7.384535670280456543e-02,-1.335472567006945610e-03,-2.518400847911834717e-01,-4.414449632167816162e-01,-4.289131760597229004e-01,-4.776801466941833496e-01,-4.817169606685638428e-01,-1.205268874764442444e-01,1.113829165697097778e-01,2.101715505123138428e-01,1.372735641780309379e-05,-2.720014750957489014e-01,-5.449705719947814941e-01,-8.257207274436950684e-01,-7.373650670051574707e-01,-2.500519156455993652e-01,-1.188900992274284363e-01,-9.802331775426864624e-02,5.648500099778175354e-02,3.681880831718444824e-01,4.103014469146728516e-01,2.397839874029159546e-01,-4.541908577084541321e-02,-1.227676346898078918e-01,-1.711033582687377930e-01,-1.437786519527435303e-01,-7.341408729553222656e-02,3.109702467918395996e-02,7.596138119697570801e-02,-1.552845388650894165e-01,-3.194856345653533936e-01,-5.593968033790588379e-01,-1.446222364902496338e-01,-1.916033476591110229e-01,-1.743417978286743164e-01,4.415013268589973450e-02,1.383314579725265503e-01,1.222573444247245789e-01,7.866505533456802368e-02,-1.208662539720535278e-01,-3.401180803775787354e-01,-4.537743330001831055e-01,-6.035075187683105469e-01,-2.637956142425537109e-01,-1.052001342177391052e-01,-6.549382954835891724e-02,8.751885616220533848e-04,2.107662558555603027e-01,3.158831298351287842e-01,3.015974164009094238e-01,-1.117004826664924622e-02,-1.860421597957611084e-01,-1.258969753980636597e-01,-8.073107153177261353e-02,-5.025369673967361450e-02,-1.141652315855026245e-01,-1.577489972114562988e-01,-3.221260905265808105e-01,-5.975205898284912109e-01,-6.278904676437377930e-01,-3.149900138378143311e-01,-3.084016442298889160e-01,2.457211911678314209e-02,-3.697071224451065063e-02,1.764296293258666992e-01,1.219396814703941345e-01,-3.845365718007087708e-02,-7.778028026223182678e-03,-3.545440733432769775e-02,-2.129351198673248291e-01,-4.047116935253143311e-01,-1.635523289442062378e-01,-1.148176491260528564e-01,-1.044023260474205017e-01,-5.641786754131317139e-02,2.728569693863391876e-02,2.234973758459091187e-01,3.055216968059539795e-01,1.323761940002441406e-01,-7.487885653972625732e-02,-1.409385502338409424e-01,-1.340279430150985718e-01,-2.725549638271331787e-01,-3.108000457286834717e-01,-2.313811779022216797e-01,-5.669074058532714844e-01,-9.077930450439453125e-01,-8.399590253829956055e-01,-5.223226547241210938e-01,-2.225412130355834961e-01,4.146484285593032837e-02,4.209810122847557068e-02,1.244520023465156555e-01,4.921222105622291565e-02,1.254232879728078842e-02,2.235164493322372437e-01,2.123179137706756592e-01,-5.874429643154144287e-02,-3.149246871471405029e-01,-2.409321069717407227e-01,-2.327240109443664551e-01,-1.849083751440048218e-01,-2.378301322460174561e-01,-1.886731088161468506e-01,-3.392191603779792786e-02,5.559064447879791260e-03,-4.170772619545459747e-03,-1.301590651273727417e-01,-1.726148575544357300e-01,-2.308382242918014526e-01,-3.362140059471130371e-01,-3.030671775341033936e-01,-5.390856862068176270e-01,-7.930752038955688477e-01,-7.382931113243103027e-01,-5.693337321281433105e-01,-4.639806151390075684e-01,-2.411033213138580322e-01,-1.394996941089630127e-01,-5.657496303319931030e-02,-2.591870725154876709e-02,2.329223603010177612e-02,1.998469382524490356e-01,2.582125067710876465e-01,1.500815004110336304e-01,-6.208810955286026001e-02,-1.787544041872024536e-01,-2.983279228210449219e-01,-3.684971928596496582e-01,-5.228073000907897949e-01,-4.531089961528778076e-01,-3.908358812332153320e-01,-1.203779503703117371e-01,-5.629488825798034668e-02,2.713027596473693848e-02,-6.948363035917282104e-02,-8.608411997556686401e-03,-1.866305917501449585e-01,-3.276673555374145508e-01,-2.745596766471862793e-01,-3.988224565982818604e-01,-4.316725134849548340e-01,-6.441425681114196777e-01,-3.779543638229370117e-01,-2.145201563835144043e-01,3.549983724951744080e-02,-1.758232265710830688e-01,-1.720665544271469116e-01,4.880193620920181274e-02,-1.495769321918487549e-01,8.113789558410644531e-02,2.372060120105743408e-01,-1.808064617216587067e-02,1.768924295902252197e-02,-1.000162512063980103e-01,-1.561576724052429199e-01,-2.357951849699020386e-01,-2.450996339321136475e-01,-1.764222979545593262e-01,-1.418821960687637329e-01,1.273108762688934803e-03,1.616093963384628296e-01,2.568690180778503418e-01,2.682763636112213135e-01,3.287702500820159912e-01,2.717083394527435303e-01,2.311792522668838501e-01,3.752135038375854492e-01,3.270075023174285889e-01,1.307336539030075073e-01,3.148488327860832214e-02,-8.704561740159988403e-02,4.808709770441055298e-02,6.558810919523239136e-02,-9.553644806146621704e-02,-1.285324841737747192e-01,-6.919696927070617676e-03,-7.628701627254486084e-02,-4.138790071010589600e-02,1.512289047241210938e-02,4.003927111625671387e-02,1.426347643136978149e-01,4.095698893070220947e-01,4.327490031719207764e-01,2.624725997447967529e-01,2.470569461584091187e-01,2.639502584934234619e-01,2.357445061206817627e-01,1.827611625194549561e-01,3.971076607704162598e-01,6.142656207084655762e-01,6.365391612052917480e-01,7.968848347663879395e-01,9.079291224479675293e-01,9.183043837547302246e-01,1.039330840110778809e+00,9.090227484703063965e-01,6.574479937553405762e-01,5.003131628036499023e-01,9.059787541627883911e-02,-4.747339338064193726e-02,6.008350476622581482e-02,-1.478952914476394653e-01,-1.777480244636535645e-01,1.593346148729324341e-02,-1.309932619333267212e-01,2.170017547905445099e-02,3.501255214214324951e-01,2.582750022411346436e-01,5.872721076011657715e-01,1.101844906806945801e+00,1.326649546623229980e+00,9.736582040786743164e-01,7.505966424942016602e-01,6.195870041847229004e-01,6.507757902145385742e-01,5.880965590476989746e-01,6.839793920516967773e-01,8.170482516288757324e-01,8.698381185531616211e-01,9.966843724250793457e-01,1.198881149291992188e+00,1.340360760688781738e+00,1.442434668540954590e+00,1.171953201293945312e+00,1.056019783020019531e+00,7.182446718215942383e-01,1.431033015251159668e-01,-1.488708704710006714e-01,-2.752664312720298767e-02,-1.619073748588562012e-01,-6.737181544303894043e-02,5.539881438016891479e-02,-4.236431047320365906e-02,-3.474546596407890320e-02,2.803752124309539795e-01,5.063714981079101562e-01,9.086111187934875488e-01,1.379432678222656250e+00,1.481935501098632812e+00,1.090501189231872559e+00,7.707148194313049316e-01,6.936885118484497070e-01,7.739789485931396484e-01,7.931388616561889648e-01,8.615413904190063477e-01,8.409520387649536133e-01,7.768589854240417480e-01,9.366196990013122559e-01,1.288721680641174316e+00,1.502221226692199707e+00,1.439880967140197754e+00,1.307191371917724609e+00,1.024552583694458008e+00,6.462399363517761230e-01,1.184527277946472168e-01,-7.454835623502731323e-02,-3.383214399218559265e-02,2.934260666370391846e-02,2.461299300193786621e-04
4.730142652988433838e-03,-5.733050405979156494e-02,-2.846612781286239624e-02,7.181727141141891479e-02,4.502812400460243225e-02,-1.649614572525024414e-01,-9.807296097278594971e-02,3.253494948148727417e-02,-3.973479941487312317e-02,-9.941435605287551880e-02,-3.338681757450103760e-01,-2.956550419330596924e-01,-2.044792324304580688e-01,-4.926246106624603271e-01,-5.767616033554077148e-01,-4.449547529220581055e-01,-4.834714531898498535e-01,-3.607932925224304199e-01,-1.594008505344390869e-01,-8.548242622055113316e-04,1.743024587631225586e-02,3.241173981223255396e-04,-9.956892579793930054e-02,9.584645926952362061e-02,2.215746324509382248e-03,-1.674744486808776855e-02,1.874006539583206177e-02,-5.880393087863922119e-02,-7.107524573802947998e-02,2.879989892244338989e-02,-8.124991506338119507e-02,-5.726517364382743835e-02,-2.287127077579498291e-01,-1.077914908528327942e-01,8.713585883378982544e-02,2.082329839468002319e-01,3.408198952674865723e-01,4.002515673637390137e-01,2.979995608329772949e-01,7.275522500276565552e-02,2.280881255865097046e-01,1.038725599646568298e-01,1.617998629808425903e-02,-1.457361429929733276e-01,-1.756096035242080688e-01,-6.891731172800064087e-02,-2.826446481049060822e-02,-6.304032355546951294e-02,8.074021339416503906e-02,-2.341442555189132690e-02,-5.405005067586898804e-03,1.919555962085723877e-01,1.905844956636428833e-01,1.906354427337646484e-01,2.475933544337749481e-02,-4.787104204297065735e-03,-4.304073750972747803e-02,-6.341927498579025269e-02,5.409387499094009399e-02,7.036283612251281738e-02,-3.825909271836280823e-02,3.816243261098861694e-02,1.820299327373504639e-01,2.896662652492523193e-01,5.889878869056701660e-01,9.621116518974304199e-01,9.525446295738220215e-01,6.515998244285583496e-01,5.216907858848571777e-01,6.206989288330078125e-01,4.706575870513916016e-01,3.964467346668243408e-01,2.340710759162902832e-01,2.041974961757659912e-01,-3.375136852264404297e-02,-1.190875172615051270e-01,1.015422642230987549e-01,1.588309258222579956e-01,2.203369587659835815e-01,2.558976113796234131e-01,3.343006670475006104e-01,3.427413702011108398e-01,1.965317726135253906e-01,-6.057897116988897324e-03,-3.720026463270187378e-02,-2.208851277828216553e-03,1.227641105651855469e-02,1.575118154287338257e-01,4.311769735068082809e-03,8.767224848270416260e-02,4.970960915088653564e-01,5.724721550941467285e-01,7.548138499259948730e-01,8.318322896957397461e-01,7.677348256111145020e-01,4.675749540328979492e-01,4.225096702575683594e-01,2.495278716087341309e-01,-3.319499269127845764e-02,-1.741033494472503662e-01,-1.625746488571166992e-01,-7.575426250696182251e-02,-3.809262067079544067e-02,-8.168225735425949097e-02,4.551298543810844421e-02,1.876238137483596802e-01,2.578819990158081055e-01,2.649328112602233887e-01,3.346267640590667725e-01,2.720963954925537109e-01,1.471804529428482056e-01,1.132326275110244751e-01,-4.679784178733825684e-03,-7.583606988191604614e-02,7.740904390811920166e-02,2.838140353560447693e-02,6.038406863808631897e-02,2.162712514400482178e-01,4.223224520683288574e-01,6.178987622261047363e-01,5.037565231323242188e-01,2.637198865413665771e-01,2.263329923152923584e-01,6.477215141057968140e-02,9.557436406612396240e-02,1.787083446979522705e-01,-9.950231760740280151e-02,-1.915019005537033081e-01,-1.204642057418823242e-01,-5.755062773823738098e-02,4.884539917111396790e-02,5.074481666088104248e-02,4.746703058481216431e-02,1.197472736239433289e-01,1.510661244392395020e-01,7.249482441693544388e-03,4.825506825000047684e-03,1.168436631560325623e-01,-6.653501093387603760e-02,-1.622415781021118164e-01,2.811042405664920807e-02,-2.489462643861770630e-01,3.770047053694725037e-02,1.649586111307144165e-01,1.188518926501274109e-01,-1.807364821434020996e-02,2.824926674365997314e-01,3.288381099700927734e-01,1.170507073402404785e-01,2.141498774290084839e-01,2.615527808666229248e-01,1.965728104114532471e-01,3.163941502571105957e-01,1.733272969722747803e-01,2.161224037408828735e-01,2.248434908688068390e-02,2.542912587523460388e-02,4.221447184681892395e-02,1.172079369425773621e-01,8.566857129335403442e-02,8.176541328430175781e-02,1.316107809543609619e-01,1.496603339910507202e-02,1.036224514245986938e-02,3.890314698219299316e-02,1.637150645256042480e-01,-1.443701237440109253e-01,-2.410620748996734619e-01,1.412085071206092834e-02,-9.670794010162353516e-02,1.451897025108337402e-01,3.343899846076965332e-01,2.718283236026763916e-01,1.422584354877471924e-01,3.629020154476165771e-01,2.369916141033172607e-01,1.445305943489074707e-01,1.747067719697952271e-01,2.964041233062744141e-01,4.364669919013977051e-01,3.616658449172973633e-01,1.676412969827651978e-01,2.021090835332870483e-01,4.544014856219291687e-02,2.439065836369991302e-02,-3.724697604775428772e-02,6.677402555942535400e-02,1.137464195489883423e-01,9.102636575698852539e-02,-8.905635774135589600e-02,6.671769171953201294e-02,-4.875174164772033691e-02,1.070937290787696838e-01,2.405860722064971924e-01,2.840612549334764481e-03,-8.712412416934967041e-02,9.867449104785919189e-02,-3.786547482013702393e-02,4.333965182304382324e-01,6.708062887191772461e-01,5.894050598144531250e-01,2.177051603794097900e-01,1.586604267358779907e-01,3.476791977882385254e-01,3.201493322849273682e-01,2.716015279293060303e-01,3.500834703445434570e-01,2.078613191843032837e-01,1.219112873077392578e-01,6.955143529921770096e-03,-8.539221435785293579e-02,-5.245434865355491638e-02,-1.168748661875724792e-01,2.443340420722961426e-02,6.366107612848281860e-02,2.008695453405380249e-01,-1.207580883055925369e-02,-1.033149585127830505e-01,2.616249211132526398e-02,-1.159375086426734924e-01,4.885713756084442139e-02,2.331522554159164429e-01,6.976668536663055420e-02,2.065189555287361145e-02,1.939198225736618042e-01,2.589436471462249756e-01,4.612056910991668701e-01,8.386769890785217285e-01,7.450009584426879883e-01,4.053763449192047119e-01,2.742778360843658447e-01,2.310492992401123047e-01,1.672348231077194214e-01,3.641987219452857971e-02,-1.227146983146667480e-01,-2.033959180116653442e-01,-2.919422090053558350e-01,-3.634022474288940430e-01,-2.731339931488037109e-01,-3.724491398315876722e-04,3.039505332708358765e-02,7.252501696348190308e-02,1.385841332376003265e-02,1.362068802118301392e-01,6.532403826713562012e-02,-8.061393350362777710e-02,8.745832741260528564e-02,-7.713402807712554932e-02,-1.098086312413215637e-01,2.539409399032592773e-01,2.366395294666290283e-01,1.570954918861389160e-01,1.474503725767135620e-01,1.446661949157714844e-01,4.228000342845916748e-01,8.302942514419555664e-01,5.167573094367980957e-01,1.183479130268096924e-01,-2.190670669078826904e-01,-3.823044300079345703e-01,-3.995889127254486084e-01,-7.516305446624755859e-01,-6.286098957061767578e-01,-6.927832961082458496e-01,-5.495387315750122070e-01,-3.993247449398040771e-01,-3.832879662513732910e-01,-1.939727813005447388e-01,-4.535947367548942566e-02,8.737690746784210205e-02,1.026778519153594971e-01,1.455563604831695557e-01,-8.886007592082023621e-03,8.605999499559402466e-02,6.894376594573259354e-03,-1.597191691398620605e-01,-4.513385593891143799e-01,2.460648864507675171e-01,3.911811709403991699e-01,3.410060703754425049e-01,-5.697915703058242798e-02,7.075084000825881958e-02,4.003165662288665771e-01,5.364363789558410645e-01,1.246177405118942261e-02,-5.513731241226196289e-01,-9.407942295074462891e-01,-1.171089410781860352e+00,-1.140013694763183594e+00,-1.124474048614501953e+00,-7.912762165069580078e-01,-5.589820146560668945e-01,-4.141178131103515625e-01,-3.823578059673309326e-01,-2.767593860626220703e-01,-4.515821114182472229e-02,-2.536812610924243927e-02,1.448087245225906372e-01,3.291923701763153076e-01,1.238200217485427856e-01,7.570832967758178711e-02,2.622561529278755188e-02,-4.650514945387840271e-02,-4.131412804126739502e-01,-6.615447402000427246e-01,2.288353592157363892e-01,4.921605288982391357e-01,5.199269056320190430e-01,-3.811128064990043640e-02,-3.961561992764472961e-02,9.066706895828247070e-02,-4.950667917728424072e-02,-6.518662571907043457e-01,-1.008120417594909668e+00,-1.151236295700073242e+00,-1.048722147941589355e+00,-6.080007553100585938e-01,-3.843840956687927246e-01,-1.360456645488739014e-02,-7.039678096771240234e-02,-1.469037979841232300e-01,7.602713257074356079e-02,1.892453134059906006e-01,-5.458496883511543274e-02,-2.848901785910129547e-02,9.963697940111160278e-02,2.780152857303619385e-01,2.544616758823394775e-01,9.609258919954299927e-02,6.177869811654090881e-02,1.433431264013051987e-02,-3.709718585014343262e-01,-7.676234245300292969e-01,-7.443751394748687744e-02,3.159115612506866455e-01,4.740150868892669678e-01,-3.702195733785629272e-02,-2.295353114604949951e-01,-1.923817992210388184e-01,-1.287605911493301392e-01,-3.487632870674133301e-01,-4.283294975757598877e-01,-2.995483279228210449e-01,-1.401816457509994507e-01,1.225355640053749084e-01,3.915106952190399170e-01,2.890595197677612305e-01,1.111401766538619995e-01,1.228716075420379639e-01,3.668077886104583740e-01,4.484080374240875244e-01,1.076990440487861633e-01,-1.378894299268722534e-01,6.954753398895263672e-02,1.390264034271240234e-01,-2.734364941716194153e-02,-1.375119388103485107e-02,-1.095885038375854492e-01,-2.338983714580535889e-01,-5.242055654525756836e-01,-8.179979920387268066e-01,-4.486635923385620117e-01,1.575656235218048096e-01,2.691356837749481201e-01,-7.390134036540985107e-03,-3.042312264442443848e-01,-3.145106732845306396e-01,4.159963876008987427e-02,1.671860367059707642e-01,1.430418938398361206e-01,2.691979408264160156e-01,1.773893535137176514e-01,3.765433728694915771e-01,3.682667613029479980e-01,7.352273166179656982e-02,-1.971037685871124268e-02,-8.297593891620635986e-02,2.358884513378143311e-01,2.808058559894561768e-01,5.345005169510841370e-02,-1.452267318964004517e-01,-2.097776830196380615e-01,-1.046517416834831238e-01,-1.931674778461456299e-01,-2.221308350563049316e-01,-2.186326384544372559e-01,-3.672659099102020264e-01,-5.018156170845031738e-01,-5.208285450935363770e-01,-5.275205373764038086e-01,5.088163539767265320e-02,2.002157568931579590e-01,-2.422088384628295898e-01,-2.410150766372680664e-01,-1.972498446702957153e-01,7.126119732856750488e-02,5.376844406127929688e-01,3.307648003101348877e-01,2.636556327342987061e-01,1.377019733190536499e-01,3.163310587406158447e-01,1.003438681364059448e-01,-8.362022787332534790e-02,-2.252935767173767090e-01,-1.772147715091705322e-01,1.033588275313377380e-01,1.687187403440475464e-01,-9.012250602245330811e-02,-8.177208714187145233e-03,-3.576104715466499329e-02,-1.595602743327617645e-02,-2.564316093921661377e-01,-2.863470315933227539e-01,-2.985189259052276611e-01,-1.988888680934906006e-01,-2.517362833023071289e-01,-3.002178668975830078e-01,7.915084064006805420e-02,2.695239782333374023e-01,2.583571672439575195e-01,-1.236175894737243652e-01,-2.655124068260192871e-01,-1.420877426862716675e-01,1.692506819963455200e-01,5.038858652114868164e-01,2.556350827217102051e-01,4.786905646324157715e-02,-9.402992576360702515e-02,-3.899956867098808289e-02,-3.183677792549133301e-02,-1.363691836595535278e-01,-1.326317787170410156e-01,-1.157716847956180573e-02,1.135266646742820740e-01,1.002816017717123032e-02,-1.714215427637100220e-01,-1.545034795999526978e-01,-7.185894250869750977e-02,-7.936320453882217407e-02,-8.095268160104751587e-02,-2.102635353803634644e-01,-1.888038814067840576e-01,-8.515068143606185913e-02,-5.936011672019958496e-02,-9.488512761890888214e-03,3.982629776000976562e-01,4.707716703414916992e-01,3.704756796360015869e-01,-3.076971769332885742e-01,-2.786325514316558838e-01,-2.325730174779891968e-01,7.697384059429168701e-02,3.582775890827178955e-01,1.318170428276062012e-01,6.911978591233491898e-03,-1.182860285043716431e-01,-8.270328491926193237e-02,-5.009192973375320435e-02,-1.170835569500923157e-01,-1.116025224328041077e-01,-1.083013489842414856e-01,4.172793775796890259e-02,1.750686019659042358e-02,-2.478955090045928955e-01,-1.326043307781219482e-01,-1.911911964416503906e-01,-9.128316491842269897e-02,-1.597911119461059570e-01,-1.817228496074676514e-01,-7.642801105976104736e-02,3.619862720370292664e-02,1.296767592430114746e-01,1.368061155080795288e-01,5.613411664962768555e-01,5.678752064704895020e-01,5.548526644706726074e-01,-1.123701408505439758e-01,-1.623501926660537720e-01,-8.426686376333236694e-02,1.792324520647525787e-02,1.415339559316635132e-01,1.455699466168880463e-02,1.032675057649612427e-01,1.373638678342103958e-02,1.528657525777816772e-01,1.527905613183975220e-01,-8.695718646049499512e-02,-1.887582540512084961e-01,-1.267518699169158936e-01,-4.354743659496307373e-02,-1.732239276170730591e-01,-3.252641260623931885e-01,-3.055389523506164551e-01,-4.309932887554168701e-01,-2.696116566658020020e-01,-2.164890021085739136e-01,-8.716244995594024658e-02,-7.731950283050537109e-02,1.421925872564315796e-01,1.520280689001083374e-01,1.466211825609207153e-01,5.615332722663879395e-01,5.628570318222045898e-01,5.642569065093994141e-01,-3.186559304594993591e-02,-3.550354763865470886e-02,8.840899914503097534e-02,2.317739725112915039e-01,1.870778650045394897e-01,6.623528897762298584e-03,8.961385488510131836e-02,3.608215600252151489e-02,-7.091160863637924194e-02,4.902916401624679565e-02,1.380800921469926834e-02,-4.322160780429840088e-02,4.213891178369522095e-02,1.241584569215774536e-01,-3.746623871847987175e-03,-1.172413751482963562e-01,-1.417231261730194092e-01,-2.630889713764190674e-01,-1.717709153890609741e-01,-1.268936693668365479e-01,-1.103557869791984558e-01,-1.779025048017501831e-02,-1.015765592455863953e-01,5.509467329829931259e-03,5.709877237677574158e-02,6.045426726341247559e-01,6.466178297996520996e-01,4.640851020812988281e-01,3.924458920955657959e-01,3.577947616577148438e-01,3.323900997638702393e-01,3.056123852729797363e-01,1.635913550853729248e-01,1.022702232003211975e-01,5.000045150518417358e-02,4.310350120067596436e-02,-4.142091423273086548e-02,-8.327128738164901733e-02,-5.468882992863655090e-02,-1.224334836006164551e-01,1.151441484689712524e-01,1.806172430515289307e-01,1.917636394500732422e-01,1.515793800354003906e-01,6.015606969594955444e-02,-7.651013880968093872e-02,1.021016482263803482e-02,-7.564825471490621567e-03,-7.094111759215593338e-03,-8.584482967853546143e-02,-3.353081941604614258e-01,-3.075687885284423828e-01,2.207310404628515244e-03,4.579896330833435059e-01,4.984465837478637695e-01,3.872043788433074951e-01,5.226563811302185059e-01,7.165372371673583984e-01,5.581943988800048828e-01,2.837923467159271240e-01,1.713995933532714844e-01,5.425320006906986237e-03,-3.618941828608512878e-02,2.362938411533832550e-02,-1.613578759133815765e-02,-1.409947276115417480e-01,-1.954861730337142944e-01,-1.954095065593719482e-01,-5.959105864167213440e-02,2.622388675808906555e-02,1.813502460718154907e-01,3.238282501697540283e-01,4.189578890800476074e-01,3.307316601276397705e-01,2.314323186874389648e-01,1.920103877782821655e-01,-4.761970415711402893e-02,-1.113594770431518555e-01,-4.317471981048583984e-01,-4.515594244003295898e-01,-1.314804553985595703e-01,3.383120000362396240e-01,6.092860102653503418e-01,5.451264381408691406e-01,2.846833169460296631e-01,7.069725990295410156e-01,4.026187956333160400e-01,7.784748822450637817e-02,1.456356495618820190e-01,1.234927177429199219e-01,5.590653792023658752e-02,7.639193907380104065e-03,-3.179169027134776115e-03,-4.060070961713790894e-03,-2.993251942098140717e-02,-2.052362859249114990e-01,-1.691399067640304565e-01,-8.109231293201446533e-02,7.174413651227951050e-02,2.180990725755691528e-01,2.387148141860961914e-01,3.345262408256530762e-01,1.998591572046279907e-01,1.272869706153869629e-01,1.034134030342102051e-01,-1.051185950636863708e-01,-3.039517402648925781e-01,-2.696225941181182861e-01,7.366621494293212891e-02,4.677482247352600098e-01,5.968469381332397461e-01,5.768736004829406738e-01,1.035410836338996887e-01,2.588446736335754395e-01,1.826247423887252808e-01,2.318709641695022583e-01,1.838621199131011963e-01,3.140861392021179199e-01,2.339543104171752930e-01,5.619780346751213074e-02,-5.107744410634040833e-02,4.823236912488937378e-02,-9.134417772293090820e-02,1.416078954935073853e-02,2.978053316473960876e-02,-3.093068301677703857e-02,-9.727750718593597412e-02,-7.276899367570877075e-02,1.008903905749320984e-01,1.341916322708129883e-01,1.195377334952354431e-01,8.734221756458282471e-02,1.281975805759429932e-01,2.190845459699630737e-02,-1.453972756862640381e-01,1.842991858720779419e-01,3.825694918632507324e-01,6.413527727127075195e-01,5.151557922363281250e-01,5.423531532287597656e-01,-6.405481696128845215e-02,-1.213040053844451904e-01,-1.514900624752044678e-01,2.167418040335178375e-02,4.992066882550716400e-03,2.409240454435348511e-01,2.447137683629989624e-01,4.725413396954536438e-02,-1.085116565227508545e-01,-4.147723689675331116e-02,-1.214701309800148010e-01,4.715730994939804077e-02,1.279821693897247314e-01,-6.705606821924448013e-03,-9.623797982931137085e-02,1.161459553986787796e-02,1.393006294965744019e-01,1.197865977883338928e-02,1.362911909818649292e-01,1.155857890844345093e-01,1.923354119062423706e-01,1.362437158823013306e-01,2.735410928726196289e-01,4.596134722232818604e-01,6.642244458198547363e-01,6.281868219375610352e-01,5.797149538993835449e-01,2.780897915363311768e-01,1.924409158527851105e-02,-3.720720857381820679e-02,-1.462007910013198853e-01,2.240060828626155853e-03,1.604023762047290802e-02,-1.234943643212318420e-01,8.286947850137948990e-04,-3.556259721517562866e-02,-1.136165261268615723e-01,-9.679877758026123047e-02,-5.929578095674514771e-02,3.581364080309867859e-02,1.192335784435272217e-01,1.479860842227935791e-01,1.550073027610778809e-01,2.294135838747024536e-01,1.103849783539772034e-01,8.760467916727066040e-02,1.437453925609588623e-01,1.392297893762588501e-01,2.747172415256500244e-01,5.336229205131530762e-01,6.095767617225646973e-01,4.939917922019958496e-01,4.475079476833343506e-01,4.714010357856750488e-01,2.198224067687988281e-01,2.745995819568634033e-01,1.452854275703430176e-02,-3.774038702249526978e-02,-5.143169686198234558e-02,-5.178435519337654114e-02,-3.511999845504760742e-01,-4.620945155620574951e-01,-3.644303679466247559e-01,-3.694165050983428955e-01,-1.861374229192733765e-01,-1.320974081754684448e-01,-2.744836919009685516e-02,-1.179573163390159607e-01,-3.079338371753692627e-02,-3.604032471776008606e-02,-2.066151238977909088e-02,1.285734474658966064e-01,1.158876493573188782e-01,-2.043644525110721588e-02,1.432539671659469604e-01,3.458420105744153261e-04,8.069800585508346558e-02,4.191201329231262207e-01,4.945084154605865479e-01,3.796669542789459229e-01,1.998031288385391235e-01,3.431153297424316406e-01,1.073122322559356689e-01,1.858377158641815186e-01,-2.096486091613769531e-02,-7.472980767488479614e-02,-1.989899575710296631e-02,-1.746500432491302490e-01,-2.638734281063079834e-01,-5.892845392227172852e-01,-4.946566224098205566e-01,-3.847580552101135254e-01,-1.548703610897064209e-01,-1.723390817642211914e-01,-1.846153736114501953e-01,-4.927514120936393738e-02,-1.094681620597839355e-01,-1.018590554594993591e-01,-2.416695058345794678e-01,1.273214221000671387e-01,1.486394405364990234e-01,2.241503000259399414e-01,5.671333521604537964e-02,3.177695721387863159e-02,1.138862147927284241e-01,4.315313100814819336e-01,4.522189199924468994e-01,3.578808307647705078e-01,1.483117043972015381e-01,2.266534864902496338e-01,7.391371577978134155e-02,5.950120836496353149e-02,-6.438613682985305786e-02,2.892299741506576538e-02,8.208218961954116821e-02,2.049969136714935303e-02,5.497598275542259216e-02,8.716671168804168701e-02,6.152323260903358459e-02,-2.219348251819610596e-01,-5.324363112449645996e-01,-4.833567142486572266e-01,-3.630678355693817139e-01,-1.421971917152404785e-01,-1.295529305934906006e-01,-2.827766835689544678e-01,-2.057111710309982300e-01,6.462804228067398071e-02,3.068794012069702148e-01,2.388464510440826416e-01,1.562005132436752319e-01,1.100714653730392456e-01,2.342373132705688477e-01,2.546702027320861816e-01,2.988051474094390869e-01,3.368023633956909180e-01,6.967228651046752930e-02,3.932161629199981689e-02,-1.201063394546508789e-03,-2.298682555556297302e-02
2.534767240285873413e-02,-5.310475826263427734e-04,1.903501152992248535e-02,-5.578598752617835999e-02,-4.436910524964332581e-02,1.137011870741844177e-02,4.392326623201370239e-02,8.076120167970657349e-02,1.338849812746047974e-01,1.180174872279167175e-01,1.100845634937286377e-02,-1.378777772188186646e-01,-1.927250623703002930e-02,-1.546029280871152878e-02,7.816221565008163452e-02,5.909707769751548767e-02,1.006522774696350098e-01,2.760591916739940643e-02,6.884240079671144485e-03,-8.429834991693496704e-02,-8.492139726877212524e-02,4.029497504234313965e-02,6.763371080160140991e-02,-3.489452600479125977e-02,1.543397456407546997e-02,-3.693810850381851196e-02,-3.980724513530731201e-02,-4.690571501851081848e-02,7.798772305250167847e-02,-3.277070820331573486e-03,-3.848112374544143677e-02,9.535492211580276489e-02,1.072229817509651184e-01,7.981503009796142578e-02,2.829603850841522217e-01,4.820714592933654785e-01,4.862515330314636230e-01,5.130885839462280273e-01,3.827495574951171875e-01,4.841055572032928467e-01,4.332204163074493408e-02,-2.905978262424468994e-01,-4.677174985408782959e-01,-4.841739535331726074e-01,-6.575059294700622559e-01,-5.278161764144897461e-01,-1.653011739253997803e-01,-9.679615497589111328e-02,2.562335133552551270e-02,-6.123707816004753113e-02,-7.622886449098587036e-02,3.032242879271507263e-03,-8.238615095615386963e-02,-2.731936052441596985e-02,-7.243724912405014038e-02,8.939996361732482910e-03,7.616216689348220825e-02,1.483124494552612305e-02,1.014960557222366333e-01,5.188908800482749939e-02,2.376263439655303955e-01,3.373849391937255859e-01,4.958830177783966064e-01,5.283470749855041504e-01,5.237812399864196777e-01,3.173672854900360107e-01,2.436454743146896362e-01,1.087373867630958557e-01,-1.355865746736526489e-01,-4.674676060676574707e-01,-7.057384252548217773e-01,-8.794262409210205078e-01,-1.061377525329589844e+00,-8.090112805366516113e-01,-8.213140368461608887e-01,-6.543903946876525879e-01,-6.131132245063781738e-01,-3.967155218124389648e-01,3.206061571836471558e-02,1.781874708831310272e-02,-2.047189697623252869e-02,-7.523994147777557373e-02,-5.189934745430946350e-02,-5.300357937812805176e-03,7.679531723260879517e-02,-4.641136154532432556e-02,1.335932463407516479e-01,3.377210795879364014e-01,3.619480133056640625e-01,2.444380074739456177e-01,4.507613778114318848e-01,5.675033330917358398e-01,2.764550447463989258e-01,1.668124496936798096e-01,7.535009086132049561e-02,-8.170150965452194214e-02,-3.078515231609344482e-01,-3.810092806816101074e-01,-5.840331912040710449e-01,-8.026471138000488281e-01,-7.962043881416320801e-01,-8.359975814819335938e-01,-8.754013776779174805e-01,-9.603754281997680664e-01,-7.684544920921325684e-01,-4.848158359527587891e-01,-1.753383427858352661e-01,1.980149149894714355e-01,1.125162467360496521e-01,1.276090554893016815e-02,-2.554377354681491852e-02,3.134718537330627441e-02,4.055617004632949829e-02,-6.494275480508804321e-02,1.889418810606002808e-01,2.911952137947082520e-01,3.661080002784729004e-01,2.917571663856506348e-01,3.506610095500946045e-01,3.832975625991821289e-01,1.484298855066299438e-01,1.237154230475425720e-01,1.349792629480361938e-02,7.191323488950729370e-02,1.803955435752868652e-01,-1.005682069808244705e-02,4.962578415870666504e-02,-2.181341350078582764e-01,-1.507264077663421631e-01,-5.530864596366882324e-01,-9.210501909255981445e-01,-9.036917686462402344e-01,-8.146089911460876465e-01,-5.171527266502380371e-01,-3.926327824592590332e-01,2.172940596938133240e-02,4.646410644054412842e-01,2.552062571048736572e-01,1.423317044973373413e-01,1.322561353445053101e-01,1.033858628943562508e-03,7.836293429136276245e-02,4.143125116825103760e-01,4.715282022953033447e-01,3.442775607109069824e-01,1.586901098489761353e-01,1.623412966728210449e-01,1.120712459087371826e-01,4.759503901004791260e-02,-3.984226379543542862e-03,1.496926546096801758e-01,3.698290586471557617e-01,3.323751091957092285e-01,2.522701323032379150e-01,-2.175571396946907043e-03,-3.844799846410751343e-02,1.342379450798034668e-01,-1.145823523402214050e-01,-2.777495384216308594e-01,-6.096938252449035645e-01,-6.163526177406311035e-01,-6.505268812179565430e-01,-6.482645273208618164e-01,-1.620050966739654541e-01,4.266280829906463623e-01,3.848361670970916748e-01,4.579854905605316162e-01,3.219254016876220703e-01,1.047551482915878296e-01,1.677820533514022827e-01,4.958286285400390625e-01,4.223885536193847656e-01,1.227928102016448975e-01,7.648745668120682240e-04,-2.288279384374618530e-01,-2.532239258289337158e-01,3.014349937438964844e-02,1.190948020666837692e-02,2.716504931449890137e-01,4.799517095088958740e-01,4.326958358287811279e-01,3.692574203014373779e-01,3.452565968036651611e-01,2.776324450969696045e-01,2.633060216903686523e-01,1.793912351131439209e-01,1.104929149150848389e-01,-1.803905814886093140e-01,-5.697743892669677734e-01,-8.304060697555541992e-01,-8.735331296920776367e-01,-1.600788831710815430e-01,2.433889359235763550e-01,5.583107471466064453e-01,5.032641887664794922e-01,4.563996195793151855e-01,2.625812292098999023e-01,3.844936788082122803e-01,4.952890276908874512e-01,4.369483590126037598e-01,-4.333452880382537842e-02,-3.464248776435852051e-01,-3.231590390205383301e-01,-1.657997518777847290e-01,1.217799484729766846e-01,2.035509198904037476e-01,2.437013238668441772e-01,3.150692880153656006e-01,3.489473760128021240e-01,6.311559677124023438e-01,6.970140933990478516e-01,5.414764285087585449e-01,2.512389719486236572e-01,1.385530233383178711e-01,-8.664687164127826691e-03,-1.044520884752273560e-01,-4.374195635318756104e-01,-9.277413487434387207e-01,-8.923178315162658691e-01,-4.143550097942352295e-01,2.296905219554901123e-01,5.234936475753784180e-01,6.302418112754821777e-01,4.827098846435546875e-01,3.978458642959594727e-01,5.795004963874816895e-01,5.677867531776428223e-01,3.245263099670410156e-01,1.209853775799274445e-02,-2.942865192890167236e-01,-5.674265325069427490e-02,-1.018039789050817490e-02,1.721116304397583008e-01,9.194149076938629150e-02,5.066407099366188049e-02,2.916705422103404999e-02,2.278228551149368286e-01,4.743570983409881592e-01,4.966571331024169922e-01,4.349916875362396240e-01,3.321331143379211426e-01,2.732991576194763184e-01,2.194114625453948975e-01,2.069124206900596619e-02,-2.404850870370864868e-01,-6.225488781929016113e-01,-7.660132646560668945e-01,-4.891376793384552002e-01,-2.278588525950908661e-02,3.586757183074951172e-01,4.127602577209472656e-01,3.326916098594665527e-01,2.683100402355194092e-01,2.482978701591491699e-01,1.783644855022430420e-01,6.037401780486106873e-02,-1.958227306604385376e-01,-2.297183126211166382e-01,-1.040281876921653748e-01,7.262064516544342041e-02,8.039673417806625366e-02,-1.769712269306182861e-01,-2.079924196004867554e-01,-2.967280745506286621e-01,-1.668320745229721069e-01,-6.875833123922348022e-02,-3.969849646091461182e-02,6.109378114342689514e-02,7.432092726230621338e-02,1.338482797145843506e-01,2.768566012382507324e-01,2.780779898166656494e-01,7.478805631399154663e-02,-2.383245527744293213e-01,-3.891123831272125244e-01,-4.780560731887817383e-01,-2.341063767671585083e-01,-1.162242703139781952e-02,1.639040261507034302e-01,2.166691720485687256e-01,1.779418587684631348e-01,1.376202851533889771e-01,7.857957482337951660e-02,4.019252210855484009e-02,-6.512498110532760620e-02,-1.894471049308776855e-01,-2.848264873027801514e-01,-6.159193068742752075e-02,-1.594268530607223511e-01,-2.875755131244659424e-01,-2.594485282897949219e-01,-3.469190299510955811e-01,-4.772335886955261230e-01,-6.090263128280639648e-01,-4.489732682704925537e-01,-2.581846415996551514e-01,5.286986753344535828e-02,1.365628689527511597e-01,2.490659952163696289e-01,2.882611453533172607e-01,2.773099839687347412e-01,-7.462471723556518555e-03,-2.695980966091156006e-01,-4.018056094646453857e-01,-5.252869725227355957e-01,-2.314784675836563110e-01,-1.406246870756149292e-01,-4.622871801257133484e-02,-9.520179033279418945e-02,-2.347743064165115356e-01,-3.051682114601135254e-01,-2.715487182140350342e-01,-5.680676549673080444e-02,-1.952531486749649048e-01,-1.879596412181854248e-01,-1.447489410638809204e-01,-2.361645102500915527e-01,-3.089010417461395264e-01,-7.384537905454635620e-02,-2.776182591915130615e-01,-4.281549453735351562e-01,-6.119161844253540039e-01,-3.956115543842315674e-01,-1.753412336111068726e-01,-9.830215573310852051e-02,-6.714017363265156746e-04,7.628433406352996826e-02,1.267977058887481689e-01,1.684661209583282471e-01,-1.038329750299453735e-01,-9.624800831079483032e-02,-2.648041844367980957e-01,-5.481036305427551270e-01,-3.635793626308441162e-01,-2.666176557540893555e-01,-1.030285507440567017e-01,-6.571154296398162842e-02,-2.588464617729187012e-01,-3.964828550815582275e-01,-1.959674507379531860e-01,-1.823967993259429932e-01,-1.919354349374771118e-01,-6.935091316699981689e-02,-1.008329764008522034e-01,-1.109866946935653687e-01,1.973671093583106995e-02,3.345912322402000427e-03,-2.945246361196041107e-02,-2.962352931499481201e-01,-1.967518627643585205e-01,1.687586456537246704e-01,4.496317356824874878e-03,-4.854528233408927917e-02,3.319503739476203918e-02,3.956494387239217758e-03,8.251244574785232544e-02,1.201537773013114929e-01,-1.050536483526229858e-01,-1.331511735916137695e-01,-1.396367549896240234e-01,-4.130023121833801270e-01,-4.762455821037292480e-01,-3.738473057746887207e-01,-1.634727120399475098e-01,-4.375160112977027893e-02,-2.636120282113552094e-02,-1.162849739193916321e-01,-2.134768068790435791e-01,-6.006772443652153015e-02,-8.453179150819778442e-02,2.821304276585578918e-02,-3.907952085137367249e-02,-1.494033038616180420e-01,2.604947611689567566e-02,-5.174242332577705383e-02,-1.841537207365036011e-01,-2.066716253757476807e-01,1.144811213016510010e-01,1.873198747634887695e-01,2.248200774192810059e-02,3.813604265451431274e-02,3.154101222753524780e-02,-5.027358978986740112e-02,-1.032753288745880127e-01,1.225379407405853271e-01,2.440693788230419159e-02,-2.335899882018566132e-02,-8.280453830957412720e-02,-1.631248444318771362e-01,-3.254540562629699707e-01,-2.115398049354553223e-01,9.309835731983184814e-02,5.591152608394622803e-02,2.283198535442352295e-01,1.710651367902755737e-01,1.115493942052125931e-02,8.851847797632217407e-02,6.871440261602401733e-02,-2.538007311522960663e-02,-3.923936933279037476e-02,-1.551310718059539795e-01,-3.333219140768051147e-02,-9.847610443830490112e-02,-2.480835318565368652e-01,-4.719990491867065430e-02,7.068733125925064087e-02,-8.587260544300079346e-02,-2.094929963350296021e-01,-5.309150367975234985e-02,8.091308176517486572e-03,-6.022530794143676758e-02,2.148598805069923401e-02,1.169403828680515289e-02,7.368659973144531250e-02,-1.755985245108604431e-02,-1.916024386882781982e-01,-9.509281069040298462e-02,-4.500452429056167603e-02,-3.708897158503532410e-02,-1.846943609416484833e-02,4.931049048900604248e-02,1.085975989699363708e-01,7.977505773305892944e-02,5.056514218449592590e-02,-8.307871408760547638e-03,-4.227025806903839111e-02,5.566030740737915039e-02,-7.163275778293609619e-02,-2.603496611118316650e-01,-1.832618564367294312e-01,-8.591616898775100708e-02,-1.433513220399618149e-02,1.223461627960205078e-01,-3.172945231199264526e-02,-2.287119030952453613e-01,-1.170681193470954895e-01,-9.975977241992950439e-02,-1.358556037303060293e-04,-7.914821803569793701e-02,-1.696883887052536011e-02,2.563686668872833252e-02,-7.317242771387100220e-02,-6.807138770818710327e-02,-1.453757937997579575e-02,-1.459358334541320801e-01,1.149273198097944260e-02,-1.710161715745925903e-01,-1.847750246524810791e-01,-8.285316079854965210e-02,1.216811463236808777e-01,-1.243375167250633240e-01,-2.081795632839202881e-01,-2.437669187784194946e-01,-1.430750787258148193e-01,1.828947477042675018e-02,-1.183556988835334778e-01,-1.671996414661407471e-01,-1.791353523731231689e-01,-2.336677163839340210e-01,2.425675839185714722e-02,7.281077653169631958e-02,-1.494173258543014526e-01,-2.542408704757690430e-01,-8.444629609584808350e-02,1.245228722691535950e-01,8.879751712083816528e-02,1.623212546110153198e-02,7.153446972370147705e-02,-1.733452454209327698e-02,-1.335558146238327026e-01,-2.806826308369636536e-02,-6.705252081155776978e-02,7.659591734409332275e-02,2.567895054817199707e-01,5.095592886209487915e-02,-5.895259976387023926e-02,-1.358323991298675537e-01,-1.001444309949874878e-01,-1.097880750894546509e-01,-3.072181940078735352e-01,-2.880706787109375000e-01,-2.856257557868957520e-01,-1.020663753151893616e-01,-1.534165292978286743e-01,-1.410979870706796646e-02,-1.588178575038909912e-01,-1.471620704978704453e-02,1.715851575136184692e-01,4.787964001297950745e-02,-9.990817308425903320e-02,-1.879212707281112671e-01,-6.582512706518173218e-02,9.261929988861083984e-02,3.453832492232322693e-02,1.167414411902427673e-01,-4.069592431187629700e-02,-9.661620855331420898e-02,-1.121704056859016418e-01,-6.967475265264511108e-02,5.577456951141357422e-02,5.516875162720680237e-02,1.944849342107772827e-01,-2.377213165163993835e-02,-1.238105595111846924e-01,1.016686856746673584e-01,3.653594851493835449e-02,-8.264508098363876343e-02,-1.613804697990417480e-01,-2.468526810407638550e-01,-2.967973053455352783e-01,-1.676746159791946411e-01,-1.347938179969787598e-01,-6.050558760762214661e-02,7.401075214147567749e-02,-2.958503551781177521e-03,9.386900067329406738e-02,1.824944466352462769e-02,-1.643822640180587769e-01,-2.799689471721649170e-01,-1.593955606222152710e-02,1.245812401175498962e-01,5.683367699384689331e-02,-5.705768987536430359e-02,-5.154518038034439087e-02,1.995485974475741386e-03,2.537499926984310150e-02,6.592462211847305298e-02,3.944876790046691895e-02,1.075356304645538330e-01,5.451418086886405945e-02,-1.530685871839523315e-01,-1.210640892386436462e-01,-1.187360845506191254e-02,2.219593618065118790e-03,1.701642423868179321e-01,2.484035938978195190e-01,2.183584421873092651e-01,-5.985230579972267151e-02,-1.694640070199966431e-01,-2.146043628454208374e-01,-1.863993406295776367e-01,-7.210154831409454346e-02,4.369397461414337158e-02,5.047029256820678711e-02,9.246897697448730469e-02,-1.627645492553710938e-01,-9.176363795995712280e-02,9.869765490293502808e-02,-4.357153177261352539e-02,-5.360067263245582581e-02,-5.381374061107635498e-02,9.924404323101043701e-03,-5.425052717328071594e-02,-6.646168231964111328e-02,1.142594069242477417e-01,1.303286254405975342e-01,1.872652024030685425e-01,8.822288364171981812e-03,-2.906824648380279541e-02,1.208543106913566589e-01,1.581213474273681641e-01,1.556422263383865356e-01,2.314149588346481323e-01,4.559926092624664307e-01,6.157831549644470215e-01,2.721849977970123291e-01,-9.002544730901718140e-02,-1.671319752931594849e-01,-1.401264816522598267e-01,1.826017978601157665e-03,-1.822501979768276215e-02,-3.036462329328060150e-02,5.008450523018836975e-02,-5.953229963779449463e-02,-7.218851894140243530e-02,6.258084625005722046e-02,5.458946526050567627e-02,6.454104185104370117e-02,-4.691016674041748047e-02,8.402394503355026245e-02,1.399114131927490234e-01,4.109203815460205078e-02,-4.488005489110946655e-02,2.994720637798309326e-02,2.101440131664276123e-01,2.314277589321136475e-01,2.484677881002426147e-01,9.070986509323120117e-02,1.461360454559326172e-01,1.161393970251083374e-01,2.459187209606170654e-01,6.074337363243103027e-01,5.361484885215759277e-01,3.123568594455718994e-01,5.159827414900064468e-03,-5.692182481288909912e-02,4.100112244486808777e-02,-1.973858661949634552e-02,4.696501046419143677e-02,7.007689028978347778e-02,1.949008703231811523e-01,2.034778594970703125e-01,6.773285567760467529e-02,1.255785077810287476e-01,7.653710246086120605e-02,1.130366697907447815e-01,8.071251958608627319e-02,5.142779275774955750e-02,-1.116099115461111069e-02,-1.865326911211013794e-01,-8.841978758573532104e-02,8.605989068746566772e-02,2.347463220357894897e-01,2.456621378660202026e-01,1.969682276248931885e-01,1.743923574686050415e-01,-2.314005419611930847e-02,2.413592338562011719e-01,3.533334136009216309e-01,7.150967717170715332e-01,6.175572872161865234e-01,2.096214443445205688e-01,3.754454106092453003e-02,-3.407986089587211609e-02,6.850878894329071045e-02,1.629161834716796875e-01,1.602619439363479614e-01,1.621384918689727783e-01,1.133938953280448914e-01,9.051167964935302734e-02,-1.757890917360782623e-02,5.599718540906906128e-02,-2.776934951543807983e-02,4.953366145491600037e-02,8.552012033760547638e-03,-1.426339447498321533e-01,-1.178100183606147766e-01,-1.334509104490280151e-01,6.804360542446374893e-03,2.823328077793121338e-01,2.523562312126159668e-01,1.838717460632324219e-01,1.297877281904220581e-01,8.992334455251693726e-02,7.347474992275238037e-02,1.828222535550594330e-02,3.582404851913452148e-01,7.530701160430908203e-01,4.350155889987945557e-01,2.705658376216888428e-01,1.835891157388687134e-01,1.900753527879714966e-01,6.066701561212539673e-02,1.283383965492248535e-01,-2.204052731394767761e-02,1.754051819443702698e-02,1.711970567703247070e-01,6.164588406682014465e-02,1.170384604483842850e-02,-1.701614111661911011e-01,-4.845260083675384521e-02,-2.093006856739521027e-03,-1.683592498302459717e-01,2.380034886300563812e-02,-4.800378531217575073e-02,1.229966059327125549e-01,5.440248921513557434e-02,2.220930606126785278e-01,4.006289243698120117e-01,2.866150438785552979e-01,2.960377559065818787e-02,6.090431660413742065e-02,6.758901476860046387e-02,6.030955910682678223e-02,3.519644439220428467e-01,6.394696235656738281e-01,3.712737858295440674e-01,4.423763155937194824e-01,3.355072140693664551e-01,2.513507604598999023e-01,1.319982111454010010e-01,1.272037774324417114e-01,2.420127391815185547e-02,-2.009087651968002319e-01,-1.631193011999130249e-01,-1.003030613064765930e-01,-5.437619611620903015e-02,-9.804419428110122681e-02,-4.608385264873504639e-02,7.623554021120071411e-02,1.022943854331970215e-01,2.181739062070846558e-01,3.165774941444396973e-01,4.001974463462829590e-01,3.407149612903594971e-01,4.374160468578338623e-01,6.480966210365295410e-01,4.734762907028198242e-01,2.153651118278503418e-01,-9.252512454986572266e-02,4.369605332612991333e-02,-9.895463474094867706e-03,4.229424297809600830e-01,6.266051530838012695e-01,2.546695172786712646e-01,2.426603287458419800e-01,2.272357493638992310e-01,2.221531122922897339e-01,3.875966072082519531e-01,5.368648767471313477e-01,4.941104948520660400e-01,4.498370587825775146e-01,3.648949265480041504e-01,3.100419342517852783e-01,4.293237626552581787e-01,4.165064990520477295e-01,3.253724873065948486e-01,2.953592836856842041e-01,1.808552443981170654e-01,3.908535242080688477e-01,5.016795396804809570e-01,6.130053400993347168e-01,4.423136413097381592e-01,4.728387594223022461e-01,7.426291704177856445e-01,5.624720454216003418e-01,1.994381248950958252e-01,-8.540604263544082642e-02,-3.059137240052223206e-02,-1.274417787790298462e-01,9.458076953887939453e-02,2.981513142585754395e-01,1.572211831808090210e-01,2.223094180226325989e-02,3.609173744916915894e-02,1.567860096693038940e-01,2.763001322746276855e-01,3.165695965290069580e-01,5.665089488029479980e-01,3.959121406078338623e-01,3.817616701126098633e-01,3.717716038227081299e-01,3.805527687072753906e-01,5.442886352539062500e-01,5.686002969741821289e-01,4.670537412166595459e-01,2.253893464803695679e-01,3.086028993129730225e-01,4.918932020664215088e-01,3.670226931571960449e-01,3.850847780704498291e-01,2.152858972549438477e-01,4.179156124591827393e-01,3.279018104076385498e-01,-1.154425293207168579e-01,5.779206752777099609e-03,-9.306721389293670654e-03,-7.688999176025390625e-03,6.862778682261705399e-03,1.207227557897567749e-01,-2.754961326718330383e-02,-1.148349978029727936e-02,3.211497515439987183e-02,1.907288879156112671e-01,1.190391555428504944e-01,2.741484642028808594e-01,3.688855469226837158e-01,3.292469084262847900e-01,2.008140385150909424e-01,2.874509990215301514e-01,3.293804824352264404e-01,5.725133419036865234e-01,6.140961647033691406e-01,5.661816596984863281e-01,2.930582165718078613e-01,1.921022683382034302e-01,2.925672531127929688e-01,2.623755335807800293e-01,2.841235697269439697e-01,1.223097741603851318e-01,1.735326349735260010e-01,1.614160388708114624e-01,5.687979608774185181e-02,1.640536636114120483e-02
